105 300
do -3.3525404e-05 0.0013161254 1.3436265e-05 -0.0009868785 0.00027986665 -0.00013940863 -0.0011009782 -0.0011377706 0.0007986581 8.791066e-05 0.0006786251 -0.00038093518 0.00073224126 0.00029923092 -0.0005441169 -0.001038071 0.0009804686 0.0012982291 0.0015991731 -0.00027660027 0.0014568967 -0.0005300438 0.0012271504 0.00077710825 -0.0004419998 -0.00023606537 -0.00015481397 -0.0011353209 -0.0010800988 -0.0013953111 -0.0015999484 -0.0008295688 0.0010928531 0.0010390764 -2.2690358e-05 -0.0001948229 0.0014341451 0.0011367725 0.00083207665 0.00097126956 -0.0007484041 8.188082e-05 0.00084754586 0.00087927486 0.0006172064 0.00049010484 -0.0014185328 -0.00055384677 0.00070547574 0.0011503616 0.00091964315 0.0016009622 -0.0002706121 0.00031596282 0.0010103746 -0.0015830866 0.0007228374 0.00030665103 -0.00094125094 -0.0015208271 -0.00025864728 -0.0002974762 0.0006559097 0.0015193782 -0.0011162362 0.001566892 0.0014186961 0.0006650761 0.00032851053 0.0007991822 -0.0006571459 -0.00024770387 0.0003826211 0.0009357233 -0.00073214195 -0.0006910785 -0.0011261527 0.0016577211 -0.00050577725 -0.0013807996 0.00078990066 0.000337972 9.943903e-05 0.0011268184 1.9665944e-05 -0.00086986204 -0.00017790464 -8.865874e-05 -0.0015473147 -0.0010146959 -2.3443132e-05 0.0009287982 -0.00057030126 -0.0012991962 0.0013910623 -0.0012432336 -0.0012178058 -0.00051261514 -0.0011727997 -0.0002589153 -0.00030897165 -0.001429562 -0.00095850916 -0.0016320378 0.0012816743 -0.0012371945 0.00013913227 0.0008173918 0.0014246646 0.00017794181 0.0011012771 0.0003813965 -0.00015284373 -0.0009815044 0.0001064285 0.0013833398 -0.00023969138 -0.0013052449 -0.00029243436 -0.0006949844 0.00063693704 0.0012057764 0.0007163231 0.0016561586 0.0009005999 -0.0014392667 0.0008464414 -0.00067105045 -0.0007905667 -0.0004425044 0.0012000321 0.0008822046 5.7023866e-05 -0.0014385133 0.0014685034 0.001648329 0.00014572567 -0.0004913621 0.0010450784 0.0012577615 -0.001463147 0.0013371571 -0.0015228755 -0.0010017612 -0.0003201149 0.0010286958 -0.0002114345 0.00091858517 0.0014732243 0.00013306018 0.0016038618 0.0014474267 -0.0011389169 -0.0013636763 0.000634208 -0.0005645922 0.00022339575 0.0009419415 3.2692e-05 -0.000913917 0.00044902833 0.0008759294 0.0012784908 0.0010916301 0.00096902694 -0.0013949717 -0.0015979735 0.00017706474 0.0012864365 0.0007958883 -0.0014405715 -0.0015561414 0.0011647044 0.000993279 0.00034854168 -0.000998438 -0.00046222386 -0.00041625177 0.0004003158 0.0010678282 -0.0011522633 -0.0011874823 -0.0004313681 0.0016493453 -0.00049617037 -0.0003532745 -0.00041424058 0.00036439527 2.008902e-05 -0.0013411522 0.0016361942 0.00048787578 -0.00034474765 0.00093468744 -0.000962001 -0.0010838221 -0.00075657613 -0.00036109088 -0.00014642708 -0.0016744816 0.0013435424 -0.000969303 -0.0002120303 0.00020794463 -0.0010461175 0.0010879796 -0.0010592398 -0.0016469305 -0.0010952847 -0.0012304923 -0.00054813456 -0.0012810813 -0.00017072295 0.00045433085 -0.0008540368 0.00037381583 0.00039070472 0.001505917 -0.0015051323 -0.0012020689 6.087522e-06 0.0009202474 0.0013956854 0.0009942523 -0.0016548537 -2.9519695e-05 -0.00022281859 -0.00045418038 0.00018733974 -2.4112136e-05 0.0011408683 -0.000103132785 0.0009290237 0.0008822348 0.00086657325 -0.0005645131 -0.0016350587 -0.0015341168 -0.0007310563 -0.0014203601 0.0007106628 0.00065450266 0.0014923606 -0.0013531267 -0.0005489995 0.0016597618 -0.0015730049 0.0005210177 -0.00015189234 0.00038692766 -0.0015067863 -0.0009822199 0.00019919006 -0.00010333095 -0.0011908623 -0.0011420005 0.0015394104 -0.00013074579 0.0007083427 -0.001617285 0.0011905379 0.001215947 -0.0008157216 0.0014386317 0.0005866806 -0.00070432835 -0.0013368562 0.001181769 0.0008523613 -0.0015555605 0.0008512289 -0.00019250956 -0.0016189867 -0.0015051753 -0.001532674 0.00014524962 -0.0015530159 -0.0003341787 -0.0013617487 0.00014966342 0.0006624521 0.00070936524 -0.000514973 -0.00027940457 -0.00020278862 0.000624158 -0.00042915725 0.00031421566 0.0015810853 0.00081151916 0.0011684165 0.00030189368 -0.0015962364 0.0012815425 -0.0016512828 0.0012638799 -0.00064635434 -0.0015285258 -0.0007058278 -0.0012201191 
token -0.0012729007 -0.0016877577 0.0009031993 0.0014034403 -0.00030708272 0.0005921285 0.0009189068 0.0005162492 -0.0013658757 0.0007587154 0.0011723809 -0.0005426842 0.0016754533 -0.0005149294 -0.00092064636 0.00060724886 0.00061819376 0.00023452584 -0.0017409888 0.0010458438 -0.0011168884 0.0017391153 0.00049301307 -0.001658914 -0.0012293517 -0.00037806842 -0.0012187124 -0.0005961174 -0.0016737082 -0.0014169832 0.0003401519 -0.000896216 -0.0005247989 -0.00049298734 0.00075749005 -0.0006144268 0.0007428783 -0.00037713003 0.0012880778 9.9612025e-06 0.0012720573 0.00077077287 0.00040393329 -0.00018126977 0.0005953468 -0.0015411704 0.0015701423 0.001414704 0.0011024403 0.0014973681 -0.0013740278 0.00031856162 -0.0006366722 -0.000382588 0.00058468187 0.0005900826 -0.00082998193 0.00015242078 0.00015276008 0.00088615745 0.0011999855 0.00024782598 -0.0010345042 0.0012694824 -0.00092967146 0.0009989683 -0.0008987249 0.00124471 1.6177217e-05 -0.0010617862 0.0010079197 0.0014384816 -0.00022232758 -0.00047466025 -0.0008029449 0.0015963594 -0.0013572169 -0.00063175446 0.000984245 -0.00069709506 0.0013762882 -0.0015991816 0.0006158576 0.0010633902 0.00043795008 0.001112418 0.00045010183 -0.00018862128 0.00052566547 0.0016210936 0.00034694333 0.0009829598 0.0008959547 -0.0007722513 -0.0016545063 -0.000983393 -0.00057518546 -0.0006729923 -0.0013713884 -0.001518327 -0.0003608987 -0.00038652576 -3.151502e-05 -0.0011278245 -0.0002870896 0.00038109501 0.001062253 0.0006479849 -0.0007086142 -0.00013486278 0.0010413715 -9.072489e-05 0.0007008297 0.00020135166 -0.0010764048 0.0011370613 0.0004661154 -0.00034949827 0.0007133285 0.0016452696 0.00094611663 -0.0009646532 -0.0015979249 0.00047843947 0.0010439185 0.0007361765 0.00013162348 -0.00080871186 -0.00044586408 -0.00077908044 0.00025478157 -0.0015811471 -0.001091212 0.0016017875 0.0014107059 0.0005059868 -0.0010331376 0.0010999271 -0.00071029796 -0.0014443198 0.00036470703 -0.0007960317 0.0005430184 0.001671383 -0.00036212167 0.001479064 0.00012386795 0.0003488127 0.0010675237 -0.0010065063 -0.0012854546 -0.00093400775 0.0013211846 0.00044030676 -5.113273e-05 -0.0007653902 0.00019918325 0.00033735612 -0.0005949483 -0.0013393349 0.0013272698 -0.0007202818 -7.958148e-05 0.0014195568 0.00037418774 -6.724751e-05 0.0013062317 -0.00018490115 0.0015120303 -0.0016076668 0.0002954431 -0.0014621328 0.0008821902 -0.0015819396 0.0015959376 -0.0007830084 -0.0014521872 0.0012745083 -0.0010179934 -0.0004661263 -0.00035122244 0.0009359282 -0.0014838647 -0.001293348 0.001264928 -0.0016434164 -1.4756538e-05 0.0015250483 -0.0012629095 -0.00058733136 0.0011268026 -7.628036e-05 2.6925609e-05 0.0014026507 0.00096771674 0.0016837805 -0.0003751568 0.00037550705 0.0005571117 0.00055159733 0.0006958133 0.0009030027 0.0017780806 0.000973955 0.0012757753 -0.0009772953 -0.0010736089 -1.4451712e-06 0.0015055032 -0.0006861261 0.001436891 0.0007291552 -0.0010043326 0.000834947 -0.00071418594 8.22803e-05 -0.0013638106 0.00052752835 -0.0015659658 -0.0011351178 0.00012764288 0.0007236256 -0.0018394529 -0.00024675453 0.0011342341 0.0005707156 -0.0007423442 0.0012709667 -0.00065684965 -0.0011777156 -0.00082582363 0.00028252078 -0.0012770332 -0.00066904887 6.377907e-05 0.00063128816 0.00045558283 0.00051728805 0.0017315003 1.4852347e-05 0.0007412069 0.0006598131 0.0015049983 0.00031509373 -0.0018043728 -0.0015432051 0.00026272048 -1.1866553e-05 0.0015692435 0.00020913861 0.0016147638 -0.0013679526 -0.0013978687 0.00074348017 -0.0013047602 0.0010529275 -0.0007782926 0.0009212925 -0.0018447052 0.0013596903 0.0016490909 0.0011345425 0.00023327609 -0.0009863238 0.00072935154 -0.0012571051 -0.001300542 -0.0002899826 -0.0014871199 -0.0001494139 -0.00044329013 -5.6543373e-05 5.745705e-05 0.0016116379 -0.000113609065 -0.0015067408 -0.0011867039 0.000969443 0.0011488681 0.0006404257 -0.001086317 -0.0017354932 -0.0015229539 -0.00029284935 -0.0008399283 -0.0005507679 -0.0002044971 0.0011164318 -0.00058159773 0.0012333556 -0.00089895836 0.0013134689 -0.0014854188 0.0005520752 0.00097255554 -0.00044740204 -0.0013819288 0.0013815098 -0.0011972997 -0.0014845281 
must -3.0084226e-05 0.0012785393 0.00032153074 -0.0013145417 0.0014186051 0.001403326 0.0011349893 5.8729678e-05 0.00084747927 -2.341855e-05 -0.00033516402 0.0007177785 -0.0012520094 0.00044871937 0.0008940771 0.00059198716 -0.0011353036 0.0015620706 0.0013483877 2.4220328e-05 0.000121344434 0.00037292 -0.0012267474 -0.0004967178 0.0011203896 -0.0010056186 0.0005817029 -0.0013597708 -0.00042843533 -0.00080759526 -0.0013669617 0.0011477006 0.0013283276 0.00034925222 0.0013857377 0.0005025125 -0.00031358973 0.0009097514 0.0011867991 -0.00036729584 -0.0011245352 -0.0006623824 0.0011063641 0.0012426785 0.00079240697 -0.00091455795 -0.000824048 0.0011539997 -0.00019189254 -0.0013841277 9.263771e-05 0.0009647265 0.0008141697 0.00086227455 0.0013720465 0.00013100676 -0.0009028909 -0.0010087778 -0.00079342903 -0.0009415305 0.0011469612 -0.00063224864 -0.00069364585 0.0011778813 0.00088463683 -0.0014642103 0.0010811833 -0.0011951155 0.0009883967 0.001657098 0.00037857628 0.00046804032 0.0011116044 0.00032315613 -0.0016213888 -0.001016063 0.00082773133 -0.0006238533 0.0016252095 0.00022523422 -0.0014057299 -5.279827e-06 0.00022300988 -0.0007575105 -0.0011263521 0.00036658347 0.0010279004 -0.0005736884 0.0015537981 -0.0012577032 -0.00062114786 -0.0013374039 2.1287477e-05 -0.0013043486 -0.0007533853 -0.0013716421 -0.00022155032 -0.00070887204 -0.00066366675 -0.0009191285 0.001110914 0.0011217529 0.0010411304 0.0006285169 0.0012511736 0.0006854605 -0.0013676098 -0.0016483438 -0.0008406149 0.0012596957 -0.00027910323 0.0011874585 0.00064390805 0.0004968747 0.00074810244 -0.0008710623 -0.00084147695 -0.00012290767 0.0011800145 0.0015872616 0.0008514967 0.0011779971 -0.00091424584 -2.8674147e-05 -0.0010185171 0.00016577855 0.0015831719 0.00050525204 -0.00025788136 0.0005648058 -0.00022081075 0.0010173947 -0.0011419747 -0.0013682565 0.00032822427 0.001164454 0.00045463908 0.0009910789 0.0014248074 -0.0001831133 -0.0010566 -2.973154e-05 0.0002702829 -0.0010307876 0.0013300962 -0.00058036466 -0.0009408641 -0.00085092196 0.0010847638 0.0013299525 0.00045777432 -0.0012376524 -0.0012504287 0.00062840746 0.00048117782 0.0011927838 0.0010969549 -0.0014384104 0.0005836359 -0.0011147552 -0.0012865766 0.0004735618 0.0011354937 -0.0015305671 0.001641456 0.0005514937 0.0014992666 0.00030999503 0.00043964037 -0.0012389966 5.1811432e-05 0.0003174006 0.00011418857 -3.8866387e-05 -0.0015558397 -2.6779378e-05 0.0013880628 -0.00037102873 0.00031512376 -0.0013486437 0.0003816394 -0.001618316 -0.0008913633 -0.000794415 0.0002877904 0.001052783 0.0011704442 0.00018864151 0.0008713201 -0.0011983793 -0.0013652974 -0.0016562123 -0.00045483114 -0.0009943091 -0.0015290028 -0.00067715975 0.00019793407 0.00047139355 0.001310809 0.00028403162 0.00014298808 0.0010098482 -0.0008150056 0.0011246828 0.0016350609 0.00066171854 -0.00058720727 0.0006908843 -0.00042188025 -0.0014797186 -0.0014010436 -0.00014404257 -9.684975e-05 -0.0009029816 0.0014584346 0.0015656075 0.0014344015 0.001386891 -0.0008513299 0.0015220809 0.00037377974 -0.0012145514 0.00083020714 0.0012932933 -0.0014729958 0.00023563422 -0.0009851281 0.00019509808 -0.0011520961 0.0011968488 -0.0003538865 0.0005116681 0.0002555241 -0.00056962355 0.0013374845 -0.0008990152 -0.00039359074 -0.000935735 -0.0015191936 0.0014069692 0.0016319528 -0.0007341404 -0.0007716742 -0.0004854691 -0.00022937605 -0.0013527288 -0.0014121524 -0.0010966705 0.0010723699 0.00024902663 0.0008976762 -0.0009915278 0.00019446631 -0.0010741876 0.0011932156 -0.0012343276 -0.00087903056 0.00065115996 0.0012152978 0.0011519364 0.00090120814 -0.0006514776 0.0005874895 -0.0012816512 -0.0016324349 0.0014561855 -0.0009300094 0.00066817354 0.0014707881 0.0016240226 -0.0012661696 -0.0008204195 -1.9489651e-05 -0.0008384552 0.00012283766 -0.00044518843 -0.0007859648 0.0006843539 0.00019697037 -0.0011003875 -0.0009720398 0.0005275137 0.0011499882 0.0010325458 0.0012097791 0.0015351429 -0.0008317759 -0.00068843947 -0.0001889472 -0.0009202247 0.0015628118 -0.0004004949 -0.00082462205 0.000116624826 -0.00039571803 -0.0003561035 -0.0007119551 -0.0014896606 -0.0011018639 -0.0008897149 
Member -5.655631e-05 -0.00061156036 -0.00037912658 -0.0017357877 0.0013253314 0.00158586 0.0010994786 -0.0008528233 -0.0009584394 0.0002713493 0.00046009274 -0.0001182513 -0.00037344225 0.00044505054 -0.0012556278 0.0015232719 0.0015731952 0.0016301181 0.0013161453 0.00014879451 0.0011124159 -0.0015341782 0.000886289 -0.0015182957 -0.0009864833 0.0010666443 -0.000115862014 0.0001158751 0.0006541917 -0.0014491281 0.00040012563 0.0006293202 5.1860905e-05 -0.00020223059 0.0010984842 -0.00031649103 -0.00057503383 0.0004966688 0.0013645022 -0.0012370717 -0.0004613087 0.0011199098 0.0004790127 -0.0016142861 -0.00095146365 0.0005839724 0.0004165374 0.0010071048 0.000848291 0.0009547255 0.0005190205 0.00081240264 0.0013649975 0.0015752559 0.0006388072 -0.0014193878 5.4258227e-05 0.0015077532 0.0012877015 -0.0010090175 0.0013887763 -0.0014719829 0.00036915828 -0.00066732225 0.0011011573 -0.00087942317 0.0011138639 -0.00096678355 -0.00047635852 -0.00068178354 0.00012097983 -0.00088046 0.0013269444 -0.0003799891 0.0003912159 0.000481936 -0.001205711 0.00016624607 0.00018845231 -0.00030698956 0.00054826186 -0.0012373733 -0.00074992015 -0.0007617023 1.6838021e-05 -0.0008467772 -0.00026461628 0.0015092022 0.00092811184 0.0008096545 0.001304108 0.0004175343 0.0004260942 0.00061923795 0.00027428215 0.0012824046 -0.00027181653 0.00062713615 0.0016993954 -0.0014107807 -0.0012051474 0.0009662343 -8.352462e-05 0.00052519055 -0.0009811082 0.00010690091 0.0014108127 -0.0012875426 -0.00041169827 0.00039845804 0.00013815117 -0.0010640094 0.00072754687 0.00035593065 -0.0011503344 -0.0011223418 0.00079614785 0.0016296097 -0.001006735 0.00025306377 -0.0012996072 -0.0007130815 -0.0006190694 0.0015808637 0.00064807734 0.0007499633 9.88838e-05 -0.0010955584 0.0006377035 -0.0008139389 -0.0005810966 0.0012604534 0.0007605354 -0.0008664687 0.00028979202 0.0013514566 0.00055123924 -0.00035181185 -0.00029737782 -0.0015034006 -0.0016073973 0.00046725193 0.00030948495 -0.0009412953 0.0009981536 0.0007873459 0.0007879604 0.001680878 0.0015578564 0.0016588059 0.0005498908 0.00048180035 0.0016213948 0.0005157618 0.0013100102 0.00046009512 0.0009661087 -3.4333694e-05 -0.0013107329 0.00046107138 -0.0015143794 -0.0015614735 0.0016462274 0.00020679855 0.0012599662 -0.0013080889 -0.00067397644 -0.0008844242 0.0016138885 -0.0015597888 -0.00038094752 8.162249e-05 -0.0014382912 0.0009820266 -0.00075109943 -0.001216995 0.0007977943 0.00013742839 -0.0009402605 0.00017986736 0.0017049564 -0.0014695607 -0.00044852716 -0.0015141136 0.0009882667 0.0012437477 0.0007013702 -0.00021848129 -0.00037735704 0.0007482622 0.0011766761 0.0012479349 0.0015839599 -0.0006917224 0.0010202909 0.0008486997 0.0005046635 0.001190451 0.0014284697 -0.00084553496 -0.0008840088 0.0013232522 0.0011548853 -0.00076059724 0.0002784906 -0.0005717802 0.0008621738 -0.0015445738 -0.0002147493 -0.0011632874 -0.0012936876 0.00047199437 -0.001429575 -0.00011415451 -0.00029933616 0.00066325464 -0.0006865394 0.0012577848 0.0013428353 -0.0016125691 0.00026307514 -0.0010241076 0.00040656823 -1.7877628e-05 1.464525e-05 0.0008072871 0.0012373382 0.00016141775 0.000981289 0.00033215727 0.0007677464 -0.00044570497 -0.00035222864 -0.00043821335 -0.0011009207 0.0014435826 0.0017613437 0.0009625409 0.0015198877 0.0014148755 -0.0006363284 -0.0006393503 0.0011127548 -0.00092761294 -0.00032102634 0.0014103045 -0.00042028454 -0.0014299551 0.00034413504 0.0014787462 0.0001453828 0.00045764586 -0.0015674721 -0.00158315 -0.0008211103 0.0008995561 -0.00037650732 0.0010760026 -0.0011569611 0.0008644126 -4.819622e-05 0.001007564 0.0008486293 0.00048881734 -0.000573788 0.0013288563 0.00050402735 0.0011508748 -0.0002767515 -0.0010193773 0.0016661898 0.0011044608 0.0005030114 0.001504984 0.0010075339 -0.00012478829 -0.0011685276 -0.0009540292 -0.001298986 0.0010595055 -0.0014631957 -0.00086020626 -0.00054188207 0.0007534382 0.0008065999 -0.00025699657 0.0005344381 -0.00097474427 -9.375043e-05 -0.0010198818 0.0017487683 -4.7170768e-05 -0.0015768815 -4.8712955e-05 -0.0010053582 -0.0001687731 -0.0016170542 -0.0014850082 0.0017208469 0.0010581153 
be 0.0015411687 -0.00031673338 -0.00010998759 -0.00052897446 -0.00026032163 0.0012362052 -0.0013686933 0.0012072285 0.0003057191 -3.3717697e-05 -0.0012904652 -0.00074588205 0.00049699 0.0007809422 -0.000693318 -8.718476e-05 0.00027934738 0.0006391742 0.00027478897 0.001708865 -0.00016963543 0.0018100712 0.0009944239 0.00108838 -0.0009488792 -0.00010637853 0.0010001396 -0.0012490286 0.001079035 -0.00092437037 -0.00033130948 0.0005478139 0.0007607426 0.0010627131 -0.0012435048 0.0005437053 0.001493519 -0.00011303419 -5.740601e-05 -0.0016480538 0.0009335273 -0.00016598479 -0.001270334 -0.0015281988 -8.400264e-05 0.0011946514 0.0010003665 -0.0007319409 0.000630881 0.0002486718 -0.00074551004 -0.0012840781 0.00029437567 0.00079977064 -0.0014661825 -0.0008108549 0.0003992992 -0.00027618365 -0.0017050486 0.0009515233 0.00064088823 -0.00037878536 -0.0009179252 0.0014475484 -0.00021528201 9.957329e-05 -0.0016238223 0.0013222711 0.0012595927 -0.0001538763 -0.00035069132 -0.0013136714 -0.000101604564 -0.0006148674 -0.0004150615 0.00091562286 0.0004380791 0.0014371051 0.0011714791 0.0007919566 -0.0012114706 -0.0018075064 0.0016841501 -0.0013148455 -0.0010822604 -0.00023962939 0.00043008896 0.0016302972 -0.00038664648 -0.000985619 -0.0007261924 0.0002544269 0.0011778432 0.0015506246 0.00037250534 0.0005230427 0.0010223647 5.574155e-05 -0.0007982808 0.0004316691 -0.001038484 -0.0016483307 -0.0007861096 0.0015341875 -0.0016627855 -0.00070856506 -0.00057178707 0.0011510963 -0.0009023822 0.00018886202 -0.00064996036 5.55382e-05 -0.0014515494 -0.00066004257 3.318469e-05 -0.0006167866 0.0006893287 -0.00028683545 0.00084723777 0.00087192934 -0.0010788442 -0.00047853918 -0.0010623999 -0.0006230767 -0.00016870558 -0.0003810552 -0.00129061 0.00082682417 0.0010545816 0.0011311705 -0.0012440766 -0.0006853685 -0.0009854565 -9.6943084e-05 -0.0015819137 -0.00072113686 -0.0014695048 -0.0001730057 -0.0014561645 3.7010137e-05 0.00039085763 -0.00034787165 0.00018923139 -0.00037883758 0.00041332637 0.0011914497 -0.0012829333 8.649063e-05 0.0011720845 0.0002490071 -0.00022098602 0.00068029924 0.0009825357 -0.00087771256 0.00088378944 0.00023368391 -0.00023076739 -0.0015986513 -0.0008828246 -0.00072097953 -0.0017340606 0.0006616846 0.00036124687 0.0013495313 -8.768607e-05 0.0011083441 0.00055698294 0.00021081312 0.0003348932 -0.00036941178 -0.00046706444 0.00024218178 0.00092337735 0.0015171961 0.0013343273 -0.0014752642 -0.0017218493 0.0013832259 -0.0016653293 -0.0008506025 -0.0013123789 -0.0013512071 -0.00018350796 -0.001459277 0.00059048715 -0.0013192444 0.00085236935 2.12921e-05 -0.0014516964 0.0009935593 0.00023852644 0.0016486287 0.00095307553 -0.00075517653 -0.0015959322 -0.0015587085 -0.0013375732 -0.0013127765 0.0006422075 -0.00021529396 -0.0012531069 -0.000185392 0.0011173394 -0.0002204395 -0.001159947 0.00088293024 0.0007859306 -0.0003292332 0.0004305728 -0.00018333684 0.00083008804 0.00126827 7.3011547e-06 -0.00040172724 -0.0006276462 -0.0011865096 -0.00088724104 -0.0008564538 -0.0015277928 0.0015471961 0.0010826358 -0.00024991998 -0.001729371 -0.0015497848 0.0014841086 -0.0010028287 -0.001576641 -0.0009254407 0.0010158296 0.0015142341 -0.001151268 -0.00042566593 -0.0008987163 -0.0005457306 -0.0014720949 0.00010829057 0.0010546808 -0.0012084647 0.001479708 0.0005045699 0.0002027943 -0.0013966168 0.00091009465 -0.000549499 -0.00018431927 0.00085066695 -0.00055502495 5.6726703e-06 0.0014494249 0.0013981317 0.0010461551 0.0009472426 -0.0011383115 0.000153111 -0.0005380815 0.0012828421 0.0009371993 5.613908e-06 -0.0012207628 -0.0008369179 0.0015282704 0.0012289035 -0.0006953201 -0.00096815947 0.00026809284 -0.00027003768 -0.0014470898 -0.0009658705 0.0008048725 0.0013112099 -0.0011752992 0.00042999262 0.00077422214 0.00051059376 -5.361249e-05 -0.00025364736 0.000535762 -0.0014268968 -8.8094755e-05 0.0010751375 -0.001364478 -0.0015307765 0.0013752485 -0.00058834726 0.0011674695 -0.0015090784 -0.0012638395 0.0010875189 -0.0003529627 0.0003603527 0.001860831 0.00084111694 -0.00014041447 -0.00040734044 0.00065420254 0.0006174886 0.0008958194 -0.00038960797 0.00054780295 -0.0006616619 
become 0.0003570003 -0.0006148487 0.0008430373 3.9652983e-05 -0.0013800681 0.0008707835 0.0015777207 0.0015061145 -4.677705e-05 0.0007075458 0.00025807516 0.00050073484 -0.0009042216 4.8784323e-06 0.0013298506 0.0008843412 -0.000104314815 0.0012139204 -1.8023851e-05 0.0001377023 0.0012821235 -0.00075712346 -5.3782896e-05 -0.0012214853 -0.0012251921 -0.0009406404 -0.0012635989 0.000790458 0.00039116506 0.00037295304 0.0012720746 0.0005229623 0.0001405792 0.0006858584 -0.0012563369 -0.00084509834 0.00025236144 0.0006653881 -0.00014525958 0.00029763524 -0.0004294605 -0.0002850636 -0.0007735564 -0.00048460288 0.00056058425 -0.0010866149 -0.0016166675 0.0017041306 -0.0012779058 0.0014806486 -0.0013644003 0.001555476 0.0003673787 -0.0012322275 0.0006292826 -0.0011887918 -0.0013026046 -0.0015450488 0.00082352274 0.0015054354 -0.00012399649 5.3938165e-05 -0.00078991975 0.00043766203 0.00011061768 0.0009894931 -0.001364166 0.0015891563 -0.00035150742 -0.00065469963 0.0005537214 0.00026336784 0.00023725942 0.001450971 0.0004603625 -0.00053105754 0.00047279175 0.0011040312 -0.0015720706 -0.0008995902 -0.0006663829 0.00085015787 0.001343932 0.00012782417 0.0013501466 -0.000861342 -8.732581e-05 -0.00033820485 -0.00018283799 9.838601e-09 -0.0014641822 -0.00023479362 0.00012316916 0.0005234959 -0.0012490504 0.00084827986 -0.0014601001 0.0005542179 -0.00025076297 0.0014003541 0.0015241387 0.00083752547 0.00031035853 0.0009933087 -0.0017233553 -0.0016359861 0.00097182754 0.0016343655 -0.0008849681 0.0014487864 0.0013232564 0.0017197678 -0.00037040815 0.00018428003 0.0013415848 -0.0005706912 -0.0013522977 -0.00039357392 -0.0010724915 -0.0008521835 0.0012588882 0.00045703724 -0.001325368 -0.0015399416 -4.1093035e-06 -0.001564452 0.0012843562 -0.0014726075 -0.0005290438 0.0003605248 0.0005762059 -0.001109676 -0.00030200172 -0.0012478811 0.0010915879 -0.0010783321 -0.00086041575 -0.00086881913 -0.00090541964 -0.00039932592 -0.00061183906 -0.00086972123 0.00046094586 0.0006060692 -7.949354e-05 -3.1501717e-05 -0.0005093004 0.0013480219 -0.0008536267 -0.00025317562 0.0008899837 0.0007936485 -0.0011052423 0.00083255966 0.0013289868 -0.0014944578 0.00078526116 -0.000602168 -0.0012362368 0.00020116134 0.0014089909 0.0013593769 0.0013312307 -0.0009414854 -0.001144565 0.0005704394 -0.0011140287 0.0007901952 0.0015228561 0.0005989876 -0.0015319791 -0.0006858408 -0.0011469823 -0.00033611598 -0.0007026985 0.00027267222 -0.0004654571 -0.0008769882 0.0009239178 0.0010772625 0.0011569511 -0.001572852 -0.00025743784 0.0010524619 0.0016909356 0.0011695689 -0.0014750138 -0.000112370784 0.00035219218 -0.0011082885 -0.0012193945 -0.00096344214 -0.00057437795 -0.0012307042 0.00031535022 -0.00032211014 -0.0008620345 -0.0015318132 0.0010335064 0.0013567666 -3.9597857e-05 -0.00057782384 0.0016506265 0.0002699796 0.00081072806 -0.0005251801 -0.0011036545 -0.0015981973 -0.00040946837 -0.0010638251 0.0010879036 0.00045056286 -6.7572626e-05 0.0012769954 0.0002875487 -0.0004579298 -0.0007570739 -0.0010389092 -0.000737644 0.0004680054 0.0008531174 0.0011727026 -0.00096227584 0.0006890987 0.0013928468 0.0007873614 0.00038827572 -0.0015069951 -0.0011430283 -0.0006767431 -0.0011991584 -0.00095485157 0.00032323165 0.0007967668 -0.000767462 0.00054992526 -0.00073227816 0.00017901482 0.00069369 -0.0011401793 -0.0014936408 -0.0009661873 0.0016815113 0.00053872087 0.00056287664 -0.0008097689 0.00031562918 0.00067056104 -0.0012181904 -0.0010762307 0.0014687579 0.0013093472 -0.0015326776 0.0014455406 -0.0015233137 -0.00017007627 0.0013030953 0.0016446322 0.0003599934 -0.00074660085 -0.0009205214 0.0004966923 -0.0007384118 -6.512001e-05 -0.0010533498 -0.00027727918 -0.00037179317 0.00010277087 -0.00036735513 5.263591e-05 0.0016258291 -0.0015503407 -0.0007439905 0.0016711341 0.00024480268 0.00053463416 -0.00056557654 -0.0008363057 0.00027104645 0.00092197565 -0.00123481 -0.0006261342 -0.0002506175 -0.00052586745 -0.00044402666 6.211667e-05 -0.0008881336 -0.0013351613 -2.7826256e-06 0.0009814992 0.00021784716 0.0012410474 0.00072698994 0.0012761509 0.00044250218 0.000874665 0.0007324942 -0.000453165 0.0010668798 0.0015167363 
it 0.0015530314 -0.0009947689 0.00060840265 0.0011530358 0.00052003295 -0.00037869278 -0.0013377452 0.0012463569 0.0011181409 -0.0012083489 0.00033848544 -0.0001410516 0.0010858844 -0.00049237715 -0.0015250884 -0.0013583795 -0.000344082 -3.8290582e-05 -0.0015894525 -0.0015140667 -0.0013862834 -0.00039202248 6.613661e-05 -0.0014779143 -0.0012017625 0.0009975843 -0.0011352487 0.0006839382 -0.0009475025 -5.3882402e-05 9.3591494e-05 0.0008656428 -0.00089520804 0.00052967557 -0.0014969797 0.00074751617 -4.4528806e-05 -0.00039438676 0.0016389543 -0.00018485743 -0.0009848085 0.00011700697 -0.0016777355 0.0003250612 0.0005786163 -3.8575326e-05 -0.0016496907 0.0014810519 -0.0005458306 -0.00036163733 0.00012457886 0.0008201657 0.000603366 0.00091437675 0.0009092571 0.00018724577 0.0014559745 -1.1372793e-05 0.00023444866 0.0011507914 0.0013618311 -0.0010196492 0.0015740026 -0.0009129679 -0.0013701753 -1.79039e-05 -0.0004715561 -0.0015954748 -0.0013513457 -2.1683278e-05 -0.0012271979 0.00060658075 0.00035867523 -0.0010318122 0.0012608314 -0.0012631557 -0.0017044791 -0.0008230116 0.00027276832 0.00068066805 0.0003427364 0.0012736269 0.0002080992 0.0014427751 -0.0019375887 -0.00082323735 -0.0011539522 0.00021036106 -0.0017056491 -0.00063977984 -0.00018873064 0.00031518875 0.0006326842 -0.00044097478 0.00059417397 0.00013980657 -0.0006269513 -0.0015139082 0.00096119905 0.0013213718 0.0014664794 0.00040039892 0.00067172566 -0.00062821497 3.226969e-06 -0.0005663622 0.0020344842 0.00044047637 -0.00050288683 -0.0012648288 -0.00075832993 0.0015670063 -0.00048357772 -3.684267e-05 -0.0014346134 -0.00079448026 3.5640027e-05 0.00011719011 0.0013365867 0.0010565557 0.0013398182 -0.0012011818 0.00036776758 -0.0013757463 5.0719565e-05 -0.0014803583 -0.0018416838 -0.000508339 0.0008387549 0.00010456233 -0.00023930846 -0.00095757836 0.0011944736 -0.0005043262 0.00094894186 0.0012654995 -0.0004025195 -0.00094258506 0.0009998056 0.0013580461 -0.0014532213 -0.00077877834 0.0011250083 0.00036292235 0.00063492125 -0.0008367845 -0.0014444902 0.0013237962 -0.00055382703 0.00013592311 0.0010849357 -0.0012718575 -0.00044664487 -0.00081689557 -0.0017148162 -0.0016668842 0.0003515008 0.0012587277 0.0003958425 2.1612934e-05 -0.0018727765 -0.0012151187 0.001009279 -0.00039075184 -0.0016821222 0.0001291954 -0.0014011435 -0.0012897063 0.0010935601 -0.0017726278 -0.001504868 -0.0012071208 -0.0016074904 0.0011667277 0.0002487233 0.0009277948 -0.0011718279 0.0012242192 -0.00052940706 -0.001256435 -6.659912e-05 0.0012579926 -0.0012184643 0.0003744904 -0.00074362603 -0.001763411 0.00056873163 0.00016805381 -0.00033528192 0.001256386 -0.0009496465 -0.00024389723 0.0009120568 0.0012721306 0.00065231044 0.0011273384 0.0016911764 0.0018030688 0.0006609376 -0.0011219619 -0.0016762611 -0.00017380282 0.0005697741 0.0005814088 -0.0010777109 0.0013869705 0.0008874933 9.732573e-05 -0.0009633816 -1.9558196e-05 -0.00068274303 -0.0013191676 0.0011071005 0.0008350796 -0.0017598325 0.001168468 -0.00071840745 3.3887427e-05 -0.00021054485 0.000166025 -0.0007529411 0.0017249981 -0.0003868226 0.00061003823 0.0015816555 0.0007585991 0.00091091724 -0.001287686 -0.00019975708 0.00017924658 -0.0013138216 0.0010445908 -0.001851867 -0.0011059728 -0.0010443052 0.0003524007 0.0011415299 -0.0013775234 0.002034759 -0.0004897668 0.0008884155 0.0015700891 -0.00014555562 -9.573103e-05 -0.0011066248 -0.00096463354 0.0007903506 0.00023978045 -0.0009443091 0.0013283185 0.00071678165 0.0010613634 0.0013631866 -0.0012233469 -0.0019666986 -0.00028700396 0.00088437373 -0.0009021943 0.00060217694 -0.0016258423 0.00040387618 -0.0010381618 -0.00075789064 -0.0004311281 -0.0006447686 -0.0008713836 0.0012689178 -0.001189873 -0.00086395757 0.0011730769 0.00045471857 0.00029789438 -0.0003306305 0.00023304307 0.0018014153 0.0016284556 -0.0008640272 0.0017508867 0.00036173628 0.0015566981 0.0012323367 0.0013902512 0.0005663911 -0.00056538737 -0.0010863553 -0.0016063274 -0.0017404374 -0.0016284407 -0.00045380378 0.00034585127 0.0019157925 0.0009149916 -0.00082386786 -0.001337879 -0.0006684587 0.0003787149 -0.0004912615 -0.0007090066 0.0011327488 0.0007108687 
when 2.5398276e-05 -0.0004710247 0.00029445445 -0.0001497897 0.0014915247 0.0008297297 -0.0015345365 0.0005814734 0.0005641273 -0.0014870905 0.00037771306 -4.860456e-05 0.0015039429 -0.0016305653 -0.0003373334 0.00090901396 0.0007831631 -0.0006270992 5.665685e-05 0.00047051042 0.0011330704 -0.0015221877 0.0008770724 3.0851438e-06 -0.0007918577 -0.00014990567 0.00050073006 -0.0014706332 0.0011691094 -0.00036663868 0.00038599272 0.00041036415 -0.0015211201 0.0004872067 0.0010481295 -0.00064411 -0.0011255448 -0.0014727087 -0.000625909 0.0012846295 0.0010222577 -0.00093112653 -0.0011257533 -0.0016595713 -0.00072306336 -0.0014450147 -0.00094297965 0.00021590371 0.0015532837 0.0012195403 0.00032161621 -0.001272873 -0.0013517403 -0.00043099254 0.0016139476 -0.0012321256 -0.001249895 0.00011680531 0.00025538102 0.00013682025 0.0014505773 0.0010815337 0.0014893888 0.0015624963 -0.0006317165 -0.00018544678 -0.0009118701 -0.0009649305 -0.0012909702 0.0010042503 0.0005181227 -0.00029054162 -0.0009726367 -0.000529323 -0.0012699283 0.00010231676 -0.0010948604 -0.0004014308 -0.0010807684 -0.0004017365 -0.0014069256 -0.00050662603 0.00163274 0.00010360091 -7.897936e-05 -0.0012998502 -1.3711954e-05 -0.0014659085 -0.0012103448 0.00021181967 -0.0006393826 0.0005428367 0.0012339117 -3.6405985e-05 -0.00040191933 0.0015254017 0.00010469872 -0.0012927005 -0.0009231466 0.00052883493 0.00021601575 -0.00030965108 0.0015813563 -0.0006150542 -0.00036145802 -0.000738882 0.001586097 -0.0007560062 0.00064074993 0.00041443872 -0.0003291997 7.981762e-06 0.0005445483 0.0012778116 0.0002086088 0.0003389769 0.0012779676 0.0007386036 -0.0016094017 -0.0010909094 -0.0014693937 0.00064703566 -0.0014138897 0.0014690564 -0.0013517366 0.0005824127 -6.829706e-05 0.0004929039 1.0781324e-05 -0.0014941394 -0.00089015823 -0.00053206953 -0.0005797911 -0.00083239854 -0.00090308185 -0.0012721224 -0.0004904524 0.0015183835 0.00030782286 0.0008593268 0.0013142872 -0.0013541608 1.141845e-05 0.001358241 -0.00055736006 0.00070565264 0.00061347615 0.0012831086 -0.0012426742 0.0015194522 -9.7819044e-05 0.0007296263 -0.0016196901 -0.0012820327 -0.00075902557 0.00039769206 0.00080441305 0.0006960452 -0.0014814914 -0.0012718181 0.00074368896 -0.0013873215 -0.0010904614 0.00086154597 -0.0014610519 0.00086178136 0.0009006057 0.00035944587 -0.0006953762 -0.00020700508 0.00098819 -0.0004169619 -0.0009246757 0.0016139299 0.00046052874 -0.0013999802 0.0006174862 -0.0009945913 0.00089934655 -0.00059578905 0.0015823769 -0.0013695564 0.00082223455 -0.0009658976 -0.0010460591 -8.047227e-05 -0.001547925 -0.0013912532 -0.00030491696 0.0016327071 -0.001373378 0.0012043345 0.001558689 -0.00071412884 -0.0005173887 0.0010327776 0.00035632908 0.0014860127 0.0002209463 0.0013349205 0.00045859255 -0.00055276306 0.0015944446 -0.0011669873 -0.00036445967 -0.0008612768 0.0010341363 -0.0014036028 0.000956337 -9.028219e-05 -0.00011799475 -0.001531221 0.00010310396 -0.00091567467 0.00053315243 0.0010427182 0.00047725212 -0.00090639904 -0.000817892 -0.00041480968 -0.0003650325 0.0015872538 0.00029642822 0.0010216899 -0.0012304782 -0.0015836323 0.0013171304 0.0001395745 -9.846074e-05 0.00011026543 -0.0014993694 -0.00026105376 0.0005058976 -0.0006158136 0.0015060968 0.0012546307 -0.0013409241 -0.0007341114 0.0005871207 -0.0002809023 -0.00028580741 -0.00012569803 0.0012265795 -0.00059344876 0.00018409199 -0.0014736535 -0.00049374206 -0.00020846479 -0.00079655304 -0.00070432766 0.0011729103 -0.0015794914 0.0005341785 -0.0010376998 0.0001493371 0.00058380316 0.0007835272 -0.00083111925 -8.259869e-06 -0.00021521877 2.2453229e-05 0.00047767226 -0.0007951898 -0.0015430115 -0.0012853494 -0.00032671422 -0.0011235345 0.0009990326 -0.0010395695 0.000780511 -0.00054602115 -1.6933065e-05 -0.0010891187 -0.001409322 0.0005485681 -0.0004971117 0.00031184117 3.0539515e-05 -0.0001912241 -0.00033609354 -0.0009243136 0.0015491977 0.0007000295 0.0012111018 0.0010053752 0.00019192038 0.0006393113 0.0004831132 0.0011972451 0.0012903744 -0.0002514019 -0.000983962 0.0001830843 -0.0014764854 0.00053609 0.0005177398 0.0011748337 -0.00079638476 0.0016967956 -0.00069045404 
view_bn:00059168n 0.0011686216 0.00018010975 -0.0007832899 -0.0004831141 -0.00055218016 0.0008571003 -0.0010533677 0.00018081647 -0.00084413274 0.0014133361 -0.0014419131 -0.0014396522 -0.0013097508 0.00059979025 7.081706e-05 -0.00038037432 -0.0013414638 -0.0016431565 -0.0009973702 -0.0003608636 1.0193957e-05 0.0011477589 0.00012875177 0.00046438316 -0.0013437974 -0.00030761462 -0.0016532582 -0.0010624521 0.0003037329 -0.0008610955 0.0016497158 0.0015711354 -0.0011457093 -0.0006287727 -0.00018840685 -0.0015930678 0.0014148486 0.0007295049 0.00017339221 0.0012915075 -0.001056949 0.00040221273 0.0015798308 0.0013761725 0.0013860576 0.0004669189 -0.0007170031 0.00064852374 0.0010318483 0.0014122156 0.00032467683 -0.0002434694 -0.0008006633 0.0011980339 0.00025383412 0.00039327145 3.737131e-05 0.0015608945 0.0006477515 -0.00023441366 -0.00075771456 -0.00087324827 0.00054199476 0.0006378199 0.00060465443 0.0012122075 -0.0006612687 -0.00073436974 -0.0012515589 0.0006505872 0.00080572086 0.0010889939 -0.0011817258 -0.0015048531 -0.0007035233 0.0006306955 -0.0014478224 9.8648365e-05 -0.0011205554 0.00011957912 0.0011909406 -0.00018463368 -0.0013135527 0.0008682152 0.0015187184 -0.0008857101 9.369886e-05 -0.0007801872 -0.00021239679 0.0009965228 -0.0013946175 0.0012773538 0.0012779336 0.00045089843 0.00064497645 -0.000364776 -0.00033345068 -0.0004808256 0.0015775345 0.0014375469 0.0011691933 0.000305505 0.00044317628 -0.0015062566 -0.0003166192 0.0010311567 0.00048486143 0.0010543755 -0.0010370215 -0.0014894791 -0.0007601515 -0.0002049384 -0.0010981192 -0.0015393626 0.00017803031 -0.0012483313 0.0009078035 0.0001801323 -0.0010118053 -0.0015803396 0.0013748368 -0.00084573665 -0.0014878399 0.0012074109 -0.0005803167 -0.0008819115 -0.00071405387 0.001511274 -0.0005669553 -0.0011310746 0.0009005135 0.0012658379 0.0016186653 -0.0004303142 -0.00096119015 0.001336333 -0.00087737746 0.0009303717 0.0003406737 0.00087408826 0.0013369092 -0.00038808427 -0.00073155336 -8.3701445e-05 0.00024167963 -0.00034262595 -0.00014379904 -0.0016053213 0.0010069461 -0.0012289389 -0.0015191264 -0.00042588467 0.0003540223 0.0010394661 -0.0016401809 -0.00019812313 -0.0002966509 -0.00059369864 0.00044701237 0.0016537505 0.0006599208 0.00031243364 0.0006569786 -0.00022996207 0.0011847545 -0.0015354394 6.762591e-05 0.0005806356 0.0008081642 -0.00064495776 -0.00018198095 0.0015863575 0.0004004138 0.000823334 -0.0014013695 0.00018164328 -0.00020419167 0.00052802515 0.00088784384 0.00073851127 -0.0009898301 1.4080609e-05 0.000508116 -0.0003732152 -0.00068123953 -0.001459614 0.00021514457 0.0004375621 -0.0012484265 -0.00038048468 -0.0007912858 0.0010944502 -0.00014118443 0.00043389175 0.0009631841 -0.0007490531 0.0005246144 -0.00042895565 0.0015522912 0.0012853534 0.0011748344 -0.0016229661 -0.00015503346 0.0003510231 0.0002515479 -0.0006561109 0.0004218744 -0.00066286133 -0.0012037101 -0.00039969364 -0.0005188413 0.0015276731 0.0012714854 -0.0011772052 0.0015158844 -0.0010862998 -0.0010924083 0.0005397406 0.0010947409 4.399728e-05 -0.0007522809 -0.0010870581 0.0012677173 0.0010463446 -0.0010840314 -0.00021218437 0.00082540856 -0.0006107239 0.0013077138 0.0006701131 -0.0015837173 0.0002477409 -0.0008730102 -0.001173516 -0.0016851561 0.00012337894 0.00072445365 -0.000256358 -0.00095700694 0.0008196518 0.0006389178 -0.0010418207 0.0010617274 -2.7590037e-05 0.0009048712 -0.0014743332 0.00152967 0.00047742086 0.0015587043 -0.0012899019 0.00015296112 0.00068579847 0.0012587928 2.1631063e-06 -4.1212115e-07 -0.0007193175 -0.001145561 -0.00027828527 -0.00015933505 -0.00035053826 0.001559677 0.0007148917 -0.00018705484 0.00064466195 0.000102313024 0.0011607931 0.0008854769 0.0010987603 0.0011324432 0.0009213991 0.00019762515 9.536815e-05 0.0009831614 0.0012883025 0.00088168867 0.0003760293 -0.0011482904 0.0013635703 -0.0016176212 -6.323865e-05 0.0008436775 -0.00093790947 -0.00080094405 0.00042672674 0.00054886827 -0.0010465969 -0.00028445685 -0.00012009965 0.0016522234 0.0005362348 -0.00045953426 -0.0008776227 -0.0013463385 -0.0016357914 -0.0005743893 -4.5206863e-05 0.0002237698 -0.0007550529 0.00032670065 0.00068878086 
insisted -0.00028268935 0.0007515509 -0.0009232729 0.0016159692 -0.0004943354 0.0009154275 0.0012393591 -0.0010522698 -0.000747144 -0.00054598955 -0.000615904 0.0009460652 -0.0006527529 0.0013140661 -0.00059019437 0.0009026819 -0.0016275523 -0.0015809936 0.00093842717 -0.00125032 -5.9924946e-06 0.0007674011 0.0007251102 0.0011282908 0.0011978911 -0.0010618385 -0.0011550522 -0.0007962777 -6.9924885e-05 -0.00068209495 0.0016603554 0.00063145667 0.0014533764 -0.00030085602 0.0012274829 0.0013904917 0.0014426154 -1.230649e-05 -0.00014056847 -0.0016151048 0.0015194152 -0.0011434545 -0.00011827904 0.00024437407 -3.6308586e-05 0.00010660341 -0.00024609664 0.0005810285 0.00023835398 -0.0013186233 0.00072749035 -0.0015600123 -0.0010446147 0.00035294055 0.0002646229 0.0008643085 0.00061430153 0.00066815584 -0.0013652516 -0.0009369651 0.00067507697 0.00032742764 -0.00021844039 0.00046238097 -0.0005413859 -0.0008280779 -0.0014911673 -0.0005949316 -0.00033044958 -0.0007330838 0.0001556894 -0.00097183924 -0.0003096107 0.00038681418 0.0008683673 -0.00040927107 0.00016531027 0.0005869483 -0.0011030958 -0.0007425393 -0.0014593648 0.001445193 0.0014994248 0.00069007004 1.9122057e-05 -0.0012380404 -0.0010434259 -9.2823044e-05 0.001331156 0.00039560968 -0.0003285481 -0.0010049501 -1.37127745e-05 0.0015925593 -0.0012322447 0.00036423674 0.00027160157 0.0008656263 -0.0009611399 -0.00083865586 0.0004149809 -0.0008133456 1.5440253e-05 -0.00023292443 -0.0013694002 0.0008853234 8.450918e-05 -0.00021209686 0.00061016256 0.0013437262 0.00089734606 0.0007727916 0.0011028466 -0.0011120281 0.0005085824 -0.00023353595 0.0011207877 -0.0014634394 0.0014229119 0.0011094442 -0.000817701 -0.0008821436 -0.00048951 -0.0016135258 9.20168e-05 -0.0013238125 -0.0012858296 -0.0014986029 -0.0006199805 0.001534747 -0.0007830415 0.0011591247 -0.0007450252 0.0015203586 -0.00090598286 -0.0014231139 -0.00048757056 0.0006700121 0.00016023051 0.0012291014 -0.00014083527 -0.0009825213 0.00054176204 0.0013442107 -0.0007852391 0.00062788924 0.0014757733 0.0014495868 9.064518e-05 0.00083386415 -0.00085426 0.0011316031 0.0011191324 0.0015299502 0.0014790164 -0.001379497 0.0016481271 0.0011657826 0.0015567577 -0.00023502407 0.0010035544 -0.00067261263 -0.00044305908 0.0011925412 -0.0016534464 0.00076468685 0.0007782167 -0.0001694365 0.00025459702 0.0008368541 -0.00022537784 0.00076454884 -0.00059602014 -0.00089670025 0.0013372153 0.00071540824 0.0008187399 -0.0002279727 0.0013840226 0.00044065973 0.0006894614 0.0005240034 0.0015996414 0.0015633937 -0.0003789596 -0.0010837427 0.0015057406 0.0005585481 -0.0016761268 0.00081009185 -0.0010640636 -0.0012993744 -0.0009934135 0.0006328261 -0.0005596591 0.0008351997 7.8726414e-05 -0.0013401613 0.00090245774 -0.0004560708 -0.0011137561 -0.00032894575 0.00055347127 -0.0007161107 0.00071171945 0.00014949017 -0.00070312934 -0.00081012683 0.0015965477 -7.651394e-05 0.00096526585 -0.00079460157 0.0004460728 -0.00035796608 0.0012475087 -0.0014626147 0.00015581885 0.00013847953 0.0012142196 -0.00068261515 0.00032248866 -0.0013714537 -0.0010659564 0.0007698435 -9.649158e-05 0.0011752363 -0.00013527428 -0.00044011665 -0.00020897138 -0.0013183691 0.00017953276 0.0007643796 0.0015025854 -0.0012143775 -0.0017203129 -0.0014091027 -0.00048440878 -0.0010852459 -0.001476139 -0.0006479821 0.00010113649 8.283e-05 -0.00031874463 -0.00017889315 -0.0008115766 0.0016111823 -0.0015099557 -0.0011605629 -0.00053544407 0.001151676 0.0011080984 0.00077861553 -0.0012166875 -0.001252883 -0.0014320927 -0.0004464755 -0.0005786904 -0.0015641266 -0.00082753133 -9.453632e-05 -0.0011113663 -0.00021592094 0.0014802206 -0.0015463983 0.001271579 0.001621459 0.0007957909 0.0007127496 0.0015295036 -0.0001941435 -0.0003921432 -0.0005102814 -0.0006992374 -0.00023257142 -0.0006891725 0.0015885148 -0.0012359318 -0.0009703907 0.00057307625 9.8590084e-05 -0.0014384805 0.00024696224 0.0014113283 -0.0005096472 2.112175e-05 0.00029875696 4.7983853e-05 5.856093e-05 4.0192976e-06 0.00018181614 0.0016565318 0.0005232909 -0.0012319731 -0.00126587 -0.0013010064 -0.00040045666 -0.0012602876 0.0012012881 0.0017173358 0.0012576979 
vital -0.0012267962 0.0013970169 0.00045940647 0.001118027 0.000102874284 -0.0009402791 0.0011538784 -0.0010637174 -8.726515e-05 -0.0001434854 0.0010173905 8.825535e-05 0.0016096549 0.0016258074 -0.00079120806 -0.0015531953 0.00029108085 0.0008431643 -0.000551864 0.00030321558 0.0015143243 -0.0008813801 0.0008030546 -0.00090606825 -0.0010842878 -0.001596962 0.00057986646 -0.0010092192 -0.00040646072 -0.0011575117 0.0014323138 0.00023476966 -0.0003467227 0.0012416232 0.00072460185 0.0014093104 0.0013730375 0.0006413146 -0.0007780533 -0.0009627508 -0.0011802075 0.0013738391 0.0012765101 0.0013339733 -0.0012118904 0.0016113357 -7.5698816e-05 0.00046640352 -0.0016527113 0.0013394336 0.0013548911 -0.00082036207 -0.0004332423 0.0015048061 -0.00041649822 0.0006099414 -0.0015285956 -0.0007051631 0.0004896195 -0.0011489132 -0.00010780586 -0.0012902897 0.0013123525 0.00086528604 0.000301731 -0.00088905246 -0.00047030035 -0.0012789419 -0.0009649089 -0.0012498648 -0.00029415218 2.7651708e-05 0.0016208614 -0.0010732716 -0.00070048484 0.0011315512 0.001220947 -0.00072502583 -0.0004275149 0.0013651672 -0.0012712867 -0.00027866737 -0.0012577497 0.0007432365 -0.00088171003 0.0006405075 -0.00081494724 0.001597044 0.000801324 5.1173083e-06 0.0011213977 0.0012146451 6.836127e-05 0.000593941 -0.0015921 -0.0016016463 0.0007903872 0.00025334267 -0.00041970742 -0.00039116293 0.0011839655 5.9934588e-05 -0.00037159096 -0.0016162005 -0.00014602095 -0.0016171808 0.00015305744 -0.00045079124 0.00054130395 0.00041841716 0.00055565155 0.00019450554 0.00013509626 0.00020631908 -0.0014835873 -0.0015447569 -0.0007964573 -0.0012156481 0.0009749499 0.00031460088 -0.00021037282 0.0011536953 -0.00083544553 0.0008679345 -0.0015767277 0.0009314982 -0.0016238751 -0.0011898418 0.0011478786 0.0007579861 -0.0001008095 -0.00034234952 0.0005242677 0.00022430625 -6.4235166e-05 0.0004312335 -0.0004163584 0.00024273754 0.0004477513 -0.0010151571 -0.00043296348 0.0011277001 0.00058290357 -0.00055644766 -0.00028679898 0.00050068606 5.2189866e-05 -0.0013203106 -0.0013350663 7.468887e-05 0.0013793365 -0.0012124783 -0.0003662167 -0.0014799866 -0.0014892899 0.0009599393 -0.00093005016 -0.0012799223 -0.0007515211 0.0006172396 -0.0015187194 0.00069280446 -0.00028757774 -0.0008384023 0.0013155263 0.00056019827 0.0005836213 -0.0011767676 0.0015961381 -0.0015131654 -0.000948258 0.0006102421 -0.00085955154 -0.0014469231 -0.0006619808 -0.0008674608 -0.0013722342 -0.00071809907 0.0014311498 0.001390996 0.00086110906 -0.0011045536 0.0014769653 -0.00074996793 -0.00020988952 0.00041225442 -0.00033668382 -0.00034569763 0.0014429485 -0.0008878588 0.0012664183 -0.00045298232 -0.00069602556 -0.00038769262 0.0004423593 -0.00062637375 0.000750059 0.0014216733 -0.00062519126 -0.00030470497 0.00042953243 0.0014152931 0.00077296916 -0.00085463614 0.0012277449 0.0006181294 -0.0014658101 -0.00069129746 -0.0016603944 0.00040360168 0.0006983617 0.0004667906 0.0009968774 -0.0016543322 -0.000598938 -0.00091167964 0.0013008376 0.0013198404 -0.00080138334 -0.0008563014 0.0010748652 3.6299687e-05 0.0013952755 0.000111329726 0.00041165887 -0.0015728533 0.0005173327 0.00058990985 0.0012820384 -0.0011365839 0.00057985866 0.0008676994 0.0011249491 -0.0014921187 -0.0016171983 -0.0012286704 -0.0011495778 0.0007729738 -0.000621999 -0.0007640795 -0.0014887259 -0.0008880731 -0.00036816584 0.0014356137 -0.0009650513 -0.00082067365 0.0005966414 -0.0006176424 -0.0007611419 -0.00082952064 0.0016397188 -0.00075787917 0.0014160102 -0.0014055297 -0.0014093462 4.3044038e-05 0.0013451063 0.0011408792 -0.0014818086 3.0534336e-06 -0.0006383758 0.0012567434 0.0015262124 0.00038976324 -0.00028594004 -0.0010695517 -0.0007761852 0.0014490761 -0.00135828 -4.568183e-05 -6.810445e-05 -0.00018838218 -0.00041054058 0.00059072225 -0.00032823073 0.0010279759 0.0011823159 0.0016792433 0.000632 0.00085217826 -0.001269454 -0.00037473827 -0.0016393297 0.00085550774 0.0003550521 -0.00051031634 -0.0013570832 0.0007146503 -0.00029062736 0.00082969357 -0.0010880037 -0.00050993654 -0.0015979216 -0.0007561563 -0.00012699254 0.00040218644 -0.00017037756 -0.0006625382 0.00068952463 0.0012207011 
emphasise_bn:00082195v 0.0002673818 0.001401361 -0.0014112317 -0.0012755026 -0.0012862944 0.00070725905 0.00061046577 0.0012539602 -0.000182671 0.0014895846 -0.0012678613 -0.00040745467 -0.000268662 -0.0016901296 0.0015700322 0.0015199978 -0.00050875434 -0.0011061174 -0.0014763905 -0.00035455485 0.0009883923 -0.0005059617 0.00012745218 -0.0014574325 -0.00020291361 0.0007673676 0.0008276619 -0.00079871406 0.0004045145 0.00047563922 -0.00039059002 0.00026012392 -0.0014667787 -0.00080416375 0.001585763 0.0011537231 -0.0007570646 4.8269325e-05 -0.00049095665 0.00011321921 0.00047379537 -0.00020742937 -0.00079549866 -0.0011658081 -0.00032466563 -0.0013588419 0.0008682629 -0.0006732593 -0.0001492617 0.0012123872 -0.000591858 0.0016084302 0.00062984 0.00040808998 0.0013992351 -0.00028782533 -0.0014082227 0.0009111554 -0.00033785906 0.00069884583 -0.0012917048 0.0010915992 -0.0006981826 0.0010808866 0.00033568128 -0.0010744098 0.0009257179 0.0010045049 -0.0002809012 0.00027421192 0.0005715087 -0.0010076053 0.0014095876 0.0005868655 0.00094897364 -0.0014648412 -0.00018320205 0.0002726947 -9.890888e-05 0.00032238453 -0.0012666943 0.0013733312 -0.00021885405 0.00076164777 -0.0014485017 -0.0012686497 -0.00011525238 -0.0011048183 -0.0010662179 0.0003653157 -0.00031566984 -0.000969739 -0.0008123676 0.00013034925 -0.0013115811 0.00012906914 0.00024068661 -0.0015353324 -0.0012013455 0.0010491908 0.00017585118 -0.00031079515 -0.0010416696 -0.00057127496 -0.0016179763 0.0014809798 -0.00043654584 0.00024272884 -0.0011492714 -0.0011650423 -0.00035491935 -0.0011087479 0.00060470606 -0.0011385228 -0.0016487665 -0.0010649423 -0.0004630006 -0.0005719449 0.000328984 -0.00063915324 0.0014374149 -0.0010860618 0.0003547669 -0.0013004502 0.0002641436 -0.0014691202 -0.0006054756 0.0009595699 0.00077661587 -0.0016472259 0.0011789612 0.0013604056 -0.00047264222 -0.0009846395 -0.00032467107 4.7813435e-05 3.1330477e-05 0.0013209884 0.00085914845 -0.00093750516 -0.00020466723 0.00086909614 -0.0012145966 -0.00023688593 -0.0003512558 0.00050805125 0.0012335511 -0.00088730775 0.00020475464 0.0006869245 -0.0013110113 0.0008273038 0.0014492752 -0.00020065765 0.0016320111 -0.0010681911 0.000995283 0.0014912182 -3.556751e-06 0.0010618565 -0.0014483959 0.0013046381 0.00060113514 -0.0015098315 -0.0008718002 0.0007416659 0.0012595304 -0.0012144673 -0.0010168193 0.00033025138 0.00047547944 -0.00032358433 0.0006641801 -0.0007592485 0.00014824812 -0.00089275674 -0.0002223838 0.0011857395 -0.000856068 0.00046266237 0.00055688136 0.00044186955 0.00027055794 -0.00061965286 -0.0006152605 -0.00060265843 0.0011741774 -0.00044059358 -0.00027766958 -0.0009638692 -0.0012944536 -0.00023917947 -0.0012761065 -0.0011124092 0.001125619 -0.00022843525 -0.0006951181 -0.0013215374 -4.120579e-06 -0.00088077754 -0.0015379277 7.1755e-05 0.001039158 0.00033576784 -0.0005390591 -0.0007434702 -0.0006992445 0.00095521036 -0.00058951904 0.0010000569 -0.0007783686 0.0011433106 0.001017655 0.0012361846 0.0009843697 0.0010555084 -0.0007484489 0.00068110117 0.0014960071 0.0016223855 -0.00055714796 -0.00029702223 -0.00025773866 -0.0014810418 0.0005655728 0.0007291559 0.00031681845 0.0012634154 -0.0011995006 -0.0007714917 0.0012847167 0.0008080551 -0.00040396155 0.0015288107 0.00030824175 0.001532821 -0.0005660959 0.001223841 0.0016076524 -0.0015885725 -0.00022946614 -0.0006486471 -0.00066139555 -0.0001143029 -0.00034549658 -0.0011913195 -0.0015516873 -0.00010280696 0.001702816 -0.00040243712 -0.000253653 -0.000117701355 -0.00020608296 -0.00063254364 0.0013506617 0.0012775875 0.0014376262 0.00026716033 -4.6513884e-05 0.0010594222 0.00028134792 -0.00036006334 -0.0014073193 0.00084889506 0.00052872533 0.000879003 0.00015172685 -0.00031737052 0.0006265807 -5.047333e-05 -0.0005827461 0.0012727429 0.0004855487 0.0015245401 -0.0013265655 -0.00011536157 -0.00024081963 0.0010092312 0.0007897558 0.0010871341 0.0008020243 0.00099074 0.0011370034 -0.00089921337 0.0013091773 -0.001469152 0.0005769412 0.00033745466 -0.0009808633 -6.3362575e-05 0.0005627667 -0.0003444898 -0.001429326 -0.0009433036 -0.00011373527 0.0015397754 -0.00010916632 0.0007795795 0.00059203035 0.0011320338 
others 0.0013742471 0.00024524645 -0.0011778437 -0.0014624746 -0.00067969685 9.308354e-05 -7.0235e-05 0.0004937198 0.0015914863 -0.0004164679 -0.00075046 -0.00011307271 -0.0015279932 -0.00015731333 -0.0012206612 0.0007126876 0.0010410531 0.0013760148 0.00030079167 -0.0002780162 -0.00045831015 0.0009307773 0.0012093768 -0.0007858157 -0.000441141 0.0010821234 0.0008639447 -0.0014119885 0.0006361109 -0.00037761903 0.0015578408 -0.0002972866 -0.0005401454 -8.730087e-06 0.00025155707 -0.000118796124 0.0013921284 -0.00018049602 -0.0007188798 0.00054898486 0.0003569763 0.0005050504 0.0015070079 0.0006250267 -0.00095552346 0.0005501419 -0.00024152226 0.0014216154 -2.7644068e-05 -0.0008389855 -0.00036590183 -0.00041848348 2.9060653e-05 -0.0013486338 0.00055198465 -0.00015427558 0.00111032 -0.00061773456 -2.0062083e-05 0.0011459432 0.0013960389 -0.0010851304 -0.00080467365 -0.0007173951 0.00015747573 -0.0002876074 -0.0016359052 -0.0009339717 -0.0013224896 -0.0016048385 0.0015827242 -0.0014874758 -0.0011718479 0.0003752231 -0.0006924961 -0.0009892514 -0.0009767727 -0.000549518 -0.0015170054 -0.0009735623 0.00027759862 0.0006895189 2.3917275e-05 0.0015814396 -0.001579596 0.0005756194 -0.0015727739 0.0012346347 -0.0012462143 -0.001517988 0.0014730934 4.163341e-05 0.0010141567 3.2632197e-05 -0.0014495837 -0.0014298292 -0.000696638 2.4784369e-05 0.0017146931 0.0005275038 0.0010672571 -0.0010948109 0.00078264857 0.00081396656 -0.00053904933 -0.00020403592 -0.0004219131 -0.0002219674 0.00043718301 -0.00023081212 -0.0016731222 -0.00080525846 0.00060496555 -0.0011678352 0.001273385 0.00048164453 0.00031101197 0.0005974608 -0.0004836092 -0.0007124715 -0.001519977 -0.0009063618 0.00069860683 0.0012158125 0.00024328729 -0.00049578556 0.0013611036 0.0010565885 -0.0010710526 -0.00059932115 -0.00018420148 0.00059418764 0.0002830683 -0.0016417206 0.0014557303 0.0008940041 0.0014192284 -0.0013936652 -0.00043150884 0.001322901 -0.0008107241 -0.0013999478 0.00036299866 -0.00037485582 0.001165645 0.0016264371 4.827063e-05 -0.0014396241 -0.00033513215 0.00053467933 0.0010791592 -0.0013367814 -2.703849e-05 -0.0013306577 -0.00078277977 0.0005445295 -0.00029855518 -0.0005227739 0.00027425512 -0.0005761623 0.00096631394 -0.0010810053 -0.0012500002 0.0001622536 -0.0015367311 -0.0011252619 0.00023770051 -0.00081664603 -0.001297401 -0.000648963 0.0015630699 0.001514569 -7.151006e-05 0.0009812089 4.5537658e-05 -0.00043387312 -0.00053192116 0.0004836452 -0.001637352 -0.0009323062 0.00045016414 0.0014207283 0.0003565232 -0.00033363336 -0.00027754618 -0.00060035405 -0.00028124472 0.00045060983 0.0008133195 -0.0012518613 -0.0015875248 0.0011330915 5.46728e-05 0.00013129407 -0.0012127229 0.00031628454 0.0014074467 0.00019323271 0.0010616927 -0.001579956 0.00095196115 -0.0010443709 -0.00048181377 -0.0014053823 -0.0005398465 -0.0014957226 0.00020890149 0.0011901205 0.001509979 0.0013872646 0.0013469728 -0.0015200105 -0.0008210433 -0.0006959944 0.0014049315 -0.0008391485 0.0008832781 0.0006052088 0.00021261498 -0.0016118094 -0.00040891193 0.00021115132 0.00016949225 -0.0012990797 -0.0006647746 0.0005456855 0.00021991579 -0.0011664006 0.0005913498 -0.0015168624 -0.00096073793 -0.00084705156 0.0011306532 0.00093028956 -0.0016720744 -0.0016183651 0.00090173725 -0.00021663573 3.5399527e-05 0.001189893 0.000538481 0.0015158799 0.0011572975 0.0015764907 0.0012568416 0.0010707761 0.0006227069 -0.0009759408 -0.0013607423 -0.0002774207 -0.0016395728 0.000426431 -0.0015175215 0.00029597315 -0.001618633 -0.0005310782 -0.00026199533 -0.0012710735 -0.000605589 0.00032793323 -0.00042437774 -0.0003333642 0.0013118647 -0.0006398661 -0.0010976193 0.0015069103 -0.00032864444 -0.0015989727 0.0014822637 0.00094189466 -0.00039231675 0.000925219 0.0012726369 -0.0004460264 0.0016039057 0.00082918385 -0.00058897946 0.0013533791 -0.0015067675 0.0014285027 0.00025468532 -0.0014897601 -0.0016268969 -0.0015663118 0.00090510544 -0.0011279869 -0.0015828934 -0.0010276453 0.00087705627 -0.0014179398 0.001740512 0.00023756103 0.0014763175 -0.00014060856 -0.00024064514 0.00023724644 0.00030787569 0.0012286087 -0.0011698205 0.0010018973 
democratic -0.0008127115 0.001257995 -0.0013718113 -0.0014557154 0.00030920288 1.9918303e-05 -0.00046042187 0.0010726755 0.0015978676 0.00043683036 -0.00018234801 0.0001461272 0.00010115621 -0.0010396852 -0.00014748216 0.0014215615 0.000723691 -0.00061602134 -0.0006692052 -0.0006662368 0.0015530176 0.0014652455 0.0012968326 0.0005666539 0.0015106889 -0.000581575 0.00047272973 -1.1024775e-05 -0.0010471882 0.0010774691 -0.00038728456 0.00046097132 0.0010390739 -0.0013794901 0.0011838836 -0.0005911263 0.00052008533 -0.0011389952 0.0011425806 -0.0005932261 -0.0012148365 0.0003424111 -7.1342045e-05 0.0014021144 0.0013667599 0.0006791171 -0.0003359096 -0.0009878565 -0.0003364187 0.00038461157 0.0014471288 0.0006471573 0.0001377054 -0.0005271137 -5.6736226e-05 -0.0010350267 0.00075385784 0.0004985149 -0.0008939381 -0.00092071434 0.0005399229 -0.0006565862 -0.00150452 -0.0012364369 0.0012301824 -0.0011641842 -0.00064817717 -0.0015867929 -0.0009805663 -0.0013133114 -0.0004665442 0.0013870987 0.0011212608 0.0014212949 -0.000198786 0.0011407958 -0.0005188623 -0.00091660896 0.0005056964 -0.0007968936 0.00020117864 -0.00037457742 0.0011985123 -2.42868e-05 9.3306706e-05 -0.0014437119 4.86347e-05 -0.00073879684 0.00047927437 -0.00022939034 -0.0009456419 -0.00049475697 0.0013725006 -0.00018360536 -0.0007899137 -0.0005887441 0.00035114 -0.0011478873 -0.00058687286 0.001332081 0.00058701966 0.00069865485 0.0015393739 0.00040491528 0.00078189786 0.0006170848 -0.00092772313 -0.0012052772 -0.001099656 0.00073240045 -0.00041628958 -0.00023662121 0.00029025407 -0.0012194796 -0.00075767795 0.00036816567 -0.0002732067 -0.00014811958 0.0011353277 0.00064412225 0.00059914595 0.0012175288 -0.0013429632 0.0011511585 0.0011381585 0.0013201176 -0.0006494633 -0.0010511284 0.0015828375 0.000845554 -0.0011541137 -0.00097323064 -0.00075336086 -0.00016366543 0.00010480935 0.001200272 -0.00016532098 0.0010413373 0.0011576387 -0.0006967025 0.00072498136 0.00057303824 0.000498853 -5.1314615e-05 0.00015251567 -0.0010363753 -0.0010121495 0.0007359152 0.00079589617 0.00011137988 0.0005498008 0.0012470891 -0.00019111452 0.0008499528 0.0012171372 0.0012521696 -0.0015631755 0.0009451905 -0.001553895 0.00026717733 0.00042450512 -0.001189567 -0.0011337014 -0.0016950929 -0.001420732 -0.0011518429 0.0009832096 -0.0015550539 0.0003527402 -0.0016540335 0.00052252907 0.00015182121 0.0010834789 -0.0011868887 -0.0009109775 0.0005445121 0.0016054207 0.0015779897 -0.0015075373 -0.0008042683 -0.00097257626 0.0003317628 0.0014861637 0.0003861223 -0.00043638682 -9.067758e-05 -0.00087880564 0.00053218484 0.0013192681 2.1739805e-05 -0.00031407116 -0.0015911337 -0.0012138395 -0.0012910448 0.00044189845 0.00080441096 0.0010951746 -0.0010215321 0.00045080032 0.0016066704 -0.00014593951 0.0014278169 -0.0009940126 -0.00076595764 -0.0004787568 -0.0015028049 0.0012544647 0.0012319112 -2.911829e-05 0.0011200353 -0.0014591694 0.0008666099 0.00081624795 0.00026447192 -0.0016402653 -0.00016376091 -0.00051493786 0.0015007406 0.00057260715 -0.00025939444 0.00045534095 0.0003201465 -0.0015547611 0.00042370308 -0.0010000893 0.0012155053 0.00045931689 -0.0014521658 0.00047630383 0.00022069334 0.000704949 -0.00057988195 -0.0007374758 -0.0001513606 -0.0011427886 -0.0015497514 0.0003340563 -0.000904011 0.0015562584 0.00051259866 0.0011190288 0.00012201503 -0.0009567822 0.0014338128 0.00042971948 -2.2720675e-05 0.0010986532 -0.0014604763 0.00048629372 0.00037098236 -0.0005936032 -0.0012442479 -0.0009590496 0.00089164596 -0.0009353814 0.0013054082 0.000673168 -0.0016277053 0.0014994155 0.0011752605 0.0012397328 0.00109049 -0.0011222796 0.0012518411 0.0003073842 -0.0006269452 0.0012768063 -0.00112786 -0.00069602596 -0.0004064506 -0.00037468056 -0.00018189661 -0.0006544399 -0.0011726285 0.0013328318 -0.001598579 0.0010124729 0.0001801635 0.0012716162 9.296353e-05 0.0014449091 -0.00027706323 0.0007306512 0.00086491846 -0.00019525741 0.00019758182 0.0010839131 0.0010319825 -0.0008516254 -0.0006041209 -0.0003830328 -0.0016627816 0.0004898686 2.2129456e-05 -6.028044e-05 -0.0010959638 0.0010134664 0.0007333196 -0.00025565308 0.00035422266 
Union_bn:00013379n -0.00016813978 -0.0007039152 0.0005528883 0.0014381834 -0.00046803663 0.0007806358 -0.00040211616 -0.00027883225 -0.00086908985 0.0015707056 -0.00043238504 6.0077422e-05 9.551752e-05 0.0010312097 0.0002121141 0.0016429476 0.000491 0.00037191447 -0.0011334869 0.00021994727 0.00047432174 0.0013077392 0.00017786978 -8.07904e-05 0.0006723838 -0.00034661687 0.001381997 0.0013504272 0.0015589128 -0.0009697709 0.0009688691 0.0012091893 -0.00071499054 0.0012476691 5.9190632e-05 -0.0014652845 -0.001263818 0.0010444052 -0.0009363954 -0.00019019186 -0.0008416479 0.0012754033 -0.0002860894 0.0013468874 -0.0009814819 0.0011897883 0.0016178048 -5.7378656e-05 3.9554365e-05 -0.00034327272 0.0015170292 0.00094293366 -0.0003528304 -0.0015206204 0.0003060922 0.001340689 0.00044506756 -0.0011654432 -0.0010026293 -0.0011731648 -0.0015192927 0.00019348641 0.000805042 -0.0015307207 0.0015707207 -0.0010993283 -0.00072334165 -0.001648585 -0.0012376185 -0.0011144339 0.0013617161 0.00043490753 -0.0003177891 -0.0013338514 0.0012315845 0.001328583 0.001168473 -0.0016511581 -0.0006704016 0.0013802039 -0.0010878367 0.0012734855 0.0003953787 -0.00084261474 0.0012913643 -0.001612686 0.0008648892 0.0011758285 -0.00031987985 -0.0016561442 -0.0002789517 -0.0012936557 0.0017056377 0.0012466623 -3.4313318e-05 -0.0011911197 -0.00036917807 -0.0012577279 0.0016228124 -0.00070577447 0.0016526019 4.7100762e-05 -0.00064583635 -0.0012226026 -0.0010353264 0.0013313072 -0.0009690542 -0.0012642834 -0.0010513884 0.00047027323 8.219001e-05 -0.0007656614 0.0003786414 0.0005594376 -2.0977617e-05 0.0014333704 0.0005332596 3.1583928e-05 0.0006963479 0.00037774173 0.00055660063 -0.0009805626 0.00019667146 0.00028391503 -0.0010795137 -0.000116274496 -0.0010493377 3.5530495e-05 -0.0004628343 0.0014175195 0.00017348785 0.00018327139 0.0005144033 0.0004222127 0.0010393288 0.00085162773 -0.0012774081 0.0009201984 2.6279464e-05 -0.00046965366 -0.00038734445 -0.0004985254 0.0015696011 -0.001512404 -0.001236157 -0.00053121557 0.0008569843 0.00040454953 -0.00035504182 0.0009242299 -0.00096248946 0.001021257 -0.0010331732 0.00017317635 -0.0012679732 0.00028419253 0.00018837623 0.00094714045 -8.116961e-05 0.0012038933 0.00060509867 0.0012604869 0.001469166 -0.0014407873 -0.00023773251 -0.0010927643 -0.00019303655 -0.00051747425 0.00025879676 -0.0009988766 -1.18623275e-05 0.000494082 -0.0001244443 -0.0012850539 0.0015016937 0.0003520736 0.0011112432 0.0010844548 0.00085033925 -0.0011082609 -0.0015250478 0.00067887927 0.0015403125 -0.00043608912 0.0012065575 -9.0286485e-06 0.0015964634 0.0011937681 0.0013950546 -0.000250646 0.0013627853 6.8768546e-05 -0.00089438213 -0.0011131307 0.0010360501 -0.00106195 -0.0011996202 -0.0007326769 0.00050509215 -0.0008226689 0.0009320309 -0.0012713 0.0017385943 -0.0007094874 -0.0011583779 -0.0011667338 -0.0009648106 -0.00047582015 0.0010355256 0.00095033227 0.001712086 0.0012579369 -0.001009457 0.00028327867 -0.0010921817 -0.0016299286 -0.0005758275 -0.0005401645 -0.0014065158 -5.9468634e-06 0.0015115086 3.7613157e-05 -0.0007094198 0.00056291727 -0.0013545103 0.00066694483 0.0014431995 0.0014259472 0.000637617 0.0012394537 0.0016771045 -0.0013034175 0.00066798716 0.0009943251 -0.0010257007 -0.0008647321 -0.0015162564 -9.658511e-05 0.0005835973 -0.00083470414 0.0011672238 -0.00027416652 -0.00056059886 -0.00051049073 0.0010053138 -0.0005850836 0.00042890076 -0.0014363249 0.00020342649 0.0011486965 0.00065045827 0.001310229 -0.00018457904 0.00086986326 -0.0010080633 0.0004953598 0.0014309982 -0.00023856132 -0.0010935524 -0.00014295823 0.0005574593 0.0013368967 0.0014535893 0.00092844054 0.00056039874 -0.00073990726 0.00023506573 0.00024616398 0.00018165585 -0.00046707122 0.0010693314 7.477052e-05 -0.0009917334 0.0011243854 -0.00048844004 0.0008508078 0.00025257558 -0.00032859805 0.0011392192 -0.0014160989 0.0013143145 -0.0007739228 -0.0015212842 -0.0010449403 0.00018016834 -0.0015799506 -0.00040593903 -0.0004391867 0.00014020209 0.0013925158 0.0009990098 0.00080518256 0.0002670526 0.001317511 -0.001538924 -0.0009889746 0.0005809547 0.00071082736 0.0010017578 -0.00022415734 
believe 2.9947418e-05 0.0011621886 -0.0009913115 -0.0010268517 -0.0011561117 -0.00024118477 0.00065742864 -0.0015837009 -0.00033881288 -0.0007413143 0.0016383888 -0.00092847936 -0.00032150172 0.0006826956 0.0007450851 -0.0006754552 0.001337292 -0.0014076504 -0.001285206 -0.00056212425 0.00025089603 -0.0012369639 0.00071298773 0.0010128651 -0.00055255013 -0.00058067095 0.0014146792 0.0016458104 -0.0011430354 -0.00024816926 0.00079634885 -0.0013384839 -0.0014168682 -0.0009787299 0.0010835485 0.0011951665 -0.001101419 -0.0013388991 0.0013665146 -0.00021743054 0.0011646813 -0.00023425126 0.00052119425 -0.00097117905 -0.00025033025 0.00040198985 -0.0010465013 -0.00026136503 -0.00056250824 -0.0014506315 -0.0007663818 0.00021878899 0.00085894426 -0.0011300675 -0.0004107657 -0.0014158137 0.0012601463 0.00073964597 0.0008077082 0.0013159331 0.0008096596 -0.0010936903 0.0012943331 0.00045227655 -0.00034902018 -0.00032784932 0.0010362667 0.0013820516 -0.00068589795 -0.00028153014 -0.00041282413 -0.001236437 0.00093587756 0.00088665535 -0.0004377334 -0.00151769 0.00014690444 0.0011776307 -0.000484704 -0.00028813654 0.0013047261 0.00042458356 -0.001198289 -0.0010682674 0.0002115851 0.0011038505 0.0002606108 0.00095298403 0.0011804892 -3.867864e-05 0.0003851675 -0.0011954173 -0.0010638327 -0.0006110233 -0.0016165691 -0.0005150151 0.0016274678 0.00090977893 -0.00124491 0.0011466017 -0.0014563175 -0.0007922681 0.00030108035 0.0010903139 0.0006022644 -5.2222576e-06 2.5665873e-05 0.0014209588 -0.0015688878 0.0012490726 -0.0014864807 0.00043672702 0.0013008402 0.0006450927 4.1160984e-05 0.0005102397 -0.0013256989 0.0003548154 0.0015485311 -0.00058160775 -0.00092027965 -0.0010412948 0.0016324271 0.0001785779 0.00049479963 0.0011180312 -0.00055071997 0.0003188544 -0.0010353179 -0.0016028816 -0.00030490907 -0.00091012864 0.00092097465 0.0008775239 0.00083463633 0.00041329165 -0.0011171115 0.0011539344 -9.6941476e-05 -0.001124638 -0.0005700083 0.0016167619 0.0007490642 -0.001616408 0.00048457386 -0.0012962832 -0.0006212242 -0.0010330632 -0.0015893453 -0.00050403416 0.00047126808 0.0014679485 0.00037893304 0.0015353225 -0.0013665151 2.2890372e-05 -3.9482376e-05 0.0001247446 0.00023963928 -0.00090467045 -0.00093444396 0.0012300852 -0.0003033876 0.0010244962 0.00043771023 0.00070023275 -0.000515424 -0.0013359736 0.0014217917 0.0007964005 0.0004912698 -0.0014467117 0.00044039046 -0.001232405 -8.432186e-05 -0.0005854266 0.0013900306 -0.00053742185 -0.00068794325 0.00086323643 -0.0009805858 0.0012421043 -0.0009888195 0.0012338415 0.0001667299 -1.19100505e-05 0.00015873663 0.0009989592 -0.00056979497 -0.0004870607 0.0003814517 0.00015665605 -0.00038391567 0.0007716538 -0.000985611 0.0009182763 -0.0007794047 -0.0011620149 0.0011851598 0.001649225 -0.0009831059 0.0006916796 0.0014060127 0.0012825704 0.0006589794 -0.00022095891 -0.00074903545 -0.00038851285 0.0005061429 8.4859574e-05 -9.548839e-05 0.00089290494 0.0015908189 0.00042977682 0.00021493554 -0.0003042364 -7.5442025e-05 0.0001794311 0.0010352435 0.00088598055 -0.00032567777 0.00056114525 0.0002907609 -0.00031677904 -0.0005609293 9.652549e-06 -0.0015178524 0.00079427497 0.00057013315 0.00035648953 0.0016432559 -0.0009998088 0.00027470707 2.8993034e-06 0.00085843605 0.0008759224 1.7863465e-05 0.0005943379 -0.00023715461 0.0016323146 0.0010594015 0.0012584993 3.9939845e-05 -0.00070839527 -0.00037026717 0.0008299949 0.00028083252 0.00023803688 -0.00035842235 -2.2850885e-05 0.00012545314 -0.00093265605 0.0006437557 0.00044589944 -0.0013326608 0.000444663 -0.00096543797 0.00017062113 0.0001611815 0.0015309989 7.4837444e-05 3.897596e-05 0.0010250652 -0.0010455938 0.00056769315 -4.4142296e-05 0.0004454653 0.0010610981 0.001447116 0.00012293282 0.0012741371 -0.0005693266 -0.00081239187 -0.0012133878 -0.00038738045 0.00010055312 -0.00071203045 -0.0012681485 0.0014373391 0.00056986226 6.923603e-05 0.00020578252 -0.001069836 -0.00085594633 -0.0013798018 -0.001335473 -0.0015941701 -0.00058630697 -0.00081209734 0.00036443645 0.0010238985 -0.0013960861 -0.0011891663 -0.0014144015 0.0013676492 0.0011497512 -7.094789e-05 0.0013145511 -0.0009382745 0.0009804183 
really -0.001189566 -0.0012756436 -0.0012812268 0.0015360864 -0.00037115643 -0.0012698113 0.00062264345 -0.0012932376 -0.0010103309 0.001320036 -0.00031030562 0.0008023743 0.0011611549 -0.00067158823 -0.0016071143 -0.00013598957 -0.0010614081 -0.00017292658 0.0009525801 0.0015164122 -0.00026198573 0.0008550574 -0.0011904377 -0.0012366115 0.0006128925 -8.1950115e-05 0.00016718425 5.937832e-05 6.4142514e-05 -0.0003072152 -0.00010460844 -0.0005412654 0.00095781684 -0.0009629124 0.00070546777 -0.0006582983 0.0010165182 -0.00045011428 0.00022997544 -0.00091658474 -0.0009728131 -0.0006131757 -0.00044961218 0.00022928846 5.0998544e-05 0.0012038776 -0.0012396261 -0.0011144689 -0.0010779958 0.00047067006 -0.0007627658 0.00021832458 -0.00015874437 -0.0016657696 0.00031507047 -0.0005580259 0.00032281128 0.00035082287 -3.0154331e-05 -0.0006670555 0.00047239935 0.0006053321 0.00088083587 -0.0002078933 0.0001561084 0.0016197868 -0.00040168146 -0.0010169555 0.0008610489 -0.001426033 -0.0011180054 0.0015868747 -0.00045520058 -0.00017230204 -3.39653e-05 0.0007443325 -0.00014816919 0.0007424246 -0.00086063566 0.00011376799 0.0015304626 -0.00042146782 0.001283273 0.00015028448 0.0009387853 -0.0010375959 -0.0004927948 -0.0007787231 0.00045487322 0.0012194549 0.0010122949 0.0012946124 0.00040873146 0.0013045202 -0.001507724 0.0002576764 -0.0015451846 0.0015500542 -0.0011642702 -0.00036516288 0.00075721595 -6.015696e-05 -0.000613641 -0.0009733079 -0.00082146144 -0.0013643018 -0.0004905561 0.0014243738 0.0002956807 -0.0006166591 0.00030369483 0.0015498071 -0.00044448866 -0.0015998504 -0.0009394825 0.0013077654 0.0015313867 0.0012984454 0.00086106686 0.00030917296 0.0014881326 0.00044271915 0.0010331157 0.0010769891 -0.0010548711 0.00036458884 -0.00051096204 0.0010896561 -0.00023836683 -0.00047067032 -0.0007484419 0.00022772342 0.0015991641 0.0012964591 -0.0012741587 -6.625067e-05 -0.0006721924 0.0010643508 0.0010769941 0.0014747293 0.001594598 0.00060656137 0.0015467925 0.0015250775 -0.0010288267 -0.0012110529 -0.0016486568 -0.0011433885 -0.001672529 -0.0010372549 -0.00028075697 0.0004732114 0.0012112792 -0.0007003321 0.0013450702 0.00026495795 0.00091202935 -0.0014554875 -0.0015693173 -0.00033511248 -0.00034740506 -0.00075478095 -0.00075140543 -0.0015410791 -0.00024353301 -0.00016150803 0.0012370205 -0.00072242034 0.00043227107 -0.00040239768 0.0008754558 0.0013361415 0.00044469727 -0.0010491974 -0.00095074676 0.0016488086 -0.0014616672 -0.00026141084 0.0007547835 0.00061678793 0.00023645401 -0.0013200741 -0.00030473288 0.0015118653 -0.00052226864 0.0007954036 7.8432815e-05 0.000982954 0.0007604717 -0.0013184943 0.00094394595 0.00071568915 0.00036670818 0.0002055926 0.0009232206 0.0013099044 0.0013125344 0.00032719623 -0.0011421241 0.0010068908 -0.0013704691 -0.0003271288 -0.0014633687 7.806264e-05 -0.00060066325 -0.00051623944 -0.0012545385 -7.526695e-05 -0.00028936827 0.00075805327 4.195253e-05 -0.0002152172 0.0005112854 -0.00071860076 0.00090916373 -0.00023510282 0.0013700883 0.00032554235 0.00091207 3.1702395e-05 -0.000478109 -0.00017741114 0.0011533351 -2.5342995e-05 -5.1459865e-05 0.00045053917 -0.0012492326 -0.00034025707 -0.0015115029 -9.2863374e-05 0.0016260075 -0.0008242535 0.0011430854 0.00057750574 0.0014434254 0.0011828134 -0.00023177976 -0.00023375149 -0.0007566816 -0.00024731123 0.0012399715 -0.0016184296 8.096224e-05 -0.0011852315 -0.0010325199 0.00032025974 -0.00059429184 4.1904605e-05 0.0015346357 0.0012030844 0.0011313043 -0.0003754984 -0.00013257268 -0.0013047374 -0.0012357772 0.0016606 -0.0013370928 0.00035196778 -0.00027276593 -0.00092017633 0.00060399965 0.00037895684 -0.00072676805 -0.00066099147 0.0012057712 0.0009816003 0.0007363441 0.0016598982 0.00063653116 -0.0013978881 -9.650379e-05 -0.0011094656 -0.0010081736 0.00018354812 0.00024376417 0.0012399607 0.0007240244 0.0006518072 0.0007547169 -0.0010819068 0.001101273 -0.0010030685 -0.0008988859 0.00073202327 -0.00025243667 0.00024407003 -0.0014598557 -0.0016709926 0.0012899177 0.00051643996 0.0015337216 -0.001522639 -0.0012705848 0.0010585256 0.0005299807 0.001113808 0.00012774425 -0.0006253225 -0.0014692164 -0.0011764485 
foreign 0.0009525219 0.00042422794 0.0009731619 -0.00077560445 0.0002487927 0.0013722118 -0.0004371396 -0.0015783167 0.0013317968 -0.0012226759 0.0004526468 -0.0005803897 -6.2918334e-05 0.0005093717 0.001051391 0.00087830203 -0.00033056588 -0.00067214033 -0.00046493273 -0.0015430327 -0.00031708737 0.0015239965 3.050403e-06 -0.00043764117 4.8604474e-05 0.0001688497 0.001527777 0.0007587909 0.0011026596 -0.001220829 -0.0007675394 0.0015378426 0.000344532 0.00023641023 -0.00095322926 0.0007145265 -0.00017573904 -0.0013670045 9.285388e-06 -0.00010036441 -0.00087909825 0.00076738367 -0.00082217925 -0.0006232826 0.00069360633 0.0010918747 -0.0006895218 8.497608e-05 0.0011049331 0.0015249903 -0.00085617503 0.00019045768 -0.0007684617 0.000947403 0.0016272817 -0.001388109 -0.00090246665 0.0007583479 -0.0011242804 0.000757216 0.0006314482 0.00056281796 -0.0003297453 -0.00085507485 0.0011356971 -0.0014252897 9.398137e-05 0.0012973399 -0.0011641198 2.52036e-05 -0.0005404607 1.9224617e-06 0.00061366695 0.0010200763 0.0005533879 -0.0013223832 -0.00027694835 -0.00059227087 0.0008454519 -0.00074358075 0.0012585621 0.000860399 -0.0015716106 -0.0005571636 0.00065441174 -0.001057175 0.00081285037 0.0005254948 -0.0011219092 0.0013214176 0.0008166405 0.00082180917 0.0004493481 -0.0006583584 -0.00066180684 0.0010688194 -0.00022467859 -3.8176884e-05 -0.0010116489 -0.0010011261 0.0005302028 -0.0006149831 0.00018625088 0.000526921 0.000816872 -0.00047533453 0.0009843265 2.3379269e-05 -0.0014722825 -0.0010184495 0.00042143618 5.3621585e-05 -0.0011956103 0.0011956756 -0.001589172 0.0013609227 -0.0012239638 0.0011423749 -0.0011067368 0.0015906413 -0.0010516265 0.0015642348 0.0010797963 -0.000872638 -0.0005356039 -0.0011484913 -0.00060846325 0.00060141337 -0.0016489197 -0.0009918578 -0.0011347088 -0.00034830498 -0.0012430308 0.0006364288 0.0004756791 -0.00022064317 -0.00057553966 0.001210762 0.00046254747 -0.00034339758 0.0014812481 0.00075463037 -0.0007860684 -0.00023448622 -0.0016362799 0.000990816 -0.00083786045 0.00021027557 0.0012369232 -0.0010283985 -0.00025301863 0.00021669766 0.0003679333 -0.0010136479 0.0006367173 0.00092743913 0.00033162054 0.0008106437 -0.001338356 0.00015041203 -0.00012281093 0.0009833744 0.0010014366 0.0006483714 -2.3931687e-05 0.001457557 -0.0009280632 -0.0012376569 0.000697497 -0.0011618133 -0.000941769 0.0011860505 -0.0011728071 0.00036458927 0.0005458369 0.0007838853 0.001083435 0.00091702834 0.00018552117 -0.0014959009 0.00074727123 -0.0014030666 -0.0015537268 -0.0012193689 2.5900941e-05 -0.00072432024 0.0003618776 -0.0013451299 0.0016080304 0.00015475664 -0.00050876295 -0.00053587055 -0.001059666 -0.0011175339 0.0010421759 -0.00014107866 -0.0007988022 -0.001144846 -0.0015555456 -1.7895207e-05 -0.0009245546 0.0009950467 0.00046452763 0.0007453772 -0.00043177744 -0.0010969992 -0.0010339947 0.0015970587 -0.00081323873 -0.00076161535 -0.0014901942 -1.7179653e-05 0.0013380861 0.0005336021 0.0012814282 0.00093818066 -0.0016120509 -0.00092400576 0.00017405071 0.00042446124 0.0011437498 -0.00083969784 0.0013070804 0.00053383544 -0.0012798926 -0.0013918364 0.0012596003 -0.00027936243 -0.001596251 0.0013230069 -0.0010457122 -0.0009669432 -0.0014470636 -0.00041532842 -0.0013734625 -0.0010585933 0.0012110181 0.0010975396 -0.00084400066 0.00027184008 0.00080559705 -0.00055594934 0.00072522357 0.00012261237 -0.0014298202 0.0014376765 -0.0014542317 -0.00032267894 0.0009270784 0.00043733386 0.0012099987 -0.0011263188 -0.0016585726 0.0013663816 0.0005247513 -0.0012070031 0.00055007415 -0.0012037299 0.0010660444 7.9729925e-06 0.00045810186 -0.00021854466 0.0012463593 -0.00042126814 -0.0010381716 -0.00059711904 0.0008377405 0.0009401416 0.0014594556 -0.00019291989 0.00088333816 -7.9609614e-05 -0.0003600336 -0.0016174605 -0.001202422 -0.0008836665 -0.0010885714 0.00033614424 -0.00020433239 0.00094489235 -0.0008203638 -0.00026303338 -0.0012830031 -0.001586886 0.00012870666 -0.0010937344 -3.180235e-05 0.00057820894 -0.0006165273 0.0010770884 0.0008793556 -0.0009032012 0.00041863945 -0.0011684124 0.0016277563 -0.0014392233 0.0008546937 -0.0010900495 -0.00067412184 -0.00040768218 
said 0.0011082214 0.00013866638 0.0013756648 -0.0012137444 -0.00062148523 0.0010743288 0.00015831355 -0.0012625295 0.0013714659 2.7823933e-05 -0.0014625546 0.00042108947 0.00051470625 -0.0015227305 -0.0010703973 0.0008573298 0.00025763948 0.00014603905 0.0015196236 0.0008311763 -7.372191e-05 -0.0008162592 -0.0009982403 -0.00095902325 -0.0014025653 0.00022636553 -0.00091751805 -0.0008056443 0.0010444814 0.00040873187 0.00085178396 0.0013688691 -0.00092123763 0.0012070014 -0.0009552982 0.0010310451 -0.0009624509 -0.0006518832 0.0015556613 0.00045780535 -0.0004093932 -0.0015226227 -0.00041498773 -0.0007645313 -0.0014302244 0.0005802237 -0.0006137212 0.0015237847 0.0013569265 0.00024245791 -0.00047968107 0.000253302 0.000605908 0.0008823556 -0.0013472921 -0.0015941361 0.0010978712 0.00025462857 0.00018727804 0.00034748754 7.12089e-05 -0.0008712552 -0.0012537751 0.0014896152 -0.001545129 0.0015487601 -0.0010078904 0.0012761963 -0.00036660535 0.0006157478 0.0013755755 0.00037192562 0.0013989526 -0.0009915835 0.0012917732 -0.0010379766 -0.00069703173 0.0013228197 0.00023388579 9.323296e-05 0.00018589007 -0.00046927424 -0.00023640238 -0.0014793212 0.0014556022 0.0011079609 -0.001104055 0.0015609347 0.0016139498 0.0012822436 0.00046019413 -7.417608e-05 0.0014462536 -0.0008023077 0.0014400668 -0.0010622515 0.0014855608 -0.0012369032 0.00038013924 -0.0003692624 -0.0016169362 0.0005798818 -0.00052109716 -0.0005437396 0.0005856029 -0.0006057224 -0.0012583811 0.00042250098 0.0004784134 0.0011638912 -0.000901514 0.000186858 0.00063821743 0.0009888449 -0.0011960899 -6.2845604e-05 -0.0003002895 0.00013179732 -0.001510547 -0.001513095 0.0003029633 -0.0005963072 -0.0013017154 -0.0013981352 -9.60097e-05 0.00043175337 -0.0012080412 0.00022038263 0.00015868967 0.0009542643 -0.000722361 -0.0016513666 0.0006453498 -0.0011610079 0.0010251611 -0.0003310647 0.00036380676 -0.0008900008 0.0007474402 -0.00057957676 -0.0012200556 0.0007733109 -0.00013992938 -0.00034668672 0.0008316589 3.2316522e-05 -0.00061024586 -0.0010406973 -0.0013494164 0.0014087458 0.0014838345 -0.0016592643 0.00095408835 0.00071681093 -0.000500621 -0.0011649422 -0.0010834784 -0.00054823566 0.0002699933 -0.00024348166 -0.0005983505 -0.00020141316 0.00079796446 -0.0005438315 -0.00060509983 -0.0009536196 0.001664491 -0.0015370455 -0.00073795073 0.00081172225 -0.0012044543 0.00076132186 0.0008429707 -0.0015937709 0.0005372453 -0.00056177465 -0.0008004545 -0.0007376047 -0.0010881814 -0.0014933991 0.0015623822 -0.00062247814 0.00014035146 0.0015750242 0.0010307921 6.172674e-05 -0.0014196079 0.0010200775 -0.0002776551 -0.0010508443 0.0008659255 -0.00072507915 0.00030418305 -8.135155e-05 -0.0013605393 0.00035149642 -0.0011276004 0.00018796386 -0.00063654967 0.0014788389 0.0008280785 -3.2017979e-06 -0.00096402544 0.0004125622 -0.0005283087 0.000103029044 0.0013533027 0.00058844406 -0.000995767 -0.0007090622 0.0007691604 -0.0014831959 0.0014151387 -0.0007745562 -0.0014206831 -0.0002945937 -0.0016209757 0.0008466828 0.00090422505 0.00050660805 -0.0014991881 0.0014948404 0.0009386357 0.0011651169 0.00059660745 0.00010125528 0.00093646906 -0.0004055197 -0.0005099116 -0.0004362514 0.001170277 -0.0010831966 -0.0013899837 0.0012028638 -0.001300559 -0.0006356198 8.23191e-05 -0.0014462519 -0.0015213123 0.0013285127 -0.000809887 0.00015994244 0.0005992665 -0.001261207 0.0012855661 -0.00033659374 0.00021447179 0.0014388076 0.0010114305 0.0014142613 0.00032165908 -0.0016413338 0.00070784666 6.970632e-05 -0.0007925691 0.00077856285 -0.00024244213 -0.0007903677 -0.0013086449 -0.0009577877 -0.000928036 0.0006547418 5.748835e-05 -0.00021501696 -0.00019483101 0.00012033839 0.0015413867 -7.666481e-05 0.0008204433 0.0010968182 0.00038634872 -0.00076844345 0.0005588983 0.0011816918 0.0006034287 -0.0011742619 -0.00041033805 0.0016086834 0.0011319804 0.0016020815 -0.001481618 0.00082812697 0.0004613561 0.00067908596 0.0006174896 0.00060597464 0.0014307441 -0.0012580949 -0.00013494922 0.0010147894 -0.00088261836 -0.0012895996 -0.0011261004 -0.0016560842 0.00012381999 0.0012642412 0.0014411425 -0.00024054605 0.0009602143 0.00023738822 
take 0.00013112121 0.001577501 -0.0014737762 -0.0012063845 0.001468766 0.0015410265 -0.00057831453 0.0011009809 -0.0013642708 0.00039174923 0.0015771738 -0.0013221035 0.0016290348 0.00017568344 -0.00023299985 0.000918044 -0.0010728564 -0.001033903 -0.0015808747 0.0009771709 -0.00023920974 0.00061250036 0.00013369866 -0.0016363176 0.0005961578 0.0015639928 -0.0013880106 0.0015784553 -0.0006838572 -0.0014841582 0.0015887606 0.0010317366 -0.00017016128 -0.0008351727 -0.00050133915 -0.0005836784 -0.0014422402 0.00018882436 0.0013256733 0.00050419825 0.00073128403 -0.0015660577 -0.0016616052 0.000285486 0.0009926646 -0.0005253216 -0.0006673921 -0.0007714543 -0.0015138943 1.1537654e-05 0.0006887164 -0.0011791453 6.5486405e-05 -0.0011204128 0.00033626548 -0.0016535987 -0.00072327245 -0.0013408164 -0.00043622265 -0.0008315142 0.00011624626 0.00019827852 -0.0007318532 0.00011896761 -0.00018745258 -0.0016790528 -0.00080775947 -0.00066979724 -0.0008877557 -0.00052305276 0.0004443659 -0.0010751201 -0.001164167 0.001441169 -0.0005722054 -6.2631356e-05 0.00047494186 0.0013096292 0.0016321437 0.00048824988 0.0013076031 0.0010681552 0.00016258875 0.0006491978 -1.7251288e-05 0.0005501218 4.2711283e-05 0.00067171804 0.00020241612 0.001385524 -0.0014925516 0.0013587972 1.4771609e-05 0.00092239596 0.000576999 -0.00084090675 -0.0017064828 -5.5672295e-05 0.0013945921 -0.00013137597 0.0017975027 -0.00027860404 0.001227438 0.00033783985 -0.0002024775 0.0013108839 -0.00015510776 -0.0005952884 -0.000596672 -0.00019474246 0.0015723207 0.0005243107 0.0011672822 -0.0006916241 0.00019723171 0.00046424835 0.0007569963 0.0014797411 -0.00041136346 -0.00013026672 0.00019882969 -0.0008440611 -0.0015185279 0.0010673112 -0.0011431933 -0.0012469359 -0.0011281082 0.0010682892 -0.00011164278 0.00015303666 -0.0015990624 -0.0011084542 0.0010414536 0.0013480063 0.00096037524 -0.00042276183 0.00061419135 -0.0007427723 0.0013522414 0.00096930366 -0.00024487154 -0.0014622142 0.00067568576 -0.0010472087 -0.0005237761 0.0010664039 -0.0014020057 -0.0014873235 0.00043972582 -0.0011444341 -4.368467e-05 -8.677235e-05 0.0011002346 -0.00025269476 -0.00018561384 -0.0016133394 -0.0006458277 0.0013835968 0.00089497387 0.0005504477 -0.0014097261 0.0009242831 -0.0012881927 0.0012385891 -0.0003169879 -0.0010182653 0.0012594701 0.0002881699 -0.0006611241 -0.000986584 -0.00021305267 0.00048816847 -0.0012661188 -0.00096667954 0.00062935543 -0.0011247232 -0.0008889595 0.0010238714 -0.0012520464 -0.0004891263 -6.1213475e-05 -0.00044340658 -0.00026123025 0.00022201029 0.001169157 0.0013003177 0.00028599083 0.00097320264 -0.0017336565 0.0010444596 -0.0015078286 -0.0012659765 0.0015713832 0.00041695675 0.0010502442 0.0003099232 0.0009557852 -0.0009255899 -0.0011767958 -0.0012730028 -0.00027762062 0.00093005394 0.00029861237 -0.00029953348 -0.0012825187 0.0016819723 -0.001232826 -0.00017751956 -0.0011215282 0.0015814664 0.00044991804 -0.0016510823 -0.0001377039 0.00016254434 -3.3431525e-06 -0.00067242276 -0.0011487685 -0.00047066508 0.0011221034 0.000445211 0.0011004047 5.7780717e-06 0.00077043794 4.5669323e-05 0.00037763716 -6.3708076e-06 -0.0007666868 -0.0013285994 0.0013732432 0.00011568993 0.0015751831 -0.0009715501 -0.0012835672 0.0005858129 0.00098445 8.388145e-05 0.0013442441 -0.0016218151 -0.00053152407 9.045591e-05 -0.0014555556 0.00013478199 9.093388e-06 0.0004069742 -0.0015143326 -0.00028861477 0.0015495028 -0.00084217667 0.0016246487 -0.00021590083 -0.0013988658 -0.00023310132 0.0009432787 0.0004778039 -0.0010249414 0.0005685882 -0.0014842094 -0.0007748245 0.0013965803 -0.00076333055 -0.000749154 0.0010308498 0.00015819215 0.0012527208 -0.00058059813 0.00018128994 -0.00027612396 0.00083342387 -0.0012214506 -0.0006924276 -0.0012294734 0.0013270287 -0.0009805897 -0.00047687147 -0.0012911013 0.0010356253 -0.0011779738 -0.00016112383 -9.618093e-06 0.0016826761 -0.0013506154 9.995926e-06 0.00075291086 0.001063453 -0.00068432355 -0.000805126 -0.0013461255 0.0006030124 0.0006117924 0.0013327396 0.00016799668 0.0014481569 0.0010530375 0.0011112848 0.0006474474 0.00095887977 0.0013157098 0.0013523608 -0.00047850364 -0.0013493001 
in 0.0014746102 0.00017800309 0.0007464877 0.001577089 -0.00019478472 0.0012089298 -0.0009981138 -0.0009769306 -0.0015945114 -0.0008905246 0.0002393057 -0.0011239598 -0.0007274637 0.0008803328 0.0009470106 -3.2408563e-05 -0.00087920774 -0.00051052927 0.001535162 -0.001053971 0.0013347623 0.0016440358 0.0014379274 -0.00085158047 0.0010698102 0.0012353117 0.0017138871 -0.0015380649 -0.0010848328 0.0007407238 0.00017609893 -0.00020102906 -0.0015592399 -0.0007073907 0.00054616533 -0.0010265141 -0.0011185475 -0.00047964597 -0.0002003464 -0.0006329719 -0.0016061391 -0.0013351644 0.00084178714 -0.0001249683 -0.00040404388 -0.0010760352 0.000311419 -3.2975753e-05 -0.0010982355 -0.0011825517 -0.00011123588 0.0015798726 -0.0003211484 -0.0006681686 -0.0011761334 0.0010836369 -0.0014355673 -0.0015736585 -0.00071181025 -0.00065622677 0.0013971331 0.0017053516 -0.0009873601 -0.0015797555 0.0012420866 0.0014224292 -0.0010794109 0.0009101723 0.00049109396 0.00012587104 -0.0017142227 0.0004028512 -0.0014838035 0.0002062058 -0.0014619086 -0.0007361381 -0.0006335728 0.001577388 0.0008911207 0.00066341413 -0.000931588 -0.0016502499 0.0016896875 0.0014747931 -0.0007279871 0.00072320714 0.0014582055 0.0016831468 -0.00086249446 -0.0011535097 -0.0004996666 -0.00025850293 0.001301581 -0.00022393891 -0.0013332585 -0.00061327586 -0.00028559225 -0.00067930913 -4.9885042e-05 0.0007041814 0.0009391031 -0.0006572122 -0.000121291596 0.0010901697 0.0015720489 -0.0016036126 0.00087720924 0.00049698085 -0.0016884397 0.00034089386 -0.00037597024 -0.0012000841 0.00032763337 0.00010655052 -0.0015448956 0.0011897975 0.0003839393 0.001562861 0.00013523328 0.00019174253 0.0006107853 0.00082256173 -0.0008061066 0.0015016983 0.0012896552 0.0006507946 -0.0017257701 -0.0013780419 -0.0015903552 0.0009705387 -0.00094239664 0.000109970446 0.0016508698 2.597757e-05 0.00042125845 0.0008347923 0.0010418916 -0.00079854776 -0.00018137705 -0.0015839703 -0.001259834 -0.00043355228 0.0005128543 0.00091544626 -0.0006281253 -0.00014933734 0.00053246657 -0.0009548374 -3.869641e-05 0.0007016436 0.00032879322 -0.0003779754 -0.0005862901 0.0013668115 -9.20976e-05 -0.0002384989 -0.00027296538 0.0015805447 0.000706253 -0.00041966763 -0.0006487999 0.0014352403 0.00043521202 0.00062561553 0.0006224241 -0.00069214404 0.0007079395 -0.0003162019 -0.0002900896 -0.00089323014 0.0013343259 -0.0007463972 -0.0015569637 5.9335354e-05 -0.00034185397 -0.00045786644 -0.0011695434 0.0010710094 -0.001574882 0.0008326986 -0.0007044133 0.0009996267 0.0002072778 -0.0012156409 -0.0012181787 0.001109403 0.00046896504 -0.0003048754 1.648105e-05 0.0010000641 0.000455837 -0.0001403726 -0.00053588086 0.00064332207 -0.00010947094 -0.00057202147 0.0011801292 0.0007549007 -0.00020019755 -0.0007381545 -0.0005531973 0.0009139093 9.0983986e-07 0.0009834619 7.039608e-05 0.0015120594 -0.0011866853 -0.0015152731 -9.903376e-05 0.00018546838 0.0015168706 -0.0005932418 -0.0012500738 -5.9469792e-05 -0.0012355512 -0.0009231893 -0.00043742778 -0.0015891767 -0.001381423 0.00030693115 0.001040694 -0.0012903684 -0.0009713552 0.00056135055 0.0014921282 0.0016646656 0.0004232278 -0.0012132782 0.0009494981 -6.8364585e-05 0.0016737845 0.001442844 0.00054908154 0.00072963565 -0.00049743097 0.00045179596 -0.0010509406 0.0007118889 0.0010756057 -0.0013705003 -0.0006638624 0.0016867176 0.000107331405 -0.0016141171 -0.00030791882 0.0013455863 0.0002998452 0.00044110997 0.00013828228 -0.0009900662 0.0012789108 -0.0009512346 0.0013868433 0.00085837976 0.00071939745 -0.0007849769 -6.2274245e-05 9.036084e-05 -0.0007899806 0.0005986759 -0.00013174431 0.0002845069 -0.0014251827 0.0011820284 0.0012324316 0.00036999563 -0.0015914264 -0.0010236586 -0.0007391146 -4.6888166e-05 0.0004830542 5.1907504e-05 -0.0016719764 -0.0005114263 0.0011729015 0.0016522224 -0.0009799771 -0.0011029367 0.0015100366 -0.0008253071 0.0012759633 9.698034e-05 -0.00046059408 -0.0007224878 -0.00050223223 0.0011533358 0.0013516656 0.0016130914 -0.0003709969 -0.00067126355 0.0011348383 0.0007030064 -0.001280613 0.0011036496 0.00028284927 -0.00024890067 0.00017991367 0.0016547148 0.0011638132 4.1466195e-05 
at -0.0003955134 -0.00014916125 0.00053964363 -0.001260468 0.0010127068 -0.0014436671 -0.0006609028 0.0003350675 -0.0010120911 0.00030876792 0.0003170486 0.000299376 -0.0002470969 -0.0015575915 -0.0010994182 -0.0015071374 0.0009058577 -0.00014358635 -0.0009353214 0.00060526683 0.0016214476 0.0012436911 -0.00141851 8.6036416e-05 0.0003061419 7.767028e-05 0.0015990748 0.00032598703 0.0008131841 0.00025785004 0.0016686221 0.00062515005 -0.00046017984 -2.2752876e-05 -0.0007772207 0.0013816325 -0.0015229208 -0.00069620536 0.00035974695 -0.00078451366 -0.0015481448 -0.0014301052 0.0013381125 -0.0006409844 2.897921e-05 -0.00013799097 0.0014037016 0.0009590699 -0.0014103147 -0.001572507 -0.00048359777 0.0013141481 -0.0014306732 -0.001252924 -0.00057669193 -0.000822993 -0.00042464878 -0.00025355764 0.0007959693 0.0012201514 -0.0011068793 0.0012390133 0.0013533981 0.0013234792 -0.0010595049 0.00022496955 -9.3601615e-05 0.0012542546 0.0009995155 -0.0015295667 -0.0015357399 0.0016045099 2.8172148e-05 0.00080418447 -0.0016030838 0.001620847 -0.00015111151 -0.0005512278 -0.0003328761 0.00025710627 -0.00054173724 0.00017736886 -0.00073072925 -0.0013722965 -0.00068622007 -0.0012394364 0.0012246198 4.070597e-05 -3.7191385e-05 -0.0011370679 -0.00042763332 -0.00015722025 0.0017121735 -0.0011345327 -0.0008734718 0.0009385019 -0.0013820155 -0.00021686165 0.00029495577 0.0010020719 -0.00067555305 -0.0002696304 0.0012239899 -0.0005166088 -0.00010436986 0.00072550843 -0.0015217897 -0.0010793398 -0.0012170592 0.0010109417 -0.0012167962 0.0016839368 -0.0012053917 -0.00012071691 -2.5678626e-05 -0.00080485304 -0.0013555004 0.0001279985 0.00055289996 0.0016429657 -0.0012211101 -0.001541759 -0.00074345025 0.0011388992 0.00034684065 -0.0008859303 -0.0011302468 -0.00057207077 0.00085304654 -0.0010782207 0.0012166209 7.133188e-05 0.00081697816 0.00071930373 -7.0988004e-05 -0.0003108567 -0.0015607703 6.120118e-05 -0.0011787121 0.0006759106 -0.00028038354 0.001690602 0.0007575028 0.00050363166 -0.00020479158 0.0011980016 -0.0005299486 0.00050962454 -0.0009564434 0.001416852 0.00041480255 -0.0005858845 -0.001544463 0.0003648284 -0.0012350689 0.0011692276 -0.0009673329 -0.000108035216 -0.0007993087 0.0016152624 -0.0015941558 -0.00047509014 0.00039521442 0.0006127796 -3.315497e-05 -0.0011459731 0.00064891245 -0.0014876669 -0.0003481649 -0.0010248282 -0.00096515013 -0.00033615233 -0.00056041236 -0.0005595738 0.0010169368 0.0011125428 -0.0015444533 -0.0016327368 -0.001683916 -0.0014577114 -0.0013727773 0.0015423053 9.98569e-06 0.00057243573 0.0004035203 0.0009271109 -0.0003253095 0.00041875674 -0.0016923504 0.0009681237 0.0013364641 0.00090168644 -0.00066726 0.0005697171 -0.000310451 -0.001150215 -0.0016430932 -0.0003663015 0.0008938426 0.0008449059 -0.00077581336 -0.001063119 0.0013376976 0.00142228 -0.00047633905 -0.0005872879 -0.0011400215 -0.0008846906 0.0012318569 -0.00021183564 0.0014782619 -0.0014010035 -0.0008083585 -0.00040989145 0.00017831635 -0.000275222 0.0015179134 -0.0007874238 -0.0003027588 -0.0012794738 4.5841716e-05 0.0015943607 -0.0013386197 -0.0008264652 -0.0011357528 -0.00021991247 -0.00090896606 -0.00096087257 -0.0003079653 0.00019012584 0.0004575146 -0.000118850825 -8.658237e-05 0.0007177294 -0.00050994003 0.00065568875 -4.062637e-05 -0.0016679615 0.0012818455 0.0014533714 -0.00028486035 -0.0010957952 -0.00067340955 -0.0009385874 0.0013062003 0.0014731012 0.0009496673 0.0012703718 -0.0013067527 -8.559914e-05 -0.0004302081 0.0015830267 -0.00045288974 3.4822235e-05 -0.00033695844 -0.00053837517 -0.0013209184 -6.6470075e-06 -0.001220006 0.0006520111 -0.0006029033 -0.00011157982 -0.00052785384 0.00032594678 0.00093948236 -0.0012283408 -0.00020185238 -0.0013107467 0.0013391853 -0.00083548157 0.0009826847 0.0014683307 -0.0014621171 -0.0006581211 -0.0013817906 0.0011722342 -0.0012530993 8.3781015e-05 -0.0012790174 -8.23057e-05 -0.00130947 0.0013984838 -0.00068018684 -0.0011581044 0.00036681397 -0.0010466703 -8.949696e-05 0.00045514293 -0.001659693 -0.0012256653 0.0005757387 0.00016696595 0.00058444333 -0.0010282965 -5.36571e-05 -0.0011615243 0.00014271836 0.0012861432 -0.0014319938 -0.0010845853 
partial -0.0013370524 0.0010076471 0.0010083935 -0.0011469749 0.00042371027 -0.00019415974 -0.00032321116 -0.0011371229 0.0011987902 -0.00072980474 0.001651214 0.0010662456 -0.00019547017 -0.0006042061 -0.0009873946 -0.00017016793 -0.00014199589 -0.00061648356 0.0014309534 -5.2903768e-05 0.00086265244 0.00032653732 -0.0008274182 0.00068318 -0.00024317112 0.0006725051 0.0016110472 0.0009133716 0.0014079051 3.577201e-05 0.00018966415 0.0006408642 -0.0016266018 0.00023441383 -0.0015460517 1.0758692e-05 -3.7578848e-05 0.001032908 0.00014112612 -0.00020339791 -0.0010697324 -0.0014620497 -1.2003594e-05 -0.00045873516 -0.0006645929 -0.0011328681 -0.00075997214 -0.0014147887 -0.0013000171 -0.0015224924 0.000994474 -0.00095777755 6.2178326e-05 -0.0008892367 -0.0015327262 -0.00018861172 0.00044669985 0.0008389445 0.0014919485 0.0008458184 -0.0015092654 0.0012331336 0.0014713292 0.0012659405 -0.00020040036 0.0010322583 1.4641589e-05 0.00019848016 0.000808954 -0.001372671 -0.00010071784 -0.0011745341 -0.0014698791 -0.0015827406 0.0010184452 -0.0014458055 0.001311801 0.00085014466 0.0005216985 -0.0016643702 -0.0011747846 5.3262178e-05 -0.0001526946 0.0013122576 0.00021675946 -0.0002966778 -0.00022157468 0.0007532439 0.0010394985 -0.001508409 0.00149276 0.00073005457 0.0010693923 0.0013126306 0.00020429361 0.00045502256 0.0010263829 0.00038308906 -0.0011797078 -0.0013987543 0.00026633297 -0.0003610343 0.0011328682 0.00062659825 0.00090289826 -0.00016517944 -0.0003615066 0.0006391651 0.0007764466 -0.0012863145 -0.0005906622 0.0014264062 0.0005726514 0.0016627184 -0.00034751132 -0.0014722219 -0.0006210242 -0.00061732205 -0.0011799707 0.00015302461 0.00059472164 -0.0007888723 0.0013966957 -0.0014331519 0.0009590814 0.00095484214 0.00094971707 -0.0013139693 0.0014142192 -0.00016833897 -0.00063249335 -9.2266084e-05 0.0017071647 9.0664646e-05 -0.00063856784 -0.0004046332 -0.0007767317 0.0015535008 -0.00085827714 0.0007019181 0.0003680244 0.0013551897 0.00018758804 0.0004215337 -0.0013529364 -0.0006758766 -0.0010352718 -0.0013931006 -0.0017138809 -0.0007704369 0.00027176598 0.0010596905 0.001537575 -0.00048257783 0.0012367774 -0.0010972394 -0.00013997694 -0.0015799718 -0.00087278284 -0.0011350347 0.0003150495 0.00018847418 -0.0008533542 0.00029251492 0.0015442945 -0.0014331851 -0.00025844623 -0.0008021394 0.0012399259 0.00045390986 0.00046110488 -0.0008913263 -5.297204e-05 -0.00012456419 -0.00062473235 0.0014122381 0.0005269008 0.0013089854 0.00067420345 -0.0010185166 -0.001057627 -0.0005950025 -0.00034263142 -0.0015888601 0.0007461802 -0.00019391754 0.0006005939 9.501672e-05 -0.0011372826 0.0004435265 0.0006754155 -0.00090222567 -0.00094099896 0.0015211545 0.0010019921 0.00094880286 3.5804525e-05 0.00089366053 -0.0016543039 -0.00044735172 -0.00056081207 0.0012826083 2.1781254e-05 -0.00032303008 -0.0006219252 0.0009073685 -0.0012513666 -0.00010278587 0.00040667108 -9.5590396e-05 -0.00059815485 0.00049283594 0.00030522016 0.0002564293 0.0012739769 0.00044388897 -0.0017033067 0.00058973156 -0.000106407606 0.0005311136 -0.00065043505 0.00013952829 0.0006485971 0.0012079971 -0.0014228204 0.0016379196 0.00083101186 0.0014911907 -0.001377468 0.00026382654 0.0010034726 -0.00054992177 -0.0016892869 0.0012403791 0.0010629884 0.0008378172 0.0006145418 0.0013498339 -0.00024200916 0.00029921316 0.0002393502 -0.0014257565 0.00022549594 0.0011446434 -0.00011957849 0.00043428855 -4.336341e-06 0.00037063262 0.001368585 0.00075067265 -0.00040502616 -0.00075714715 -0.0014816879 -0.0003869928 -0.00035007787 -0.0005876556 -0.00070077105 -0.00058734557 -7.184164e-05 0.0009065759 0.0010794256 -0.00024612335 0.00035424854 -0.00010768976 0.00013139227 0.0016148392 0.0013772051 -0.0016614145 0.0010232656 -0.00049733766 -0.0015158858 -0.00012567565 0.0003684651 -0.0011729631 -0.0010420454 -0.0012339591 -0.0016023668 -0.0013064224 -0.0014841977 -0.0015035161 -0.00072184013 -0.0014971094 -0.0006870193 -9.5755895e-05 -0.00020983217 0.00048334312 0.0010531154 -0.0006304426 0.0009873991 0.000112183014 -0.0008625985 -0.00031965558 0.0014666672 -0.0005222278 -0.0005331224 -0.0011096634 -0.00028735615 0.0007445201 0.0008141862 0.0016446307 
grey 0.0009999382 -0.00013484876 -0.00071465503 0.0010183671 0.0011545521 0.0007529792 -0.0011934239 -0.0011415153 0.00094923505 0.001501705 -0.00021425627 -0.00089957955 0.0009581619 0.0012531931 -0.0003073841 -0.0003232309 0.00014695582 -0.0015946577 -0.0010907374 -0.00016871555 -0.0013639485 -0.0004820199 -0.0011543819 -0.0012189718 0.0016350131 -0.00013381282 0.00079819094 -7.0332106e-05 0.00149079 0.00011345044 -0.0008433488 -7.167453e-05 0.00026209274 0.001193912 0.0010014705 0.0015210217 0.0011976176 0.0006377166 0.0009830223 -0.00026507518 0.0015126031 -0.00038151626 -0.00050819345 2.679446e-06 0.0009627586 -0.00051680935 0.0016437788 -0.0015519967 0.0015678203 -0.0012624841 -0.0013774806 0.00034936666 0.0007212546 -0.0010831846 -6.763695e-05 0.00019322381 -0.0015465111 -0.0010896996 -0.0005580811 0.0009647442 0.00012304286 -0.0006786208 0.0013510984 0.000108340384 0.0005646276 -0.0013719746 0.00067706953 -6.7194815e-05 0.00023440372 0.00032183668 -0.0005898356 -0.00088428473 -8.4783525e-05 -0.0006926934 -0.00033604854 0.0010915755 0.0005348662 -0.000602721 -0.0011977747 -0.0011763533 0.00073722744 0.00014076936 0.0010754131 -0.0006116585 -0.0002495256 0.00044195232 0.0007575067 -3.600213e-05 -0.0005954307 -0.00036033386 0.0011618311 0.000379258 0.0006425567 0.00036745105 0.00022266209 0.00027371093 0.0015568782 -0.00035400843 0.00018215306 0.00025155747 -0.0005436098 -0.0014405665 -0.00015825241 0.0005495191 -0.0009806795 -0.0015210594 0.0012251708 -0.00074719416 0.00119619 0.00057236926 -0.0006183267 -0.00027317705 0.001561967 -0.0004180086 0.0016223714 -0.0013045673 0.0006759083 0.0005323436 -0.001611892 0.0010089157 3.6165664e-05 -0.0015504105 0.0005480472 -0.0015190664 0.0014543388 -0.0016454691 -0.0013539502 0.0016388155 -6.7868656e-05 -0.00052714883 -0.0007074759 -0.0015562666 0.0013021036 0.0011792112 -0.00076659594 -0.00021766708 -0.00047289595 -0.00028003985 -0.0002054946 -0.0003889155 -0.0015738049 0.000371182 0.0016479699 0.0010142113 0.00072942575 0.0013080295 -0.00039125714 -0.0008119339 -0.00052562065 0.0010495131 -0.00013291027 -0.00014386149 -0.0012024164 0.00064251403 -0.0009196827 0.0015771956 -0.001009319 -0.0003340965 0.00071232487 -0.0011204861 -0.0013161631 0.0005071287 0.0002916716 0.00016456487 -0.00083934463 -0.0010311955 -0.00034958852 -0.0008625375 -0.0014541108 0.0005454758 0.00035540422 0.00010915586 -0.0010943576 0.0016543539 0.0016123069 0.0010849677 -7.699483e-05 0.0014659987 0.001308496 0.00028040368 0.0003113772 -0.00084538595 0.00131279 0.0010141996 0.0004449692 0.0005366245 -0.0012874616 6.143799e-05 -0.0006973803 0.00015352211 -0.0015365717 0.0006337424 0.0014050251 -0.001250535 -0.0002255229 0.0013417696 0.00027656433 -1.3035724e-05 0.0016201389 0.0003409292 8.603253e-05 0.0014023005 0.000653004 -1.0980462e-05 0.00035829117 -0.0016100974 -0.00065332593 0.0012154275 9.447041e-05 -5.2895404e-05 0.0011805735 -0.0009481401 0.0009788822 -0.0016419414 0.00013699783 0.0014637619 0.00067536643 0.0010373134 0.000103515355 -0.00011646701 0.0013768384 -0.0008876489 0.00036284485 0.00092479296 0.0014236488 -0.00042655418 -0.0013704143 -0.0012721054 -0.0014325466 -0.00028319727 -0.0013176126 -0.001247112 0.00014297574 0.0009954148 -0.0006264253 0.0008546897 -1.8364572e-05 0.0009828613 -0.0009628406 0.000663363 0.0011506564 -0.00055268925 -0.0007970272 -5.740188e-05 -0.00011049696 0.00044062524 0.00070580957 0.0015908033 0.0014380898 0.00078146503 -0.0008062205 -0.00061909086 0.0015552714 0.0015894645 -0.00038217925 0.0015961862 -0.0009339193 0.0004292986 0.0011742457 -0.00163232 -0.001098065 -0.0014773215 0.0005156366 -2.6656815e-05 -0.0015060803 0.0003459769 0.00032597725 -0.0012116256 1.97657e-05 -2.5935224e-05 0.00076794403 -0.0012110975 -0.0009207434 0.0008401343 0.0011737316 0.00092669146 -0.0008358563 -0.0012206978 -0.0014807767 0.0011443595 0.0010518697 -0.0010618725 -0.0014611596 -0.00010956482 -0.0015875543 -0.001487999 0.0012928131 0.0012107072 -3.569926e-05 0.0014082267 -0.00066100404 -0.0007615678 0.0004071421 -0.0014435166 9.494051e-05 -0.00032036353 -0.001028964 -0.001343578 0.00020759697 -0.0005006462 
