105 300
example_bn:00032100n 0.0004465021 0.00013512437 2.8098137e-05 0.0008592915 -0.001403997 -0.000918385 -0.00051404384 -0.00052531675 -0.0017215419 0.0001611528 0.0007272763 -0.0016059848 -0.0014202466 0.0016813306 0.0016824157 0.00088516984 -0.001032549 -0.0010798918 0.0002866937 8.279551e-05 -0.0014095922 -0.00026952598 0.00093292544 0.0008735856 0.0012378858 0.0015602687 -0.0011959969 -0.0007672967 0.0013219984 0.00024196749 0.0013299424 -0.0007400824 -0.00014252568 0.00013911417 -0.00024977062 -0.0010957178 0.0007599725 0.00097123673 -0.0013136355 6.049319e-05 0.0003106497 -0.00093577703 -0.001521639 0.00012497 -0.0012766378 -0.00067984004 0.0006116717 0.0012931919 0.0009879338 0.0015130162 -0.0010047645 -0.0003945963 -0.0009472379 0.000985411 -0.0013819364 0.0006484925 -0.00056874764 -0.00034518592 0.00050810416 -0.001253718 -0.0007235409 -0.00037591794 0.0011149868 0.0015684916 -0.001417328 -0.0006335156 0.00090642483 0.0012428876 0.00090204354 0.0011536723 0.0015264498 -0.0013253092 -0.00062272255 0.0014140743 0.001133412 0.0005566268 -0.0006919695 0.0012051337 -0.0010750471 0.00038165002 0.0014442274 -0.0006314036 -0.001289336 -0.0008861218 -0.00059881085 0.0011751044 0.0012904392 -0.0011693425 0.0013994668 3.6662805e-05 0.00074522523 -0.0010082979 -0.001453861 0.00032705383 -0.00047053074 -0.00041674217 -0.0010826249 0.00085111754 -0.00045916438 -0.001394615 0.00070502004 -0.000658941 0.0011699348 -0.0009322405 -0.00025858672 0.0001921712 -3.0429179e-05 -2.9127339e-05 -0.0013890149 -0.0011447519 0.0014224737 0.0014208364 0.00022628834 -0.00038764512 -0.0002066605 0.0012834196 -0.0009795618 -0.00016422302 -0.0013700973 -0.00031200025 -0.00030625603 0.0012020364 -0.0001291082 0.00084943057 0.00010580664 0.00078190095 0.00022304285 -0.0005839684 -0.0009740385 0.00032238552 -0.0013278329 -0.00011192272 -0.00060140656 0.0015519343 -0.0003363713 0.00078861654 -0.0008906949 -0.00018169054 -0.00021167626 -0.00031023775 0.00011608202 -0.00044670195 0.00057487993 -0.0009347613 0.00048280333 -0.0013821854 -0.0010803168 0.0004220295 8.656671e-05 -0.001254732 -0.0013309338 0.0002499248 0.0015343487 -4.6147958e-05 -0.00097303337 0.0011836693 0.00027109438 0.0017202429 0.0003597872 -0.00038197817 0.0015393257 0.00082005124 -0.00069662323 -0.00056523836 -0.0013144462 0.0010493086 -0.0010878331 0.000951123 -0.00065346924 -0.0012535525 -0.00011472124 -0.0005816772 -0.00036960014 -0.0009421649 0.00080412935 -0.0009883391 0.0014295147 0.00010414149 0.00025851052 -0.0013163567 -0.00036194964 0.0010005854 -0.0011265111 2.484987e-05 0.0015235551 0.0014542177 0.00034498578 0.0014991481 -0.00078528654 0.00024655473 2.5054127e-05 0.0010729191 0.00045243133 -0.00068820687 0.0013706341 -0.0007990461 0.0017260984 -0.0006873002 0.0013126296 -0.0011214734 -0.00032651023 0.00038378377 -0.000926704 0.0008472048 -0.0012159174 0.00037874613 -0.00019394603 0.0006778657 -0.00019197309 0.00040784193 -0.00082552875 -0.00013131984 -0.000255164 0.0013014412 -0.0005050764 -0.0008232035 0.0014097623 7.896547e-06 0.0015258574 0.0005908035 0.00029629824 -0.0014068316 -0.0010878562 0.0015635265 0.00034579536 0.0012596588 0.0011620878 0.00045970178 -0.0005119941 0.0006088784 0.0014338598 -3.5663423e-05 0.000599235 0.0007922476 0.001208289 -0.0008472333 0.00065124413 5.3552256e-05 -0.00077956053 -0.0014046456 0.0016067348 0.0015198656 -0.00041882126 0.0011297395 0.00093307125 -0.0016001367 0.001228789 0.0007252083 -0.0015294864 -0.0006298713 0.00039366493 0.0012274794 -0.00026859064 -0.0013347082 0.0013680534 -0.00030239826 -0.0014490538 0.0003384083 -0.0010971853 0.0007528621 0.0008797256 -0.00024881828 0.000875739 0.0014497325 0.0016388722 0.00014918322 -0.00071481534 -0.0007179169 -0.0015670533 -0.0016690994 -0.00067754823 -0.00032730002 0.0014483128 -0.00059117813 0.0008897151 0.001071251 0.0006128998 2.878701e-05 -0.0001914033 0.00044714316 0.00024268113 0.0007401448 0.00069561426 -0.000792817 0.0009558241 0.0013895056 0.00019831516 -0.0010472463 0.00029673966 0.00077269704 -0.00096306787 -0.00040681084 -0.0016931902 -0.0012060811 -0.00041394136 -0.00033392882 -0.0012773015 -0.00089109706 -0.0016073034 -0.0007614149 
here 9.812101e-05 0.0013071239 0.0003316429 0.0005353891 -0.0005715034 -0.00023285662 0.0003350687 0.0013917671 -0.0002490337 -0.0014073566 0.0015133898 0.0015418171 -0.0012840421 -0.0015931381 0.00097450166 -0.001553432 0.00094937114 0.001657277 -0.00030128105 0.0006833456 0.001393689 0.0014829533 0.0014366958 0.0015330301 0.0012127787 -0.00060625485 0.00036546553 -0.0010891707 -0.0015043757 0.0014977267 -0.0011539643 0.00094341976 -0.000430319 -0.00050513324 0.00023025255 -0.00085657235 -0.00045018963 -0.0012780408 6.594903e-05 0.00017689804 -0.0013560256 -0.0011926265 0.0013339187 -0.00057842414 -0.000115289746 4.138889e-06 0.0007730994 0.0005851735 -0.0010297097 -0.0008904372 0.0005654568 -0.0013124412 -0.00011688326 5.1077135e-05 2.5518275e-05 -0.0013206378 -0.0012201013 -0.000931934 -2.4859437e-05 0.0016653077 0.00034016313 0.0014472635 0.001277517 -0.00066024746 0.0014224104 0.0011956199 0.0012004409 0.0014178259 0.0010638082 -0.0013545414 -0.0003670801 0.0004358552 -0.0008201332 -0.0009794028 -3.937854e-05 -0.0015231755 -0.0010700072 0.0010852384 0.0006885099 -0.0011236641 -0.00079962175 0.0006219741 0.0015944529 0.0014239167 -0.0003309442 -0.0005902861 0.000115650764 0.00060956087 0.0002971805 -0.00084256125 0.0012388144 0.00013003973 -0.00066293514 0.000756709 0.0013608105 0.00090088364 -0.00016252203 0.0015263241 -0.000531034 -0.00021420029 -0.00016590979 -0.0008723127 -9.615746e-07 -0.0014681426 0.0013714357 -0.0006264774 -0.0009888138 0.00036304095 5.9001395e-05 0.0016213461 0.00065881654 0.0013448369 -0.00020348316 0.0012634523 0.0012010832 -0.00039597735 0.0015612702 -0.001145257 0.0014629486 -0.001099781 0.00014769689 0.0010492838 -0.0013003052 0.00043549607 0.0001294599 8.8048124e-05 -0.00072547095 -0.0009368334 -0.0003029947 0.00032092835 -0.00072541984 8.697919e-06 -0.0012382221 -0.0011135095 -0.0015867937 0.00032224428 0.0010300117 0.0014431193 -0.0005055399 -0.0015400066 -0.0007781508 0.0008812356 0.00077663886 -0.0003766151 0.0007787451 0.0002039368 0.0016063497 0.00052687677 -5.3095457e-05 0.0014474618 -6.489304e-05 0.0007871497 0.0011504808 -9.214273e-05 6.2808635e-05 0.0015282365 0.00018493879 0.0011363602 -0.00047749153 -0.0005984364 -0.00011857332 -5.170721e-06 -0.00048067517 -0.0006025764 -0.00023695768 0.0013455808 -0.0007139859 0.0003467501 0.0011011938 -0.00090460817 0.0010769041 -0.0010504563 0.0010277438 -0.0005224329 -0.0009181508 -0.0006284931 0.0003532753 -0.0010937912 0.00012452566 0.00020816925 0.0008167839 0.00092507794 -0.0014957454 0.0006196504 -0.00031157097 0.00013240604 0.0013449398 -0.0001354015 -0.0011735248 -0.0015577859 -0.0015655492 0.00091269886 -0.00016158044 -0.00087431574 0.0015218001 0.0010520023 -0.0007749733 -0.00015805279 0.0010183179 0.0013452065 -0.000555629 0.0011647037 0.0015442383 -0.0012180938 -0.0014127565 -0.0007917917 -0.0016714508 0.0008052007 0.0005001979 0.00049043394 -0.00034335785 -0.0012448556 -9.908797e-05 -0.0015392804 -0.000581319 -0.0007157223 0.0011026507 -0.0015733184 0.0015599334 -0.0005555086 -0.00028845665 -0.00036918107 0.0015012386 -0.0009223464 -0.00015194251 0.0003581796 -0.00038051803 -0.0005473787 -0.00077830796 3.966598e-05 0.00065117737 9.092141e-05 -0.00035154182 0.00072332035 -0.0012683326 0.0008994865 0.00045438134 0.0011587295 -0.0007150205 0.0002038106 0.0009839537 -0.0007515335 0.0011529926 -0.00021609009 0.00019927576 -0.00023425449 0.00026428647 -0.00089007634 -5.068096e-05 -0.00091241504 -0.00019910061 -0.0016065867 -0.0013548863 -0.0016321037 0.00029642682 0.001377737 0.0014468651 0.0009680854 -0.0012876139 0.00038648085 -0.00083103724 0.001544594 0.00048717193 -0.001537043 0.0012140739 -0.0002853957 -0.00014018125 -0.0011687456 -0.0008877227 -5.849551e-05 0.0012547646 0.000824369 -0.00065145077 0.0015784907 -0.0012271904 -5.475869e-05 0.0009010939 0.00067802344 -0.001075695 -0.0010262474 0.00031104923 -0.00045248514 8.6111686e-05 0.00032125213 -0.0015896601 -0.00011420303 -0.00035378197 -0.0015022802 0.0015644418 -0.0013624666 -0.0016541801 0.00077871484 0.00013249037 -0.001350521 -0.0015725096 0.00014236015 0.0015924324 -0.00092371815 -0.0008787297 0.00079611567 
political_bn:00108760a 0.0010733156 0.0014102664 -6.288311e-05 -0.0002978622 0.00097925 -0.0006704097 -0.00094764197 0.00012112999 -0.0008840172 -0.0013466201 -0.0010108235 -0.00051528105 0.00026976952 0.0009969425 -0.000660363 1.2551384e-05 -0.0006232815 -1.2799154e-05 -9.691406e-05 -0.00032926147 8.342644e-05 0.00075258885 0.0013689995 -0.00046195064 -0.0001173951 0.00017769498 0.0013778942 -0.0011550663 0.0006935805 0.0002995964 -0.0016080696 0.0011823262 0.0010868771 0.0011174816 -0.0016061169 0.00092148065 -0.0014584111 -2.8515175e-05 0.00041822784 0.001449673 0.0009880298 0.0012630078 0.00047211783 -0.00094155094 -0.0009804125 0.0007956592 0.0014187843 -0.00014863079 -0.001485299 -0.0010269023 -0.00076780515 0.0012044667 -0.00083437015 -0.00091042207 -0.00019436351 -0.0016657228 0.00022048729 0.0004511647 -0.00038748837 0.0007768268 -0.0003417405 -0.0006408589 0.0010552002 -0.0010165015 -0.0012136813 0.0008181778 0.0010878503 0.0007817511 0.0012569687 0.00024298322 0.0003920641 0.00030643286 -0.0005670426 0.00070372596 -0.00021753985 -3.274238e-05 -0.0015273484 0.001636014 -0.00042994454 0.0013269559 -0.0003231657 -0.00055197015 -0.00046742946 0.0015213371 0.000116116586 -2.6556803e-05 -0.00015069116 0.00018975395 0.00019064476 -0.00079571124 0.00056806864 -0.0008517954 0.0011567675 0.0014156167 -0.00052381796 6.408506e-05 0.00032709562 8.316464e-05 -0.00019535625 -0.00066281605 -0.0010222731 -0.0015641775 0.00023294729 0.0015862011 0.001372617 0.00032925795 1.8112385e-05 0.0016310214 0.0008086608 -7.789066e-05 -0.0004720744 -0.0015240378 0.00096208556 -0.00029176375 -0.00041817263 0.000703191 -0.0007333692 0.0013285405 -0.0014265974 0.00083437545 -0.00033366206 -0.0011341324 -0.00077971106 0.0009429137 -0.0011606772 -0.0002455444 -0.00025318615 -0.00091636204 0.0010500873 -0.0008295914 0.0004788378 -0.0009993556 0.00068822387 -0.00026110443 -0.0011728702 -0.0013088088 3.6792666e-05 0.00033049993 -0.0015222933 0.0013115954 0.00045747706 0.001310665 0.0014015739 -0.0014512452 0.0011363116 3.3711938e-05 0.00026561442 0.0009806679 0.0014124709 -0.0014989228 -0.0015384499 0.0013528505 -0.0012507061 0.0015274782 -0.0005044959 0.00037725424 -0.0011210459 0.00086859433 0.0007384175 -0.00019265346 -0.0010106652 0.0005423843 -0.0011229578 0.0015720276 0.0013304375 0.0016243989 -0.00043651456 0.00045197137 -0.0009531176 0.0014699642 0.0007890928 -3.925059e-06 -0.00014630027 0.0004853747 -0.0009909056 5.7316774e-06 0.00033565177 0.0002869297 0.0008084834 -0.001437917 -0.0015365377 -0.0006978876 -0.001341145 -0.0015283652 0.0005473731 8.663955e-06 -0.00047126878 -0.0012725634 -0.00063885277 0.0007114221 0.0013533881 0.0013613063 -0.0012047936 -0.0010666478 0.00032265912 -0.00047936576 0.0015527884 -0.0014902091 -0.0003197153 0.0016161028 -0.00097289623 -0.0012709458 -0.00016158757 -0.00093773653 -0.0012219534 -0.0009177606 -0.0010659258 0.0014195141 -0.0011544167 0.00060610025 -0.00081817363 0.00015088626 0.00035331916 -0.00012576685 -0.0004311128 -0.001485096 -0.00043113233 0.0011581056 0.001558549 0.00025730202 -0.0008430899 -0.0015644879 0.0015079345 0.0016026403 0.00095129636 0.00035349114 -0.000287049 0.00041951067 -0.0012781395 0.0016189629 -0.0006192327 -0.0001704433 0.00019868888 -0.00021035923 -0.0013723813 -0.0009662492 0.0009488291 -0.0007380255 0.0001657573 0.0009947262 -0.0002832056 0.00058230106 0.0005060871 0.0016324123 -0.0015028231 0.00084249495 0.00031665008 0.00064730167 0.00022975719 -0.0015575937 -6.403092e-05 -0.0010801192 0.0010318428 0.00034826217 -0.0010102089 7.083166e-05 -0.0014272297 -0.0014456075 0.0009843409 -5.2851545e-05 -0.00063673226 0.0012561801 -0.00013244138 -0.0010390452 0.00019139402 0.00062613265 -0.0005848231 0.00043871996 -0.0011255128 0.0014380236 0.0012796161 0.0006418213 0.00046381814 -0.0016113735 0.0008387052 0.0006667185 0.00063217635 0.0001024957 -0.0011910523 -0.0005552309 0.0016457391 -0.0010954688 -0.00092036964 -0.0013332933 8.8969784e-05 -0.001444701 0.0015846972 7.701416e-05 -0.0010667108 0.00057383097 -0.00055142667 0.001123136 -0.0007558061 4.089383e-05 -0.00047638678 0.001572586 0.00042403486 0.0006979212 0.00047787657 -0.0005445414 
we 0.0016272073 -7.854838e-05 9.615779e-05 0.0012820199 0.0006580329 0.00022853033 0.0008924567 -0.00089304714 -5.6667654e-05 -0.00067734474 0.0008280898 -9.584781e-05 -0.00026036683 0.0011059579 -0.0013912518 -0.0015979874 -0.0015352697 0.0012720996 -0.00033459466 0.00044740722 0.00011643378 -0.00038866268 -0.0010959845 0.0007576714 0.00046299328 0.00020237948 0.0012122412 0.0015722157 0.0006483986 0.0011996436 -0.0015846809 0.00054959615 -0.0003764259 0.00027135314 -0.0007146237 0.0005215932 0.0005836774 -0.0008118428 -0.000107910324 0.0013991833 7.734816e-05 -0.0005757669 0.0016650878 0.0009781942 -7.337008e-05 0.0009221189 -0.0014612606 -0.00028922988 9.400212e-05 0.0015795442 -0.00030067304 -0.0012301059 -0.0013546015 0.001008734 -0.00071552343 -0.0011114881 -0.0014497753 -0.0012680994 0.00015033117 -0.0005562803 0.00081292563 0.00075554673 -0.00143423 0.0010306151 0.0009644907 0.0011277893 0.00029942932 -0.000704637 -0.00080349663 0.00030657076 -0.0011287254 0.00057302095 0.001665169 0.0009911149 -0.0001280715 0.0007694049 -0.0012715051 0.0010375172 0.0010319874 -0.0011129763 0.0011092976 -0.0006310461 -0.0010126212 -0.0016473688 8.095056e-05 0.00075349637 -1.8197816e-05 -0.0012765209 -0.00011749039 -0.0015635338 -0.0012598741 0.0013965466 0.001557661 -0.0015895154 -0.0011200265 0.0011791231 0.0009693868 -0.0010642905 -0.0005125096 0.00016490172 -0.0014996809 -0.0014526414 0.00028788066 -0.0002459227 -0.0014815384 -0.0013467405 -0.0005711278 -0.0012631639 -0.0016460752 0.00048477107 -0.0009790681 -0.000907078 -0.0011252911 0.0007903397 0.00011686444 0.0013363133 -0.0011117315 0.00067311927 0.00019242936 0.001386723 0.0013845327 0.0012677656 -0.0008214613 -0.0010462101 0.0011512286 -0.0014085413 -0.00031325 -0.0015554328 0.0007520015 0.0006752588 0.0010152544 -0.00059979106 6.79666e-05 0.0010626024 0.00078978424 0.0010161775 0.0004947699 -0.00067120674 -0.0011254544 -0.00033199685 -0.0005506392 9.215967e-05 0.0007306955 -0.00082476815 -0.00044238908 -0.00035428908 7.355492e-05 7.2520575e-05 0.00039165493 4.1770063e-06 0.00029568173 0.0009789016 0.000718483 -0.001269014 -0.00049464335 0.0012697354 0.0012104065 0.0009415052 -0.001586593 -0.0012784442 -0.00053925434 0.0014512826 0.0011733106 -0.000694083 0.000977453 0.0013514117 -0.00015204423 -0.0010993769 0.00012196033 -0.0013738663 0.0009933612 0.0010339909 0.00023844576 0.0013685903 0.0005410939 -0.0010569873 0.0008276431 0.00022578827 -0.00070183363 -0.0011319318 0.0005196363 -0.0007469861 -0.00019096413 0.0010125028 -0.0013187994 0.0009871935 -0.0014150663 -1.1929808e-06 -0.0013892156 0.0011859875 0.0006904908 0.0015231819 -0.0007137106 -0.0015853547 -0.0004789941 0.0015884233 -0.00080754806 0.0008921792 0.0002714999 -0.00028088086 -0.0005090108 -0.0008989818 -0.00087003317 -0.0014220845 -0.0012069725 -0.00086665724 -0.0010317025 -6.616202e-05 -0.00037685974 -0.0008402242 -0.00014949554 0.00031395123 0.0013253877 -0.0015857583 0.0002679973 0.0007417463 0.001402953 -0.0013020936 0.0011177739 -2.749714e-05 0.001309817 0.0012598432 -0.00032627338 0.00014470343 -8.146281e-05 -0.0009781534 0.00077321415 -0.0013079463 -0.00068938767 -0.0007679094 -7.3636555e-05 5.2068004e-05 9.0111535e-05 0.0013793857 -0.00097472843 0.0014546646 0.001022786 -0.0015600922 0.00033634502 0.0010467626 -0.0012937249 0.00035169048 -0.0008812736 0.0016428012 0.00050074357 -0.0015139779 6.485542e-05 0.0007872764 0.001013006 -0.00027154645 -0.00055779796 0.0006653537 0.00039331458 -0.0013896656 -0.0004770386 0.0010232144 0.00046658912 -0.001027407 -0.0011083769 -0.0013062202 -0.0005341868 -0.00023437425 -0.0011855968 -0.000781834 0.00010018853 -0.0009891811 0.0006795227 0.0016447818 0.0012303633 -0.0012975113 0.0015278192 -0.0003688779 0.00022908511 0.0016058513 -0.001066945 -0.00024372299 0.0014196702 0.00047504727 0.00067229994 -0.000867948 0.0015342977 6.3630294e-05 0.00032955687 -0.0010995285 6.939135e-05 -0.0006979538 -0.0014198032 -0.000992168 -0.0014320568 -0.00035191933 -0.0011021546 -0.0008755069 0.00045965554 0.00055518636 0.0010774261 -0.00017334441 -0.00043017004 -0.0009344365 -0.00024164963 -0.00029414578 
believe 0.0012411118 0.00027231203 -0.0008392792 -0.0012904552 0.00023018921 -0.0015340281 0.0003413615 -0.0006057408 -0.0013533403 0.0010829895 -0.00097260514 -0.0012643492 -0.001226658 0.0013777743 -0.0003002638 -0.00067912106 0.00071531226 0.0008473677 0.0010897386 0.00026932714 0.00051244104 0.0011295298 0.001412538 -0.00037092716 0.0014885765 -0.0006936861 -0.00044671257 -0.000712562 -0.0003738375 0.0005974388 -0.00042006213 0.00012225065 -0.00072888675 -0.0001115165 9.160893e-05 0.00021959512 0.000510321 0.0008502024 -0.00049774756 -0.0013828053 0.0008588218 -0.0011003963 -0.001054134 -0.00084255065 -0.00053221994 -0.0006125595 -0.00047039153 -0.0015725057 0.00011742179 0.00030510174 0.0013724045 -0.00054315355 0.0007148947 -0.00031820458 0.00054114213 -0.0009276005 -0.0015250401 0.0014435222 0.00096704595 0.0010375307 0.00046614668 -0.0015833473 0.00097452267 -0.0014849751 0.00030691433 0.0003573128 -0.00065498723 0.00034331784 -0.0015599285 0.0013205408 0.000493638 -0.0010530481 0.0011658296 0.0015099552 0.0014813279 -0.000862476 0.00021726363 0.0011885263 0.00014988771 -0.00012355654 0.0009983454 0.0006389472 -0.00032561875 0.0011267944 0.00042406042 -0.0007783103 0.0010969337 -0.0009831492 0.0010469948 -0.0008034929 -0.00051109435 -0.0005312043 0.00024108314 -0.00166796 0.00072278536 -0.0011145398 -0.00052357255 -0.00145216 -4.5501773e-05 0.0013736808 -0.00026658224 0.00084487506 -0.00015123372 -0.0011341817 -0.00093556294 -0.000355144 0.0015245088 0.0005811595 -0.0015999343 -0.0010292358 -0.0005030689 -0.00018923078 3.0346799e-05 0.00031162798 -0.0008268331 -0.0012303267 0.0016457869 -0.00014475353 0.00022270007 -0.00080207054 -0.0001993212 -0.00037942166 0.00089116715 0.0007713225 0.00044271638 -0.0009797101 -0.00020762536 0.00035294972 0.0009980949 0.0016148409 0.0008136938 -0.0008232734 4.8983467e-05 -0.00021151389 0.0012153747 0.0010875837 0.0004775663 -7.4568045e-05 -0.000979085 -0.00030098486 0.0006499723 -0.00031046613 0.0016397212 -0.0012364396 0.0008170159 -0.00037012034 -5.3477528e-05 -0.0013081618 -0.0006836915 -0.00025010985 0.0007392234 0.00085260806 0.0016174107 -0.0010095175 0.0004638215 0.0013298119 -0.00015883047 0.0013277546 -0.00082110584 -0.00023679224 0.0014365617 0.0008038134 0.0008578565 -0.0007147794 -0.00027187442 -0.0006752222 -0.00022142031 -0.0013035248 -4.1622014e-05 0.0014136176 0.0005234215 0.00023746345 -0.00035122375 0.0007391278 -0.0014190631 -0.0013256618 0.0012859922 0.0002554748 -0.00022988113 -0.0013417939 -0.0006754143 0.0012166073 -0.00094491447 -0.00047641326 0.00075668 0.00046192843 0.00085216016 0.001577342 0.0013617018 0.001507454 -0.0008495224 -0.000696208 0.00016063577 0.0005787464 -0.0010230921 9.11568e-05 -0.0009258139 0.00038912141 -0.0012829278 0.000115996656 0.0013994627 0.0011694493 -0.0003753515 5.160156e-05 0.0011678971 -0.0016145664 0.0008900042 0.00029399546 -0.0012751914 0.0011484849 0.00078645826 0.0014397 -0.001400479 0.0014407274 4.8277565e-05 0.00083861256 0.0007848893 4.6502973e-05 -0.0013216167 0.0002178659 -0.0015089705 0.0011687271 0.0014154282 0.0013902674 -0.0013508605 0.0010030663 -0.0005772252 -0.0015351251 -0.00091517315 0.0016011804 0.0011796437 2.2232993e-05 7.648252e-06 0.0015284638 0.0013920056 0.00025635186 -0.00020406886 -0.00145743 0.00045588816 0.0003769305 -0.00037090678 0.0011382898 -0.0011684176 -0.0005702406 -0.0011244543 -0.0013182677 0.0016600837 -0.00017347705 0.0003017165 0.00077751855 0.0006454271 -0.0004155953 0.0013164212 0.00014328636 7.690904e-05 0.0016037051 0.0003104955 0.001461045 -0.0013237746 0.0012316972 0.00033373723 -0.0004770868 -0.0007198941 -0.0015202229 0.0003239407 -0.00061193935 -0.0004038855 -0.0012027456 0.0011659218 0.0015036275 -0.0012139089 0.001149121 0.00012831438 -0.0005864621 -0.000692798 -0.0016336815 -0.0003726383 0.0007651824 0.00021156552 0.0008108609 -0.0010092845 -0.00019807741 0.001011543 -0.00023515311 -0.0010415858 -0.0011463792 0.0011692321 -0.0013865021 -0.0009908174 0.00034132943 0.00050493126 -0.0012343441 -0.00051436597 -0.0007377434 0.0010905938 -1.7801626e-06 0.00041029864 -0.00016136172 0.00070874783 0.0012521723 
States_bn:00003341n -0.00046367114 -0.0007264602 -0.0012582559 -0.0010257944 -0.00089646917 -0.0001240058 0.0011553982 -0.00014788845 -0.0003352324 -0.0010664418 -0.00041450866 -0.0014180912 0.0015210323 0.0003699225 -0.000986181 -0.0005193582 -0.00071177096 0.00061170786 0.0010600118 -0.00077949127 -0.0010648269 0.0015695045 0.0011004658 0.0011490377 -0.0005271168 -0.0003405731 -0.0013444239 -0.0011398022 -0.0014150841 -0.00044156142 -0.0012301629 0.00038173632 0.00049358455 -2.1774786e-05 0.001148986 0.00023731535 -0.0011969017 0.0011203182 0.0006433083 -0.0017298649 -0.00064580084 0.00013993072 0.0012766279 -0.0016315202 -0.00042045084 -0.0012060285 -0.00045920917 -6.295547e-05 0.00030933286 0.0008066852 -0.0010287557 0.0004166842 0.0005448991 -0.0009249601 -0.001418707 -0.0012895246 0.00024736914 0.00062252645 -0.0016632574 -0.0010518451 0.0015088042 0.00079345383 0.0009553977 9.067951e-05 -0.0003149104 -6.335927e-05 -0.0005698869 0.00089992775 0.0004580744 0.0013773406 0.0011626362 -0.0013864144 0.0009675638 -0.0010125481 -0.0008576921 -0.0006578834 0.00012539563 -0.000621948 -0.00023948739 -0.0013561136 0.0009168528 0.0017338683 0.00046080028 0.0001443487 -0.00023117388 0.0015497955 -0.0015257783 0.001163307 -0.0004854621 0.001352699 0.0016074728 -0.00042335253 -0.000528039 0.0015239952 0.0005216263 -0.00035750534 0.00043540256 -0.0012186805 0.0006985067 -0.001350105 -3.260969e-05 -0.0005388924 -0.0008191745 -0.00076502416 3.487915e-05 0.000121072415 0.00013946222 0.0004884119 -0.0004239264 0.00061073335 0.0012310693 -0.00072918663 -0.0015208661 -0.0017580973 0.0006994682 0.00023655428 0.0013138981 -0.0015058259 -0.0015979857 -0.00076735247 0.0010547475 -0.00012285612 0.0012123974 0.0003365091 -0.00047842518 0.000320105 -0.0013027106 0.00036445342 -0.0015900752 -2.9048744e-05 -0.0013046212 -0.0010800888 -0.00010039643 -0.0009910644 -0.000118157295 0.0012871681 0.001108845 0.0015644334 0.0010425036 -0.00047584175 4.1095095e-06 0.00021950204 0.0011717101 -0.0011104225 0.0012507299 0.00065487996 -0.00029577443 -8.914574e-05 0.00093513355 0.0008525669 0.0010366418 0.00015802761 -0.0011972246 0.0011391265 0.0016169132 0.00084850774 -0.0014188818 -0.0014977729 -0.0016506314 -0.001067659 -0.00033008857 -0.0013828701 -3.0654093e-05 -0.0008895656 0.00019771475 -0.0005046461 -0.0013534755 -0.000231025 0.00027468769 -0.0013962261 -0.0015299392 -0.0011915861 0.0010317174 0.00022184703 -0.0006713733 -0.0013002892 0.0005095127 -0.00022636975 -0.0010880848 0.0012641153 -0.00094456144 0.0010351432 -0.00046250786 0.0013466636 0.001558371 -0.0011217035 -0.0012292014 -0.00043084368 0.0013144553 0.0006862293 0.0008368384 0.00029356973 6.8961795e-05 -0.0013243749 0.0016457752 -0.0002144377 0.0017487394 0.0006940889 -0.00033324133 -0.00038405316 0.00079026533 -0.00075544673 0.00023525492 0.000954709 0.000528303 -0.0010389787 -0.00084870897 -0.0012056818 0.0004575725 -0.0016027661 -0.00096660625 -0.0016111761 -0.0010499798 -0.00045956284 3.9739516e-06 -1.4441746e-05 -0.001391115 -0.00097341376 0.00040221016 0.0015076989 -0.0009216324 -0.00016351425 0.0015414339 -0.0010257533 0.00065671554 -0.0010032189 0.0013404387 0.0017736481 -0.0011076034 0.00054796407 0.0009669811 0.0008383731 0.0015188298 0.000720685 2.8610502e-05 0.0015898969 -0.0014484377 0.00065090175 0.0014882141 -0.0005754987 -0.0010994026 0.00044890688 -0.0003388881 0.000751619 0.0008041521 -0.0012182174 0.0005243307 0.00012136123 -0.0003193195 0.0015589409 -0.0003664558 -0.00035980655 0.0010148208 0.0005590655 0.0012821392 -0.001162665 0.00057731016 -0.0004856264 0.00069522485 -0.00039463266 9.7434924e-05 0.0015186062 0.00051078567 0.00096000073 0.00051279797 3.104093e-05 9.811591e-05 0.000736337 -0.00078310014 -0.00040233665 -0.0009783037 0.0006069159 0.0016142783 0.0008254351 0.0008441109 0.00021818285 0.0011390619 0.0003647601 -0.00015901544 3.7508882e-05 -0.00011470578 -0.000893577 0.0010212666 0.001391488 -0.0009780468 -0.0013791381 -0.0011100634 2.1131213e-05 0.0005675551 0.00094095164 0.00053348456 -0.0005099952 -0.0005016726 -0.0011822059 0.0009947366 -5.6240056e-05 -0.00050160347 0.00016745647 0.0007585175 -0.00036012637 
implement_bn:00082712v 0.0007013705 0.0015562003 -0.00065653963 0.00047639347 -0.0017958669 -0.0015390585 0.00037844374 -0.0015420592 -0.0006873442 -0.00085918995 0.0009739025 0.00038516993 0.0002744716 -0.0010109862 0.00015580849 0.00090935745 0.0003862429 -0.00035351777 0.0014363192 -0.0013147204 0.00019434642 0.0013878727 0.0011100387 0.00023264295 0.0009217246 0.0013328113 0.00041079725 0.0007646551 0.0011473224 0.0008611925 -0.0016978678 -0.0006765459 -0.0014023511 0.00028413098 0.0010738953 0.0010943477 0.00015608827 0.00035091527 5.99963e-05 -0.00079518143 -5.934188e-05 -0.0012551283 0.0007763447 0.00046307917 0.0003921927 0.0007129481 -0.00139733 -0.0007503808 0.0005795474 -0.00061811536 -0.001404271 -0.00013058141 -0.00054702914 0.0012356436 -0.00078312855 0.000491337 -0.0011957828 -0.0010657719 0.0007304294 -0.0012398342 -0.0002448997 0.000511948 -0.0013617655 0.0012355823 -0.0007786797 0.00033579275 0.0007152215 0.0014302866 -0.0011524592 -0.00032002173 -0.0011806221 0.00037740424 0.0008953679 0.0015659203 -0.0011278146 0.00076549005 0.00096449227 -0.00034561133 -0.00018825276 0.00082110264 0.0013760327 -0.00058920146 0.0017084532 -0.00089302356 -0.0005143035 -0.0008614713 -0.0013056094 -9.220756e-05 -0.0008040947 -0.0015710116 -0.0010251639 0.0011974145 0.00020779294 0.0015511127 0.00053275895 0.00055209873 -0.0012777012 -0.0010941416 8.702842e-05 0.0010932249 -0.00035142855 -0.0009788419 0.0012166627 0.0013995107 -0.0008980816 -0.0008174104 2.5759478e-05 0.001223438 0.0016286555 -0.0005995382 0.0011188836 -0.0015781258 0.0003187888 -0.0015560386 -0.0015062061 0.0010409859 0.000727091 0.00083096407 -0.0006496412 -0.00030391998 0.00069795 -0.0016550814 0.00015997652 -0.00031770513 -0.0012663945 -0.0010141913 0.00019329465 -5.9777733e-05 0.0002762558 -5.7516587e-05 0.00025260376 0.0010627239 -0.0016565684 2.554053e-05 -0.0003277564 -8.455903e-05 -0.00086205755 0.00013052001 -0.0017751084 0.0011636966 0.00057223113 -0.00012486265 -0.0007727116 -0.0007824697 -0.0014678895 -0.0006615621 0.000739424 -0.00019979101 -0.00028494792 -0.0016797036 -0.00094935496 -0.001680994 0.0012369165 0.0001789029 -0.0006123827 -0.0009228103 -0.0014581176 -0.00040545414 0.00043735167 0.00038978638 0.0010522811 -0.0010505148 -0.00051831175 0.0007457438 0.0004871103 -0.0012842981 -0.00017577008 0.0010778102 0.001309669 -0.00069347315 -0.0009103852 0.0004455853 0.0014499614 0.0007898971 -0.001498877 -0.0010668805 -0.0012791754 0.00054498843 -0.0006191363 -0.00085345027 0.0016230334 -0.00079611223 -0.0004637614 -0.00048605484 -0.00077627745 -0.000298388 -0.0010294293 -0.0009544263 0.0015236825 0.00010746443 0.00073476083 -0.0006584217 0.00042798257 -0.0004729801 -0.0010102508 -0.0014241845 0.0011807136 -0.0007514505 -0.001393788 0.0009624396 -0.00048692693 0.0015911467 -0.00023932982 -0.00023973314 -0.0010327338 0.0013592914 -0.0015407181 -3.0167635e-06 -0.00074484316 0.0011162559 0.0015270528 0.0012595552 0.0012928161 -0.001448582 0.0004997783 -0.00039140234 -0.0015917502 0.0016062134 0.0014955975 -0.00017097847 -0.0013463822 -0.0012277807 -0.0013677637 0.00046464367 0.0013241947 -0.00059922703 -0.0010416734 -0.00034209687 -0.0013161643 -0.00031374567 0.0012011656 -0.0009479108 0.0006720992 -0.00090384955 0.0011846991 -0.0013975436 -0.00083009276 -0.00011407596 0.0006635022 -0.00033685748 0.0014053431 3.848721e-05 -0.00010263268 1.900109e-05 -0.0008090275 -0.0008048772 0.0012738666 0.001609591 -0.0013278387 -0.0012535278 0.0011302361 -0.00027161717 -0.00094020326 0.00038117653 0.0018088497 0.001484644 -0.0005818434 0.0015297926 0.0013652685 0.001291233 -0.0007754266 -0.0014668857 -0.00031422667 -0.00068148907 0.0005932305 -0.0003284308 -0.0013101029 -0.0009698406 0.0015254595 0.001602327 6.460784e-05 -0.00104835 -0.0011882934 -0.0009884797 0.0016001185 0.0012497992 -0.0014737631 0.00050428894 -0.001188488 -0.0014572062 0.00096468173 -0.0007086864 0.00022770386 0.00086379907 0.0014609433 -0.00026027055 -0.0014137212 0.0015080945 0.0003862383 0.00075528555 0.00045611418 -0.0015179142 0.0010676993 -0.001472482 -0.0013122738 0.0012043694 -0.0017007395 -7.842051e-05 0.0014451385 -0.0013459321 
area_bn:00005513n 0.0005892237 -0.00080744183 0.00060994126 -0.00035291942 0.0009377366 0.000626186 -0.0015381512 -2.8577377e-05 0.0012673703 0.0010079873 -0.0009684554 0.0005384401 0.00032957952 0.0012580291 0.0004307897 0.00019498968 -0.0016106606 0.0008936101 -0.0011014296 0.0011429164 -0.00129536 -0.0012699986 0.00012078513 -0.001133871 0.001595899 -0.0007036137 -0.00128674 0.0014088155 -0.0006224216 0.00013273103 -0.00078746787 0.00083185866 0.0015859426 0.0006223485 0.0008939516 0.00025106256 -0.0013967033 -0.0013239244 0.0009540196 0.0003733171 0.0014693299 -0.0009868795 -0.0006954487 -0.0013140868 0.0013137406 0.00073706475 -0.0006943153 -0.0007295336 0.000665764 0.00076980534 0.00010043577 0.0012770533 0.00092825305 -1.1182763e-06 -0.00056642754 -0.0008446825 1.3215456e-05 0.0004345449 0.0013023351 0.0011152528 -0.0008465046 0.0013684783 0.0012128467 -0.00033124248 -0.0014929009 -0.0013261554 0.0012274298 0.0006588468 0.00013376038 -0.00013117136 0.0012169206 -0.0015079781 0.0006219469 0.00085224834 0.0008530296 -0.0015905624 -0.0014493188 -0.0014074629 0.00011900008 -6.830015e-05 -0.0001203589 -0.0011909102 -0.001196876 0.0014670512 -0.0012055488 -0.0014512492 -0.0014732967 -0.000952003 -0.000529057 0.0006063789 0.0013907923 -0.00061789784 -0.0004976746 -0.0013140428 -0.0004954067 0.001178913 -0.00040293607 0.0015110706 -0.0013715888 -0.0007909507 -3.7498885e-05 -0.0013186827 0.00027009757 0.0010376154 0.001287169 0.0008842455 -0.00011771603 0.0016606136 -0.0011009066 0.00010325131 -0.0007238916 -0.00079524104 -0.001365056 -0.00021630607 -0.00046144813 0.0009131178 -0.0011635902 -0.0006332446 -0.00085839885 -0.00080756145 0.0013829106 -0.0013028821 0.00010424382 -0.00042621317 -0.0013436314 0.00096475997 0.0010687816 0.00034694147 -0.00036701234 0.0007381501 -0.0010431127 0.00070329686 -0.0013049346 -0.00015516946 -0.0007315554 -0.001309416 -0.00019717186 0.0013909967 0.00055217324 0.00022858787 0.0011622052 -0.00068986457 -0.00089791836 0.00012864979 0.0013411585 0.00021328474 0.00017804187 -0.0010515929 -0.0011544614 3.8348757e-05 0.001019738 0.0011503766 -0.00017372893 0.0016974704 0.00024493076 0.0010616984 0.0006879948 0.000914084 0.00048635344 -0.0010808893 0.00017195968 -0.00084595726 -0.001190117 -0.001573583 -0.00047941433 -0.0008129441 -0.00020965334 -0.0011555816 -0.0015474904 -0.0013163903 0.00051817036 0.000125005 -0.0014013718 -0.00070869183 0.0005604773 -0.0011335853 0.000621586 0.00090272527 0.0002689956 -0.0006893282 -0.0013163191 0.00081979367 -0.0008669572 0.0007917322 0.0015513425 7.3655436e-05 -0.00096184097 0.0016493127 -0.00014372596 0.00043011064 -0.0008415341 -0.0014380354 0.0005439476 0.0010669093 0.001099396 0.00087977306 -0.00030436908 -0.00023001629 -0.0005354784 7.280964e-05 -0.00035095835 0.0013742361 0.00023858591 0.0013511078 9.7533695e-05 0.0014437623 0.0015585687 -0.00051354675 -0.0009229925 -0.00042201907 0.0005750291 0.00024530897 2.3185958e-05 -0.000995037 -0.00025859044 0.0006407108 0.0013913848 -0.0012059469 0.0009238712 -0.00042464177 4.7529073e-05 0.0005679379 0.0011882018 0.001512162 -0.0007527554 -0.000607942 8.518128e-05 -0.0011993459 -0.0003841002 1.6057966e-05 0.0008565328 0.0010313443 -0.00039179373 0.00064688927 -0.0010122124 -0.00075663294 -0.0014364043 -0.0016369588 0.0013078445 -0.0008724318 -0.00046030778 -3.0396149e-07 0.0010578211 -0.0014456687 -0.00022232739 0.0007922638 0.0010192718 0.00039283824 -0.0013625559 -0.000759114 0.0011080741 -0.00027771902 0.0011237712 0.000314318 0.00031109934 0.0007917914 0.0008671005 0.0015631756 0.0015312365 -0.0011721122 -0.00030957602 -0.0005503482 0.0012434383 0.0010900153 -0.0011901547 0.0010576003 0.0012408365 -0.0001474204 -0.0011429472 0.001490515 8.9166504e-05 -3.3323631e-06 -0.0016039311 0.00042517183 0.00089357654 -0.0010581771 -0.0014778251 0.0013185233 0.00068787736 -0.0012507105 -0.0010293982 -0.0013359021 -0.0012096536 -0.00056339643 0.00055420963 -0.0014295792 -0.0015520907 -0.0016407111 -2.6073743e-05 -0.00024620505 -0.00073365035 -0.001230848 -0.001100532 -0.00020268696 -0.0002922786 -0.0004293254 -0.0012464265 -0.0006157274 -0.0013208952 -0.001625912 
agree -0.0010380956 -0.0016332661 -0.0005303067 5.924221e-05 7.230861e-05 0.0016618774 -0.00014896924 0.0010827194 -0.00021565444 0.0007557299 0.00076756027 0.0010538523 -4.590679e-05 0.0006320955 0.00037861275 -0.00025995137 0.0005545496 -0.00071896624 0.0010955988 0.0007989454 0.00032058536 -0.00067562883 0.00020723164 -0.001482519 -0.00061308057 -0.00017996015 0.0012996902 -0.0015194016 0.00033599217 -0.0014704423 -0.0015495247 -0.0007655788 -0.00011950371 -0.0003612596 -0.0015923138 0.0002558355 -0.0011066768 0.001313289 0.0006719308 0.0006598142 0.00048180233 -0.0016709777 -0.0007568554 0.0012144446 0.001351206 0.0014385494 -0.00031528898 0.000867909 0.0007945785 0.00035651115 0.001301461 -0.0005040106 0.001110165 -0.0012306197 -0.0013807436 -0.0011158066 0.0004983612 -0.0010647922 0.0014670639 0.0012301664 0.0008379244 -0.000492916 -0.0011253105 -0.00066926517 -0.0005273749 0.00099153 -0.0015161067 0.0014652049 -0.00035856132 0.0007777288 -0.0015416244 0.00089579466 0.0005899032 0.0001421192 -0.00041174106 0.0004782992 0.0013594481 -0.00047463257 -0.00018154703 -0.00058549823 -0.00088243425 0.00095826667 -1.6773289e-05 -0.0010167394 -0.00074807013 -0.00074923487 -0.00010459247 -0.00091281894 -0.0012080491 4.2803353e-05 -0.0011792666 0.00050342845 -0.0013669544 -0.0015700763 -0.00030831178 -9.116695e-05 0.0003105381 0.000683727 -0.0009787695 -0.0014495973 8.642003e-05 0.001441018 -0.0015053423 -0.001155838 0.00057581085 -0.00038668036 -0.0010318003 -0.0010982371 0.00021843295 0.0016451573 1.5401978e-05 -0.0011034219 0.00027658243 -0.00053398835 0.0016399627 6.323494e-05 0.0015616916 1.3041951e-05 -0.00046066195 -0.0009142143 0.00033280364 -0.00014609791 -0.00053223455 0.0010225432 0.0010131644 -0.001313294 -0.00022630634 0.00045966866 0.00080084224 -0.0012495727 -0.0012283841 0.0009535266 0.0010706566 -0.00062165887 0.0014496903 -0.001459211 0.0009987295 0.0009070638 -0.0009766929 0.0011215205 -0.00072876416 0.00021587753 -0.0008915883 0.0009644176 -0.00068248145 -0.0015205026 -0.0012632839 0.0009260779 -8.134148e-05 0.0009764249 0.0007214035 -0.0015039816 0.0013287092 0.00088532484 0.0015973918 -0.0012753248 0.0003422297 0.0011670963 0.0011685145 0.00034049177 0.0012841275 0.0004875044 0.0011847897 -0.00030350924 -0.00040038157 0.00093387795 -0.0006066827 0.00024703436 0.0006383693 -0.00036813697 -0.00033858325 0.001344996 2.9512139e-05 0.0010769037 0.00017016307 -0.00026889922 0.00093794765 0.00021007693 0.0004646766 -0.00050154974 -0.00028856032 -0.00045290208 0.0008537743 0.00084783183 0.001603332 -0.00046618818 -0.0012103609 0.0012052763 0.0007189526 -0.00077171007 0.0010789263 -0.00089052157 -0.00067226286 0.0007744838 -0.0011624236 0.00014203842 0.00034751918 -0.00069689006 -0.0002487823 -0.0015308658 -0.0016185741 0.00044008912 -0.00087630795 -0.0005079671 -0.0003743213 -0.0005887163 -0.0008970762 -8.759913e-05 0.0009287592 0.0015194109 0.001347072 -0.0005189399 0.0008051366 -0.000857757 0.0012287792 -0.001544828 0.00048809595 -0.0007034688 0.000682215 0.00045966313 -0.0012356784 -0.00071751606 -0.0011423782 -0.0009201302 1.9980093e-06 -0.00026603357 0.0014754934 0.0014145621 0.0016761478 -0.0005070964 0.0012858172 -0.0004986976 -0.0012178128 0.0002543442 0.0014552998 0.00038218402 0.00067768747 -0.00041671595 0.0009420759 -0.00051028625 -0.0006553257 -0.00031377806 0.00017538187 -0.0016408344 -0.0015445516 -0.0014545349 -0.00072001305 8.834862e-06 0.00026844232 0.0013924491 -0.0015732815 0.001540047 0.00013772532 0.0006138653 -0.001526477 -0.00040421364 0.0014366329 -0.00048226045 0.00024840672 0.000289008 -0.00033660838 -0.0015522593 -0.00036984423 0.0008007854 -0.0014847821 0.0013979097 0.00015591204 0.00088730257 0.0008537915 0.00019545745 0.0006630974 0.001456701 0.00055551325 0.0003910366 0.00042873158 0.00037322743 0.0015905459 -0.00014083687 -0.0003743853 -0.0006413567 -0.00095684495 -0.00058295205 0.00016404725 -0.0010017356 0.0016470079 0.00083078875 0.001079661 -0.001592723 0.0005710688 -0.00016927588 0.00069318764 -0.00026824488 -0.00079692964 -0.00010892079 0.0010553842 -0.0008788143 -0.000992155 0.0012288799 -0.001265729 0.0014002649 
become -0.0013153001 0.0006570174 -0.00045088073 -7.238908e-05 -0.0005733966 -0.0003927736 0.0016408683 0.00094939116 0.00046929292 0.00045880862 -0.0011184248 -0.0002724809 -0.0015292949 -0.00093722256 0.0015094889 0.00081820245 -0.0003041442 -0.00040550742 -1.1163447e-05 -0.0007419384 0.00039818705 0.0017442924 -0.0006405823 -1.8539617e-05 -0.0005502899 -0.0014562808 0.0005850626 0.0007582503 -0.00028702154 0.00054473965 -0.0006675668 -0.001417748 0.001026865 0.0012728175 0.0003770276 -0.0012401885 -0.00075294747 -0.00016687597 0.0008122104 0.00078724505 -0.0016567245 -0.00011037065 -0.00069123245 0.0007458685 0.001522395 -0.0015719482 -0.00034746557 -0.00015922857 0.0012593112 0.0011314935 -0.0013242828 -0.0009599105 0.0003510579 -0.0010969554 -0.0014067913 0.0008310723 0.0009039526 0.0005951469 -0.0016615631 0.00046102007 0.0017095822 0.0012002375 0.00023053815 -0.0012900953 6.1263636e-05 0.00077671476 0.00088474446 -0.00027225877 -0.0014281337 0.0007848448 0.0011079031 0.0007530607 -0.0014204269 0.00035692623 -0.00090810674 -0.0013289446 -0.00097266573 0.00060570164 0.00072612043 0.00033532162 0.0012452481 -0.0007511557 0.0013334784 -0.0012212731 0.0013614892 -0.0010522915 0.0003061134 -0.0008572608 0.0007473829 0.0012884908 0.001425632 -0.000116924086 0.00047957373 -0.0004222488 -0.0007509549 0.0008675414 0.000847077 -0.00020500773 -0.0010113899 0.0016751382 0.001431591 -0.00051189854 0.0007358674 0.0010369535 0.0005455355 -0.00018089067 0.0016956402 -0.0005440521 0.0016629183 -0.000637505 -1.032384e-05 -0.001797446 0.0016515348 0.0014866815 -0.0013344958 -0.00160471 0.000117930795 0.00011538149 0.0012190923 0.00061861065 -0.000990015 0.0014609488 -0.0013768263 -0.0015006129 0.00019469079 0.0009660913 0.001321606 -0.0011545871 0.00029626503 -0.00036801046 0.00077891507 0.00080482604 -0.0014767402 0.0013794535 0.0013743049 -0.0013677955 0.0006348683 0.0015745087 -0.0012737683 -0.0016077056 0.00017930749 0.0002480521 0.0013369324 -0.000311791 0.00025661208 0.0010698042 0.00072808575 0.0018145136 0.0010689814 -0.00051065127 3.840618e-05 -0.0008265538 0.0011215244 0.0003021857 0.001125093 0.0013682976 0.00049436226 0.0009339104 0.001062588 0.0008037336 0.00056482037 -0.0009427469 0.0011724285 -0.001523199 0.0012849875 -0.0009698416 -0.0013825279 0.00078944437 0.0014411444 -7.49115e-05 -0.0017400525 0.0010187443 -0.0013815 0.00036532065 -6.0644637e-05 -0.00087061746 -0.0010981209 -0.00080703857 -0.0008354667 -0.0006004561 -0.0005253886 -0.0014202193 -0.0011502051 -0.0011723487 0.0013373498 -0.0013271562 0.0012220539 0.0011227955 -0.0006358248 0.0011007865 -0.0004893339 -0.00086488435 -0.000993178 0.00068595266 -0.0007486451 -0.00050987455 -0.00031471724 0.0003871205 -0.0012180664 0.0008630664 -0.0006317507 -0.0009374002 0.0012498515 -0.0014170933 -0.00021239893 0.0011451303 0.00092042744 0.0016119084 -0.00069599785 -0.00080843706 -0.00017341597 -0.000295806 0.0011529804 0.0009807203 0.0002010756 -0.0013226423 0.0013500621 0.0013775827 0.0011763979 0.00017020303 0.00037038524 0.0010254304 -0.00014413298 -0.0011104131 -0.0011607214 0.0015661205 0.0001819104 0.0014985463 -5.391471e-05 0.0010826705 0.00028103046 0.00015114823 -0.0012900832 0.0016220158 0.00058893 0.000357263 0.0012992286 -3.3913035e-05 -0.0013644733 0.0002793851 2.3690647e-05 -0.001116622 -0.00019278623 -0.0008820446 -0.0008916136 -0.00038874292 -0.00096236914 -0.0009705256 -0.0017581979 -0.0012311878 -0.0006060591 -0.0015202994 -0.0016209638 0.0016418365 0.0009856921 0.00059507723 0.00085521425 0.00060321484 -0.0007511284 -0.00020553189 -0.00061570504 -0.00021253232 0.0005240963 -0.0006241348 -3.4102282e-05 0.00089168514 0.00043000153 0.00030929476 -0.00063086476 4.072914e-05 0.0012394192 -0.0003139046 0.0005485222 -0.0005018507 -0.00031873927 0.0015180768 0.0013942904 0.00051283324 -0.0008238913 -0.0014695574 -0.0008256154 0.0002172173 0.00054532377 0.0005244683 0.00080354937 -1.4111402e-05 -0.00028943442 -0.001309609 -0.0013615593 0.0008472839 -0.0005245665 0.0010118418 0.00028127807 0.0013766726 0.0013305047 -0.0011967818 -0.0014017693 -0.0016022162 -0.0005784997 0.0002627111 
Santer -0.001622478 0.0016342385 -0.00075861247 -0.001108249 -0.00092404266 -0.0012861491 0.0009742118 0.0014283399 -0.00033875176 0.0012145435 -0.0012926665 -0.00027094063 -0.0013056333 -0.00056388427 -0.0016086582 0.00013813726 0.00015731322 -0.000339144 -0.0014171671 0.0016046109 -0.0012645138 -0.0006818034 -0.00067765976 0.00027084182 0.0008399386 0.0009801383 0.0006592119 0.0009239199 -0.0014170302 -0.0014357752 -0.0011071541 0.0006260525 7.705802e-05 0.00070788193 0.00038189077 -0.0010974347 -0.0009136931 0.00047770233 -0.00028903387 0.0015587314 -0.0016102676 -0.0008386169 -1.2231374e-05 0.00046656697 -0.00021352293 0.0008620563 0.0002002623 -0.0009804681 0.00018739652 -0.001221206 0.001234282 0.0016687281 0.001627381 -0.0015055939 -0.00059690315 -0.0014369279 0.00025642855 -0.0014921799 0.0004279708 -0.00060711935 0.0014447222 -0.0008241711 -0.00044105382 -0.00038574485 0.0007058606 -0.0015777884 -3.8595514e-05 0.00037742936 0.0005161652 0.001623649 0.00019121103 -0.0005177733 -0.00077771896 -1.8980343e-05 -0.00057476945 0.0012440742 -0.001463687 0.0006062334 -6.0751685e-05 -0.000713952 -0.00039509544 -0.0010716609 0.00017638165 0.0010309748 -0.0012579679 0.0010298694 -0.0001678003 0.0013211014 -0.0009905451 -0.00071826525 0.0016279572 -0.00057170365 -0.00035947032 -0.00020209521 -0.0009909058 -0.0010611468 0.0013066048 -0.0007391043 -0.0006590576 0.0014391426 -0.0004964054 -0.001135998 -0.0006280027 -0.00025607535 0.0012790575 -0.0015295676 -0.0015050947 0.00075202785 0.0012038274 0.0010422398 -0.0010258881 0.001241201 -0.0002156672 -0.0012990206 0.00047838537 0.00068654073 0.0007621637 0.00080227654 -0.0014067043 -0.00012626384 0.0015384754 -0.0014784933 -0.0014149634 0.0014463797 0.0015184043 -0.0013628779 0.0011405434 -0.0008656747 0.0001960591 -0.0010367566 -0.00082785723 0.00068140734 0.00021978731 0.0005623232 -0.00034310808 0.0001842853 0.0015913316 0.0011175848 -0.0015396234 -0.00055568444 -0.00017377606 -0.0011534898 0.0015425906 0.00045327705 0.0004911266 -0.00061898056 -0.0003522998 0.0002859419 -0.0015433753 -0.0016151138 0.00020808092 -0.0016200148 0.00096582336 0.0014371638 -0.00015364586 -0.0005903113 0.0014034527 0.0016943531 -0.0015630359 -0.0007483405 -0.0005062366 -0.00050442293 0.0015991054 -3.0419129e-05 0.0011409395 0.00070078176 -0.00042117102 -0.0011880551 -0.001492879 0.0013890347 -0.00017722348 0.0009925433 0.0008143293 -0.0003343128 -0.000455381 0.0010654002 -0.00031553753 0.0016252118 -0.0003939814 0.0005236482 0.0016196779 -0.0004938823 -0.0008244656 -8.943194e-05 0.0002802009 8.214744e-05 -0.00010098037 -0.0008376661 -0.00021127835 0.00043139298 -0.0014187038 -0.0015429346 8.698751e-05 0.0010793923 -0.0009797578 -0.0014502404 -0.00035664393 -0.0008862281 0.00078276603 -0.00073446386 0.0012481789 0.0011034166 0.00020856335 0.00062705355 -0.00026443208 0.0010264072 -0.0013247568 0.0013996882 0.001320908 0.00063249574 0.0015351558 -0.0008766148 -0.0012265376 -0.00015611759 0.00036924143 0.0003963159 4.0792085e-05 -0.00010571844 0.00040758157 -0.00097203196 -0.0011543506 0.00045754042 0.00026987935 0.00037028568 -0.0012963153 0.00030325726 0.0015508255 0.00046202884 -0.0010766062 -0.00089175074 -0.00046328205 -3.2928572e-05 -0.00078617095 0.0011457087 0.0009764079 -0.0005093697 0.0015822597 -0.0013389275 0.0014241358 -0.0014190767 0.0010428834 0.000896323 0.0010080797 0.00034668576 0.0015040573 -0.0006346895 -0.0010549042 -0.00037237004 -0.00027966828 -0.00022949213 -0.00069036457 -0.00062814733 0.00010974187 0.0014741415 -0.0013190607 -0.0010753314 -0.0010805732 9.400147e-05 0.0011844671 -0.00066433783 0.0015916926 0.0002169628 -0.001568182 -0.00075014244 0.0005005487 0.0006440474 -0.0005861153 0.0015363871 -0.00074128254 0.0010448737 -0.0011195567 -2.4383808e-05 -0.0004937134 -0.0009959075 -0.0011626591 -0.00058221753 0.0016390026 0.0010852894 0.0009455427 0.00093477743 0.0002673323 0.0008045887 -0.0015887104 0.000632724 0.0007990409 -0.0015760094 0.0016024418 0.0015823309 -0.00025894487 0.00083948247 -0.0011127447 -0.0011959964 0.0009440034 0.0014313558 0.0016758088 -0.0007758401 0.00076424115 -0.0014872409 -0.0006728683 0.0009898811 
equilibrium_bn:00031312n 0.0016871957 0.0008897126 -0.0008448499 -0.0010432168 -0.00034087047 0.00074435014 0.0013690615 -0.00049276697 -0.0015303432 0.0001330312 -0.0016482754 -0.0011957833 -0.00045257653 -9.322457e-05 -2.9263012e-05 0.0013756085 -0.0010975068 0.0006171663 -0.00024554585 0.0015489578 0.0006612642 0.00016938036 0.00014112437 0.0015885367 0.0014525857 0.00049596414 -0.0003818972 -0.0009162772 -0.0012852474 -0.00066070736 0.00022110698 -0.0011398303 -0.00013087662 0.00018385416 0.0009268815 -0.0014698353 0.0006786588 0.0007074572 -0.0008046126 -0.0013167969 0.0012504706 -0.0005014135 0.00013476539 -0.0007398436 -0.00028162578 0.0007316379 0.0006351922 -0.0010435118 0.0014328663 0.00036606262 0.00060263916 0.00077454397 0.0004972036 0.0015486978 0.001693025 -0.0017452834 -0.00028606714 -0.00069433975 -0.0005807241 0.0012732355 0.0006202478 -8.608421e-05 0.0013597757 0.00063482224 -0.0010375488 0.0008174002 0.0012579123 0.0016659491 -0.0007838978 -5.7293095e-05 -0.0004693294 0.0008769174 -0.0008244846 6.40191e-05 0.00018386445 0.0007582332 0.00021857498 0.0004960291 0.0002682789 -0.00050741824 -5.742808e-05 -0.0012015355 0.0005080559 -0.0008197976 -0.00030093847 0.0016469538 0.0013755176 -0.0007917531 -0.00011207907 -0.00036057347 -0.0015537 -0.0013921373 -0.0013896115 -0.0012974815 -0.00050579285 -0.00042049596 -0.00046068174 0.0007570972 0.0007107036 -0.00035429513 -0.0007638686 -0.00033300612 0.0005355605 0.00094629655 0.0017389365 -0.00013248977 -0.0012256409 0.00033547494 0.0014787865 0.0017651892 0.0013505811 0.0005710212 0.00019952242 0.0014738204 0.0013645389 0.0012174741 -0.00063137297 -3.712291e-05 0.00023347154 0.0011322236 0.0008090364 0.0008013806 -0.00027415375 -0.0012356744 -0.0006768052 0.00096197467 -0.0008680819 -0.00015280323 -0.0009584719 0.00080373 -0.00047918322 -0.0007962559 -0.0001693179 3.428215e-06 -0.0011375337 -0.0006354724 0.00068211544 0.0013336783 0.00077815173 -0.0015444567 0.0012455928 -1.5043601e-05 -0.001284072 -0.00037079694 7.295109e-05 0.00051008456 -0.001363359 0.001790049 0.0001906302 -0.00022542792 0.00072704494 6.957272e-05 0.0011277287 -6.3474305e-05 0.0016263052 -0.0007126179 0.00026998724 0.0016121055 0.0013813251 -0.0010883843 0.0013322256 -0.0015462016 0.0016284643 -0.00027602987 -0.00019168132 0.0011373154 0.0010925649 0.00022010066 -0.00089881266 -0.0014825509 -0.0001244736 -0.00012293237 0.00025549674 0.0006821664 -0.0016680775 -0.00078606047 -0.001309001 0.0002706125 0.00126561 0.0016777946 0.0004394583 0.0015052878 -0.0012578417 -0.00096132746 -9.650557e-06 0.0008561042 0.0007244914 0.0008051343 0.0008434236 -9.827244e-05 0.0014322264 0.0008369599 -0.001179468 -0.0006737065 -0.00082144764 -0.000989386 0.0015521307 -0.0013168338 -0.0015000422 -0.0006004162 0.00013627294 0.0006814527 -0.0014183561 0.00010432792 -0.0009495533 0.0016226458 -0.0002849348 -0.0004090077 -6.26906e-05 -0.0011859903 0.00015488651 0.0010890452 -0.001181045 -0.001149216 0.00042048685 -0.00076652423 0.0005681639 0.0012765537 0.001288745 0.0008789648 0.0014521243 -0.0015398253 0.0003216419 -0.00046909094 -0.0016505193 0.0010437411 -0.00088528974 0.0009456744 0.0012172428 0.00019479216 -0.0005580643 -0.00054790126 -0.0006843168 0.0006488242 -0.0010431983 -0.0010552465 0.0007409402 0.00075825566 -0.0010974932 0.00095765287 0.0010124181 -0.00083480036 0.00072114903 0.00057029066 0.00034200877 0.0010019821 0.0016617405 0.0009937896 -0.0016219799 -0.00046769832 -0.0015929582 0.0015402547 -0.0006615612 0.0012073894 5.403979e-05 0.0014575071 -0.00037655517 0.0009817516 -0.0014497937 0.00020768288 7.355519e-05 -0.00073197676 -0.00041589726 -0.0006111495 0.0014347251 0.00032277292 -0.0016474156 -0.000113550675 -0.0001352549 0.00013251581 0.00045540702 0.0014305966 -0.0008257056 0.00064343255 0.0007590901 8.885255e-06 0.0011283853 -0.0002662335 -0.00043421154 0.00038397318 -0.0016980806 0.0008685517 0.0011060822 0.0004165339 -0.0014752056 0.0011731572 0.0012925369 0.0010557336 -0.0010922899 0.0014066354 -0.00094486505 0.0010301657 0.0007423859 -0.0010960485 -0.0006764786 -0.0013786869 0.0006430017 0.00083601364 0.00128779 0.00091867184 
really -0.0015245414 -0.0013051598 0.00068437384 -0.00022385162 0.0016022474 -0.00038436506 -0.0013935895 -0.0006824285 -0.0007577959 -0.00019932388 -0.0014343469 0.00088259706 0.0011835411 0.0016056031 -0.00024078015 -0.0013251634 0.00045357237 0.0014280077 0.0009530842 0.0013043915 0.0011354376 -4.9302784e-05 -0.0006829005 -0.0013171718 0.0011962086 -0.0008309084 -0.0012053235 0.0007684276 -0.0008854944 -0.0014382846 0.0014370242 7.665253e-05 0.0016078901 0.00025329232 -0.0011528137 -0.00094261253 -0.00080093683 0.00076346524 -0.00030168524 0.00039152475 0.0009208952 -0.00040815305 -0.0014196339 -0.0013341479 -0.0011773761 0.00054012577 0.0004357513 -0.00040616322 -9.257366e-05 -5.2068943e-05 -0.0012669092 0.00090220454 0.0008946125 0.0005482372 -0.00072419655 -0.0009908376 0.00071652693 0.0009879487 0.0016113784 -0.0012375971 0.0015703961 0.0010196691 8.8233275e-05 0.0009409057 0.0010073099 0.00063536427 0.00050919165 -0.0012774867 -0.0008530376 0.0016583842 -0.0007390354 -0.00019481307 0.00041588995 0.0014404847 0.0012224914 -0.0008646727 -0.0008277109 0.00072072167 -0.0005495883 0.0010492051 -0.0016294137 -0.0006119238 -0.001033873 -0.000113652815 -0.0010372964 0.00014883305 0.0011189794 0.00080065924 0.0009661708 0.0012531511 -0.0010015293 0.00152961 -0.0002690374 -0.0010291731 -0.0007825858 0.00076991285 -0.0016391932 -4.0696254e-05 -0.001214356 0.00032426286 0.0015331529 0.00027442613 0.0007165155 0.0004809752 0.0007484559 0.0016430181 0.0014760284 0.00047731653 0.0009967579 0.0003647322 -8.188948e-05 0.0011430454 -0.0001549869 0.00040385817 -0.0007411995 -0.00048626793 -0.0013130165 0.0007204322 0.0012243983 9.460565e-05 -0.00090031186 0.0006951696 0.0004585922 -0.0014013737 0.00014271014 -0.0004005513 0.0007701391 -0.0010384293 -0.0011258349 0.0015382139 0.0006517755 -0.0012096277 0.0014925987 -0.0014659932 0.0005981592 0.00076164486 -0.0015917966 0.00035938807 3.050718e-05 0.0009089245 0.0005688865 0.00040955594 0.00071359007 -0.00081316696 0.00014708987 0.00137587 -0.0003510878 0.00018804421 0.0010995297 -0.0009157921 -0.0009922452 0.0013434949 -0.001324783 0.0015682841 -0.0011829601 -0.00033766194 -0.001154618 -0.0013342485 0.0007632297 -0.00060938887 -0.00045374018 -0.000977353 0.0004805825 -0.0011695902 -5.7256882e-05 -0.0009119142 0.0015732668 0.0007023244 -0.0014598629 -0.0004060223 0.0003364501 0.0006687397 -0.0001187651 0.00029086933 0.0015669884 0.00049555127 -0.0016084604 -0.0007130191 -0.0010833666 -0.0016272673 0.0006176079 0.0013843259 0.001034445 -0.0007119157 0.0005456967 -0.0008986302 -0.00059357483 -0.0014475649 0.0010495655 -0.0013481647 0.0001837885 0.00062152825 -0.0009251515 -0.0009821287 7.988588e-05 -0.00052575645 -0.0006446544 -0.00072667265 -0.0015145247 0.0010760338 -0.0013405215 -0.001575937 -0.0014364615 -0.0016126046 0.0011469881 -0.00014635453 -0.0003993603 0.0001018011 -0.0007155918 -0.0011131533 -0.00132255 -0.00054440205 0.0004956837 0.0010851981 -0.00071266014 5.1942858e-05 -0.0012167045 -0.0016164631 -0.000118889424 0.000117204545 0.00021432586 -5.3494132e-05 -0.00033970273 -1.6242942e-05 -0.0015882243 -0.00078524183 -0.0009484499 0.0014574708 -0.00051085994 -0.001258176 8.122961e-07 0.00033891576 4.8307415e-05 0.00010763514 -0.000987271 0.00012364323 0.0010555253 0.0013912998 -0.00041400368 0.0012615157 -0.00050758757 -0.00167284 0.000915225 0.0014928286 -0.0011018085 0.000350998 -0.0014686845 -0.0015109363 0.0009058896 -0.0010280658 -0.00055794616 -0.000809927 -0.0012817669 -0.0012666142 0.0016062458 0.0006141319 0.00037344327 -0.0005601206 0.0016295009 -0.0014824097 0.00039454288 -0.00048628714 -0.0016372016 -0.0005041255 -0.0007469198 0.0016369489 3.016623e-05 -0.0012714801 -0.0003986779 -0.00028172522 0.0010893651 0.0015316892 -7.891228e-05 -0.0015769157 -0.00051958114 -0.00033328685 0.0008759955 0.0015389845 -0.0005286418 0.00036401412 -0.0006074521 -0.0004979901 -0.0009750123 -0.00035924322 0.0004145998 0.00019109253 0.00082836463 0.0002971505 0.0016277509 -0.0007255556 0.0005986571 -0.00058892264 -0.0015291241 -0.0013560302 0.00090740924 0.0014414481 0.00030185288 0.0006909907 -0.00087148626 -0.0016573101 
our 0.00015741367 0.0010594472 0.0013584781 -0.00025071696 0.00127224 -0.00045623234 -0.0015283279 0.0015691653 0.0007448919 -0.00055516587 -0.000825638 -0.001624581 0.0007158894 7.7351535e-05 -0.0014493101 0.00039013976 0.0016302108 -0.0014390746 -0.00081523496 0.0014839678 0.0013870584 0.0008050145 0.0013680448 0.0006053839 -0.0011508432 7.731266e-05 -0.0010335654 -0.0014023633 0.0011516515 0.00053403317 -0.0008623342 0.00013568133 -0.0013427632 -0.00065370544 0.0012965618 -0.001060024 -0.0016345308 0.0006997897 0.000726151 0.00046852062 8.831092e-06 0.00026894765 0.0012449444 -0.0003440925 0.0013882834 4.6188425e-06 -0.0006451206 0.001004049 0.0012491844 0.0013398485 0.0003942209 0.0015255868 0.0012720606 0.00038813538 -0.0011891599 0.0014243359 0.0005953195 0.00012916159 0.00097269437 0.0010297728 -0.00043534004 0.0011452351 0.0009828259 -0.0005834217 2.8337436e-05 -0.0003436352 0.0013157245 -0.00087390514 0.0015593404 -0.00024705415 0.0006120159 -0.00025909077 -0.0007296913 -0.00015963956 0.00044733955 0.0015005775 0.00024975385 -0.0016560389 -0.0008345344 -0.0006847723 0.0014510617 -0.00011623071 0.0007131107 -0.00075831497 -0.0006030018 -0.0012070538 -0.0008889496 0.0013028533 -0.0007784298 -0.00029679004 0.00087923056 -0.0012248349 -0.0007096628 -0.00085482025 -0.0010815697 0.00040521947 0.0012048277 -0.00023988512 0.0008299878 -0.0015237851 -0.00070755876 0.001642171 -0.0007599684 0.00036464943 -0.000284612 -0.0012933749 -0.0006338639 -0.00011229993 0.0015963109 0.0006857345 0.0010803862 0.0012070473 -0.0014759639 -0.0012589404 6.127816e-05 2.6105923e-05 0.001392075 9.4083705e-05 -0.0005839202 0.00070323877 0.001427837 -0.0011456574 -0.00017838945 -0.0016240536 0.0004064185 -0.0008685591 0.00025748461 0.0012673403 -0.001062552 0.0007864311 -0.0004910883 -0.0007973301 -0.00046107578 0.0013501153 -0.0015645081 0.0013610236 -0.00017568737 0.00028104687 0.0014913318 -0.00088857434 0.0014506658 0.0005509463 -0.0009225261 -0.0008940059 -0.0014730521 -0.0013300054 0.001080188 8.030515e-05 0.0012332733 0.00010489341 0.0007350498 0.0008569446 -4.6139237e-05 -0.0015126718 0.0010980687 -0.00075467554 0.0016127048 -0.0011329026 0.0012128134 -0.0006969044 -0.0010027308 0.0009097814 -0.00058639114 0.00033986542 0.0011581046 0.0008765367 0.00057710026 0.00012880316 -0.0011275193 -0.00075662904 0.00071801426 0.0015774899 0.0006802497 -0.000904245 -0.0008428068 -0.00020356446 -0.001153227 -0.001419532 -0.0004624713 0.0010147354 -0.00049000495 0.0011223179 0.0006539363 0.0013666076 0.0009805319 -0.00040922686 0.0011171227 -5.564559e-05 -0.00042730823 0.00055660633 0.0004145667 0.0010777995 -0.000685059 0.00044267104 0.0005212578 -0.0016263099 0.00023190647 -0.00096577517 -0.0011006251 -0.0012287454 0.0009297455 -0.00055217254 -5.238878e-06 0.00011811276 0.0013805098 -5.505058e-05 -0.0012197146 0.001349554 0.0016972995 0.00044059448 -0.00080089585 -0.00027178277 -0.0004316558 0.0011566385 -0.00015836288 0.00010861931 -0.0007903476 -0.0007144978 -0.00018930508 0.0011431659 -0.0010394615 -0.00013925767 -0.0005519318 0.0005240324 -0.0012261398 0.00018672502 -0.00085608236 0.0014746354 0.0009727545 0.0012362923 0.00068356347 0.0016755314 -0.0013514097 -0.00062043016 0.000549136 0.00025528626 0.0006704896 -0.0014130888 -1.1593472e-05 -0.0011605633 -0.0011675159 0.0010229404 -0.001282253 0.00062353176 0.0001225989 -0.00015499929 0.0012665943 0.00060854654 -4.7759455e-05 -0.0006518243 -0.0005386729 -0.0008999492 0.0008981455 -0.00029022776 0.00032399065 0.0012898325 0.00062457164 0.0011093606 -2.2632463e-05 -0.0008573019 -0.0011682212 0.001031488 -0.001352554 -0.0012945872 0.0011066777 9.051236e-05 0.0011810816 -0.00032953406 -0.00011748121 0.001577737 0.000899075 0.00037828635 -0.0007312528 0.000787966 0.0009234588 9.054451e-05 -0.0011992115 0.00028573314 -0.0002315403 0.00018152359 -0.00094797823 -7.482169e-05 0.00082495675 -0.0005398186 -0.00043194328 -0.0012987133 0.0007550669 -0.0008393351 -0.0003672815 0.00039702456 0.00025090022 -0.0011422104 0.0009994578 0.0012898415 0.0009942923 0.0011371531 9.097944e-05 0.00064115995 -0.0005998738 -0.00041434474 
a -0.0007927456 -0.000741272 -2.1424068e-05 -0.00041968285 -0.00058938126 -0.00026794706 -0.0010639229 0.001132938 0.0001168334 -0.00029236585 -0.00041574368 -8.560611e-05 -0.00021195717 -8.5919775e-05 -0.0016076369 0.0005173814 -0.0012191711 -0.00017292918 0.0005677975 -5.0251336e-05 -0.00027863216 0.00049759686 0.0011439772 -0.0010922408 0.0008107708 0.0005788114 0.0009838218 -0.0010506928 0.00020497682 0.0010498378 -0.0009001762 0.00051624415 0.0010705515 -0.0006005135 0.0003153005 -0.0009576468 -0.0010396292 0.0014245455 -7.636222e-06 -0.0008944505 -0.00083832216 0.0007898807 0.00048000127 -0.00049145875 0.0008803843 0.0013349003 0.00021810891 -0.0016622903 -0.0012046362 -0.00077600713 -0.00014258588 -0.00086086744 -0.0007215724 0.0014755175 -0.00036410298 -0.0007107569 -0.0008179381 0.0016467856 -0.0006714409 0.0004484195 0.000121536345 -0.0006333645 -0.00020329996 0.0008770043 -0.0007932333 -0.0015949088 0.00040086135 -0.00082825136 0.001047188 0.0007442224 -0.0012010973 0.00083082286 0.00033619997 0.00029439887 0.00111029 -0.00028565494 0.00013756275 0.00015412086 0.0009635907 0.0010639041 -0.0010135376 -0.0009283944 -0.0016012422 0.0011809635 -0.0011990095 -0.0014996526 0.0011627055 -0.00014472514 0.0011649305 -0.0016595379 0.0010663263 -0.0007984998 -7.4187636e-05 0.00060988753 -0.00080605823 0.00023621805 0.001311989 -0.0001036403 -0.0008205987 -0.00085737585 0.001453362 0.0011146965 0.00129257 -0.0015858188 0.00072645 0.0009564197 -0.00051816576 -0.00034481013 0.0013123807 0.00095269014 -0.0002880571 0.00020337541 -0.0014456703 0.00081588695 -0.00019031693 -0.00097378535 -0.000131135 -0.00095681293 -0.0008813738 -0.00062598474 -2.6055724e-05 0.001559078 0.0015830719 -0.0010780562 0.0011908391 0.0014498523 -0.0011335934 0.0013717713 0.0010065759 0.0015494465 -0.0005103251 0.0016426627 -0.0010338333 0.0015791721 -0.00086845603 -0.0003793519 0.00024082017 -2.5833851e-06 -0.00036060592 0.0009742358 -0.00057362363 0.0011883706 -0.00067095505 -0.0007191569 0.0009805808 0.00045995897 -0.00060139364 0.0005231564 0.001467271 -0.001195089 0.000393941 0.0014683525 0.00072010927 -0.0005725999 -0.00052742724 0.0001604285 0.0008457638 -0.0005671151 0.0015231621 0.0014142118 0.00012305594 -0.000155981 0.00042584728 -0.0011767166 0.00077579997 -0.00015081005 -0.0010326395 0.0012152564 0.0013291842 -0.0014652733 0.0010939118 -9.224286e-05 0.0014025035 0.0011994672 -0.00073037256 0.000502494 -0.00091672357 0.0010921252 -0.00067271205 0.0010505654 0.00075160264 0.001514679 0.00057936937 -0.0004922139 -0.0015318175 -0.001517045 -0.0015305679 -0.0013442213 -0.0012221126 -0.00014545461 -3.0555002e-05 0.0011500578 0.0005614301 -0.00013347833 0.00091879437 0.00062813255 0.0007477717 -0.00021526466 -0.0010206546 0.0004858369 -7.405318e-05 0.001628522 -0.00082200713 7.4362775e-05 -0.0012364078 0.0016007822 0.00015274146 0.000944653 0.0016373738 0.00081836845 0.00056417193 -0.00096757436 -0.0010703314 0.0009726966 -0.000982132 0.00055039214 -0.00037229122 -5.5825876e-05 0.0013258327 4.182036e-05 0.0010882552 0.0014571325 0.0015569624 -0.00089413626 -0.0016117269 0.0015242868 0.0010599575 0.0016500462 0.0008982225 -0.0014107862 0.0005874413 -0.0004917024 0.00032096586 -0.0007128839 -0.0010581027 0.00067805656 0.0011455847 -0.00045742677 0.0009268871 9.0621645e-05 -3.0447245e-05 0.0014355974 -0.00031461733 0.0010751733 0.000592715 0.00086519687 -0.0013161028 0.0011822262 -0.0001480694 -0.00081459945 0.0011119107 -0.0009594527 -0.0014800717 0.0007240941 0.0008362742 -0.00044307945 0.0006083736 0.00089934963 0.00029313457 0.0012592548 0.0015432406 -0.00044726772 -0.0014498727 0.0006363486 0.00073356426 -0.0012716126 -0.0015923972 -0.00022124397 -0.0005950259 -0.00029995595 0.0005007361 0.00030880712 0.0006677552 0.000661051 -0.00041752026 -0.00025077516 -0.0014994032 0.001428845 0.00011024613 -0.00015612996 0.0006446364 0.00081356755 0.00052418426 0.00058264943 0.0009032283 0.00026223014 0.00060740585 0.0007510758 0.0012202847 0.00090271723 -0.0010188998 0.0014595395 -0.0015815599 0.0001614663 0.0012717906 -0.00032285502 -0.0010281048 -0.00036535424 -0.0009150099 -0.0013161201 
is 0.00079665455 0.0013231572 -0.00061815465 0.00058867387 -0.00025839958 0.0005987508 0.00056828745 -0.0014420792 0.0006317303 -0.0013152028 0.0014546697 0.000977616 -0.00038056824 -3.007321e-06 -0.00050947536 -0.0005861122 0.0010809723 -0.0009192206 -0.00036894603 0.00065381825 -0.0013107186 -0.00058248907 -0.0015059649 -0.0009764084 0.0014338682 -0.001186262 -0.0012913598 -0.00036214612 0.0011289958 0.0013282328 -0.0013754596 0.0014222226 0.0013174549 0.0015628033 -0.0016420285 0.0013902083 0.0015542051 0.0007404495 -0.00029354592 -0.00089531473 0.00026181148 0.001566664 -0.0013766744 -0.0010165158 -0.00085902703 -0.0007909181 0.00048486437 -0.0009469067 -0.0005832928 0.00089345383 -0.000476895 -0.0010473039 -0.0012334193 0.0010789395 -0.0012118751 0.00086158724 0.0002270695 0.0009321283 -0.0016226824 -0.0005478299 0.0009370579 0.00015618808 0.00043669925 -0.001533437 -0.001624539 0.0013872851 -0.0009114134 -0.00079160754 0.00067568483 -0.0003222033 0.00017988391 0.0014942846 0.0013444495 -0.0015469628 -0.00071998814 0.0007040464 0.0010171693 0.0006297116 -1.9758041e-05 -0.0012184805 -0.0009147185 0.0001432156 4.4529435e-05 0.0012749643 0.0012935284 0.0014827757 -0.0014175159 0.0007865122 -0.0004865032 0.0015558129 0.0012688847 0.0014973094 0.0009481905 -0.0003884372 0.0010228546 0.0002186838 -0.0013172319 0.0016580349 -0.0011310602 -0.0008615537 0.00043863623 -0.00036371642 0.0015938827 0.0003179613 -0.0006405398 0.0016146498 0.0006157666 -0.0008151354 0.0011770318 0.001599339 -0.00097383006 0.00014817932 0.00029736452 0.0006741932 -0.0009942083 -0.0005337828 -0.0006364361 0.0003718018 -0.0014929154 0.0010092225 -0.0016371119 -0.0006444908 0.0011105563 0.0016442841 -0.0007442597 -0.00045598668 -6.91667e-05 -4.6421777e-05 8.877844e-05 -0.0004286246 0.00096212846 0.0003253297 0.0015770708 -0.00063028786 -0.0002703503 0.0015556103 0.001198289 -0.0008859228 -3.944348e-05 -0.0008207698 -0.0013258704 0.001536293 0.001619941 0.00061448105 -0.0010435708 -0.00103186 0.0009975911 -0.0008814621 -0.0013370089 0.00097281166 0.00051265775 0.0005673893 -0.0010373477 0.00013507616 -0.0007564087 0.0016250152 0.0016375196 -4.9561866e-05 -7.986129e-05 -0.001369055 -0.0006906376 0.00037385616 -0.0009581033 -0.0015788972 0.00034421255 -0.0012672979 7.176639e-05 0.00045211404 0.0012735138 6.149186e-05 0.00029050783 0.0011076845 0.0013497929 6.506413e-05 0.00072643795 0.00013051498 0.00162561 0.0010423516 -0.0016416254 0.001351337 -0.0003159249 0.00085943885 0.00025421684 -0.00094310637 -0.00012396742 -0.001066988 0.0015283651 0.0015499267 -0.0010043533 -0.00040330345 -0.0007101253 0.00065647205 0.0005577689 -0.0012596272 0.00023354162 0.0004541396 -0.0005047944 -0.00077408616 0.00021905809 0.00052277005 0.0010547346 0.0011398714 7.675539e-05 0.0014900025 -0.0010061833 -0.0012767586 0.0005511936 -0.00065555196 0.0012232984 -0.0016711428 0.001608195 0.0012116007 0.0014373759 0.0005213565 0.000747263 -0.0013397094 -0.0010335533 0.001538336 -0.00031990084 0.0016494731 -0.00056691724 0.00086968875 0.0007159525 0.00149074 0.0005015191 0.00048291966 0.001567387 0.0011397693 0.0014773535 0.0002531751 0.00066985993 0.0012604702 -0.00010575204 0.0007239645 0.0010652634 0.0010340131 -0.0009892818 -0.0007600734 -5.4623575e-05 0.0005804971 -4.38218e-05 0.00082969747 0.00030000377 0.0015130593 -9.259522e-05 -0.00023496171 -0.0009923609 -0.00161012 -0.0014618455 -0.0015478209 -0.0003249462 -0.0012901707 0.0004503572 0.00081383844 0.00035734827 -0.0015213029 -0.0007531808 -0.0004050008 -0.0014530972 -0.001452054 0.00039636946 0.00062589254 4.6169447e-05 -0.0013715558 -0.00052696787 -0.0006209045 0.001651024 -0.0009820866 -0.0016459646 0.0013985784 0.0013451193 -0.0004895086 0.0010800579 0.0012274561 -0.00057442277 0.00016494036 -6.861718e-06 0.00039468537 -0.0016768522 -0.0012627708 -0.00064245414 -0.0005067949 0.0008815481 0.00024093087 0.0006016015 0.00012484178 -0.0001535538 4.4773384e-05 -1.5409936e-05 0.0011527657 -0.0007364816 -0.0013230748 -0.0015411635 0.0009707541 0.000623169 -0.00015999252 0.001595572 -0.0013864732 -0.0009911623 -0.0012944398 
field_bn:00007985n 0.00045848364 -0.000671252 0.00042573203 3.863477e-05 0.0014191954 0.0011928978 -8.123752e-06 -0.0014190829 0.0001439486 0.0010991454 -0.0007208897 -0.00067254686 -0.00026515298 -0.0007406259 0.0016410707 0.00050684705 0.0010350562 -0.00079184683 -0.0010775623 0.00018809618 0.00026550333 0.0011916074 0.0009885045 -0.00090401823 0.0014369673 -0.0009926466 -0.0013189988 0.00037794615 -0.00026676987 -0.0014661438 -0.00010736808 -0.00054171315 0.000655192 -0.0014176934 -0.0015362866 0.0008637857 0.0009295138 0.0015500742 0.001675769 0.0016121016 0.0006318472 -0.0016145856 -0.001630601 0.0014990744 0.0010694405 0.0011282515 -0.0004293449 -0.0014899152 0.0011773416 -0.0013902093 0.0007443891 0.0010407072 0.0002645098 0.0012503383 0.000555525 -0.00077974267 0.00024646585 0.0016386274 -0.00033405834 -0.00127523 0.00032768946 0.00019882896 -0.000646286 -0.0010114638 0.00083282375 6.372751e-05 0.0015555831 -0.0010605685 0.0009522781 -0.0011985939 4.0273757e-05 0.0015555213 0.0013724661 0.0014010699 0.00071743265 0.0006754561 0.00033233612 0.0006661828 0.00035251724 0.00043331334 0.00079676806 0.0007901782 -0.00047197833 0.00030874135 -0.0010024796 -9.6236845e-06 0.0011654382 0.00027824138 -0.0008844038 -0.0008850383 -0.00038365033 -0.00063541706 0.001331018 -0.0016394458 0.0003138423 -7.10342e-05 0.0009821969 -0.00096277765 -0.0016006879 8.2287144e-05 -0.00042379144 1.3369293e-05 -0.0010383769 0.0010100955 0.0008760646 -0.00018239165 0.0008073139 -0.001585939 0.0011868613 -0.0013251412 0.0012069672 -0.0017044748 5.1176994e-05 -0.00042492038 -0.0010725614 -0.0005594163 0.000608959 -0.0013870625 -0.0016385172 0.0010374328 0.001194929 -0.00076509785 0.0010067138 -0.001355473 -0.0016154576 0.00044990683 -0.001031689 -0.00032378786 -0.0008644196 0.0003482747 -0.0009914646 0.0017149488 0.0006544453 -0.00029584687 0.0011819141 0.0014569222 -0.00062899874 0.00055421126 -0.00038696712 -0.001187752 -0.0011374223 -4.037698e-05 -0.000674069 -0.00074116193 -0.0013799737 0.0008608526 0.0006648536 -0.0007609211 -1.3648374e-05 0.0013294491 -0.00024246224 -0.0004900206 0.001362865 -0.0005715023 0.0012392547 0.0011826219 0.0015871333 0.0016495092 -0.0011273659 -0.00041334744 0.0012242221 0.0007922857 9.1859e-05 0.00011345521 -0.001223004 -0.0009085929 0.0013869505 -0.0013082583 -0.0004907428 -0.0014397682 0.00048716943 -0.00028180974 -0.0014249792 -4.982805e-05 0.0010463678 1.7012262e-05 -0.0012411295 0.00039256093 -0.0005411217 -0.0012401623 -0.00021417878 -0.00045869427 -0.0015224465 0.0015899015 -0.0006371659 0.0005655863 -0.0016507336 0.000992184 -0.0013139423 0.0012569673 0.0003451422 0.0013735396 0.00010618127 -0.000852502 -0.0009297094 0.0013492906 -0.00088293164 -0.0011103508 0.00050599664 -0.00069368695 0.00057625957 2.4652742e-05 0.00072875817 -0.0013263315 -0.0010427897 0.00035221674 -0.00057392113 0.0012320507 9.9806646e-05 -0.00017353834 -0.0015782531 0.0013185529 0.00027024248 0.00067529734 -0.0014389189 0.0013587532 0.00041796736 -0.00058766303 0.00030386273 0.000826944 0.00013657099 9.4893534e-05 -0.0015883533 -0.00031387396 0.0011253324 0.0014132994 4.658029e-05 -0.0008232094 -0.0010401052 0.00072572223 0.0010565872 -0.0010972061 0.0011397693 0.0006163878 -0.0013612787 -0.0007371054 0.00017098084 -0.000115457115 -0.001111946 -0.0014290684 0.0013971865 -0.0014254772 0.000630903 0.000673613 -0.00045090253 -0.00021999491 -0.0014829574 0.00073890825 -0.00026454593 -0.00094665476 -0.00044744415 0.00030399655 -0.0014636706 -0.0007315588 -0.0006335671 0.0010770478 0.00044052198 -0.0015199899 -0.00048828457 -7.135869e-05 0.0013797836 -0.0008699334 -0.00046410694 0.0009411009 -0.00024756856 -0.0010145613 0.0003601504 -0.00044139105 0.00032529916 0.0005730517 0.0010111007 0.0014366101 -0.001263987 0.0010676811 0.0008799813 -0.0013518773 0.00034134026 -0.00087347144 -0.000958372 0.0014075519 -0.00091006665 -0.0011218713 0.0010135258 -0.0010231241 -0.0005669657 -0.0009837514 -0.0013754298 0.0004994314 0.0005847133 0.0009235202 -0.000107386055 0.0005628688 0.0015786748 -0.0003207605 -0.00022403052 0.0010832866 0.0014284918 -0.0015073306 0.0009808856 0.0016032519 
among -0.00075726147 -0.00046706948 5.176791e-05 -0.0007286496 0.0013871524 -0.00046101777 6.9663665e-06 -0.001516331 0.00013863055 -0.00042007884 0.00075251044 -0.00070468703 -0.0014530516 0.0010547945 0.0002454061 0.00079437654 -0.00014806075 -0.00037337202 0.00030679195 0.00079762674 -0.00085070025 -0.00027881283 0.0006144856 0.00038237876 -0.0016663542 -0.0013038813 0.0016205814 -0.00048775005 -0.0014107737 -0.0002106381 0.0013168096 -0.0013090839 -0.0015293173 0.00010616982 0.0010185463 0.00029993898 7.849607e-05 0.00054171047 -0.0015297269 -0.0015365813 0.0009899198 -0.0005608784 -0.0008987369 0.0014359591 0.0012758864 0.001195577 -0.0005779568 1.5942363e-05 0.00016749337 0.0013144149 -0.0014764864 0.0016526597 0.00022782353 0.0012608942 -0.00046657166 0.0011281483 0.0009068071 0.00014952027 -0.00044600826 0.00040710135 0.0012084917 -0.00068299985 8.931168e-06 -0.00095879234 -0.00020541206 0.0010606397 -0.00019640927 -0.0010889322 -0.0006349908 -0.0011119065 -4.8796282e-05 -0.00011166899 -0.0006635934 0.00046139056 0.0013208435 -0.0015435957 -0.00029794622 -0.001664645 -0.0010463 -0.000472547 0.00045623304 -0.0010650246 0.0006452248 -9.166108e-05 -0.0009919999 0.0014859874 0.0001260808 -0.00035938583 0.00023197765 0.0008577149 -0.00069937314 -0.0015976923 0.0013292194 -0.0010566263 0.001034534 0.0007913981 0.0012417524 -0.0013068801 -0.0013622866 0.00036348935 -7.303505e-05 0.00025883625 -0.0011817188 -0.0005939735 -0.00022559632 -0.0012084988 0.0011214558 -0.0008252858 -0.0014675034 0.0012920517 3.811659e-05 -0.0015274468 0.00081730133 0.00036675256 -0.0016552665 0.0013817038 -0.0015616801 -0.0010109335 -0.00016948568 -0.0015771098 0.0005956381 -0.0016511517 -0.0009123621 -0.0008944412 -0.0011138887 -0.00044489146 0.0011647057 -0.00019603714 -0.0002354367 0.0014096645 -0.0006070632 0.0015541133 -0.0015666506 -0.0007348649 0.0014471057 -0.0009607909 0.00029393708 -0.0015804642 0.00013027375 0.0013523871 -0.00010153352 -0.0016488408 0.0015280772 0.0006825562 0.0014320269 0.000731781 0.0014423603 0.00047522338 -0.001301832 0.0014189862 -0.000978575 0.0014481496 0.00051262317 -6.077566e-05 -0.0011678298 -0.0013955435 -0.0012317413 -0.00047556366 -0.0010122786 -0.0001740974 0.0010205095 -0.0006774804 0.0003957154 1.3951352e-05 -0.0013503572 -0.00013576302 4.5477013e-06 -0.0008492853 -0.0004645669 -0.0013201425 -0.00092993426 0.0001252091 -0.00022199364 -3.7228336e-05 -0.0007859766 0.00024725034 0.0013563554 -0.0004919597 0.0006938627 -0.0013380778 -0.0011717693 -0.00014223617 -0.00029427942 -0.0015825358 0.001269968 0.0014267799 -0.0010946026 0.0008672684 -0.0010795032 -0.0014675049 0.00046384276 -0.00094755465 0.0008077921 0.0005321116 0.0008532373 -0.00090697943 0.0010204548 0.0011979338 0.0010080843 0.0002231991 -0.00020494155 -0.0006557192 0.0013519509 -0.0016291682 -5.415729e-05 -0.0005577397 -0.0016286393 -0.0006358523 0.0011704533 0.0009289823 -0.0014185641 0.0008217143 -0.0014232397 -0.00039679933 -0.0014355629 0.0015617943 -0.00079133123 0.0005867025 0.0006512007 0.00054891186 6.2600404e-05 -0.0015121773 0.0007195295 -0.001588148 -0.0013339445 -0.0005845156 0.00046870066 -0.0016480293 0.0013734617 -0.0012821768 0.00073118083 -0.0011654448 0.0005904113 0.00039879538 -0.0011695715 -0.00093329384 -0.00095117895 0.0009841147 0.0013544888 -9.4153365e-05 -0.0012239345 -0.0013451483 -0.0007891422 -0.00095983094 -0.0016462959 -4.8822865e-05 -0.0012357176 0.0014260598 0.0008540689 -0.0002649285 -0.0010287383 -0.0004059481 -0.00044479154 0.001235731 0.00035048617 0.0014827758 -0.001345722 0.000794237 -0.0002941503 0.00080509 -0.0002524613 -0.0010819138 -0.0012679598 -0.0007073733 0.00017593444 -0.000849613 -0.0016072298 0.0010019102 -0.0009616744 -0.0013923281 0.00049995026 0.00035776844 0.0013182119 0.00034903188 0.0004946482 -0.0014033936 -0.0008870971 0.0008718047 0.0006279077 -0.0009998571 -0.0013430959 0.00028819437 -0.00037913572 -0.0003027371 -0.00026189824 0.00034803056 0.0015908972 -0.0014154373 -0.001415476 0.00067268877 -0.0006705952 -0.00040587882 -0.00053264917 -0.00017550927 0.0015662784 0.00046612445 -0.00016132707 -0.0012828449 0.00047543464 0.0016319959 
partial 0.0001427867 -0.00046736185 -0.00049509143 -0.001564155 0.00042714918 -0.0006993187 -0.00065264176 0.00014364159 -0.00024292908 0.00096446474 -0.00087264605 -0.0011721916 0.00023808911 0.0006049974 0.00063136773 -0.0013562164 0.0016131003 -0.0009988607 4.4468015e-05 0.0002659923 -0.0011894775 -0.00034677936 0.0005259479 -0.001097611 -0.00074187503 0.0006718583 0.0012163373 0.0010685421 0.0016072892 -1.6487642e-05 -0.00020351424 0.0006623276 0.0003984807 0.00068737764 -0.0009978547 0.00073129643 -3.6638037e-05 0.00055544154 -0.00078505365 0.0012790315 0.0009833889 0.0006179741 0.0014457409 -0.0007090933 -0.0002969682 -0.0012147098 0.00025791326 0.0002324961 0.0007231679 0.00090759346 0.0013905453 0.0014563806 -0.0008838586 -0.0015912956 0.00028333 -0.00072725484 0.0014670974 0.0015205948 -0.00062901963 -0.00018922103 -0.00146079 -0.00044937685 0.0016042565 0.0003733595 -0.0012816424 0.0007636516 0.001120595 0.000640117 -0.0015786645 0.0008798973 0.00055874913 -0.00068886194 -0.0012806521 -0.0011301844 0.0011797859 -0.0010988634 -0.00012644807 0.00028756988 -0.000624057 -0.0013195098 5.6931138e-05 0.0011836964 -0.0007185337 -0.00034541753 -0.001261363 0.00083349174 -0.00027820547 -0.0005093758 0.0011664694 0.0014369941 0.0012988994 0.00153807 0.0010086644 0.00017759607 0.00085085136 0.0015551547 0.00047840585 0.00027817997 -7.79783e-06 -0.0016249382 -0.0010461152 -0.00080285256 0.00020709245 -0.0013970279 0.0016734685 0.00042959533 -0.00026578133 0.001465516 -0.00040325918 -0.0007640693 -3.1835596e-05 -0.0014873496 0.0006770587 0.0015499813 0.00057145266 0.0016481088 -0.0009926534 0.00019220673 0.0011013245 -0.0015757981 -0.0013715288 -0.0010686803 -0.0007762353 -0.0012653238 -0.00023220202 -0.000926052 -0.0011137301 -0.0008408369 -0.0012190548 0.0011323711 0.0012839526 0.0011236921 -8.32508e-05 0.00047388283 0.0002664686 0.001133067 0.0012225825 -0.000798666 0.000104049526 0.0010837201 -0.0008464227 0.0012125942 0.00017693544 -0.0008912637 -0.00037578263 0.0005266846 -0.0012674764 0.0015249314 0.0015137823 -0.0001022014 0.0008103253 -0.00039344863 0.00012162907 0.0017158418 0.001274326 0.0016354811 -0.0004517501 -0.0008204071 -0.0009871146 -0.0004998515 0.001580505 0.0011975302 -0.0010714359 -0.0016716443 -0.00086341135 -0.0015285023 2.3051107e-05 0.001277268 0.0003421813 0.0004907842 0.00039642234 -0.0011718207 0.00044163087 -0.001008769 -2.0839721e-05 -0.00013808119 0.00041193102 0.0008986247 0.00058772956 0.0015472806 -0.0005083996 0.0012980327 0.0014589794 -0.0009705995 0.0007858513 0.0011396467 0.00059890957 -0.00010035733 0.0007633548 0.0015522854 -0.0014259283 -0.0013535768 -0.0011149766 0.00020035972 0.00028655765 -0.00025991426 8.5646396e-05 0.0015482093 0.0010313042 0.0009787576 0.0011278105 -0.0006718011 -0.0011975596 -0.00069598696 0.0015380025 0.0013934477 -0.00052415626 0.0013402048 0.0015559308 0.0011601712 -0.0011127844 -0.00010437994 -0.00060866517 -0.00036798595 -0.00082683447 -0.0015165439 -0.0011493141 3.4621244e-05 -0.00039317188 0.00056461076 -0.0007256436 0.000607412 0.0010423093 -0.0010653153 -0.0009251111 0.0011399566 -0.0010188571 0.0013471864 -0.00048132017 7.773891e-06 0.0017516256 -0.00015276094 0.0012010336 -0.0007197031 0.0015957427 -0.00064045 -0.00055785367 -0.001196954 0.001613458 -0.0015867167 0.0010226619 -0.0009877232 -0.00029971282 0.00016919083 -0.00047288544 0.0013914589 -0.00036880063 -0.0016143535 0.00030312705 -0.0015938899 -0.0015891399 0.00092109485 0.001298287 -0.0015383088 0.0012638207 -0.0015916611 0.0006842564 -0.00066532893 -0.00056829245 0.00067673775 0.001008613 -0.0009034566 -0.00013213954 0.0003175243 0.0013877399 -4.6246572e-05 -0.0008922162 0.0008038172 0.00033425156 -0.0012091668 0.00045996418 0.00043170102 0.0012926913 0.0013921635 0.00021630243 0.001311617 0.0016343596 0.0001867566 -0.0016586917 0.0015840572 -0.00085454993 -0.0009539733 0.00037035125 0.00057893724 -0.0012706865 0.0010463691 -0.00153894 -0.0010369518 -0.0014327335 0.00068497035 -0.00071704795 0.0002063391 -0.0006856379 -0.0014151719 0.0012023848 -0.0013496341 1.9069375e-05 -0.0006747737 -0.0014425069 -0.0007231181 
institution_bn:00046954n 0.0009854651 0.001679614 0.0005868052 0.0010049923 -0.00082753476 0.00045745313 -0.0010895358 0.0012151374 -0.00051279017 0.00060817203 -0.0017182119 -0.0008464411 0.00080047746 0.001111581 0.0002771832 -0.00011661598 0.0012485817 0.0016163896 0.00047119486 4.4672423e-05 -0.00044845958 -0.0009303921 0.00048584933 0.00043265094 -0.0016606367 -0.000937236 -0.0017200798 -0.0013429784 6.183864e-05 -0.00072965334 0.00023006972 -0.00089622557 0.0015040685 9.06076e-05 -0.0006762097 0.0013529022 -0.0010093404 0.0005854548 0.0010103352 -0.000728221 4.010491e-05 0.0005020282 -0.0007839607 -0.0006642799 0.00028001552 -0.0014964957 0.00065719255 -0.00046018462 0.0003277934 -0.00010870082 0.00042251253 0.0017366227 -0.0002904851 0.00066387607 0.0009845513 -0.0016915905 0.0013612673 -0.00068618025 -7.146197e-05 0.0009664245 0.0013466243 -0.0001516402 0.0015391742 -0.0017473463 -0.0014651341 -0.0004745325 2.2499087e-05 -0.0012164458 0.0002608165 0.0015855668 -0.0011356989 0.0013342235 0.0017447553 0.00013331907 -0.00074209477 0.00085122744 0.0015701329 0.00025559452 -0.000292099 -0.0010844525 -0.0013641329 0.0014673693 0.00028292285 0.0006029207 0.0010007932 0.0015277509 0.001009124 0.00084357156 0.00034966817 -0.0003108542 0.0011792197 -0.0012285172 0.00050625874 -0.0015761399 -0.0011966563 0.0016293362 0.0007838153 -0.0015844395 0.00065834634 -0.00075973466 0.0017304274 -0.00088072405 -0.0013731107 0.0006596618 0.0010661158 -0.0014459522 -0.0005882111 -1.5101492e-05 0.0015617012 0.0014982908 0.0013462618 -0.0013272059 0.0012490546 -0.0015435675 0.0005989793 0.0002836129 0.00016801902 -0.0014409388 -0.0015518707 -0.00011766843 0.00035136554 -0.0006121367 0.0016961794 0.0017356529 0.0006659041 0.0012043042 0.001586423 -0.0010904666 0.0013894999 -0.0009713273 -0.0010015583 0.0010076518 6.779931e-05 0.0005824512 0.0015915518 0.0010761761 0.0005271251 0.00040298383 0.00017851967 -0.0010381634 -0.0013632681 -0.0011707039 -0.0016107846 -0.00071426196 -0.0016543827 -0.0011946842 0.0011088767 0.00029378297 -0.00063577766 3.5233912e-05 9.280872e-05 0.0005682717 -0.00081527483 0.0017843461 0.0012423976 0.0008135773 -0.00034135545 0.00041377894 -0.001735962 0.0017675026 -0.00042891104 -0.001303818 0.0014622418 -0.0013097604 -0.0017527556 -0.0011847437 0.00068309245 0.0011576609 0.0006379948 -0.000279939 -3.587867e-05 4.342474e-05 -0.0007699289 -0.00067710434 0.0005066258 -0.0015763054 0.0012193365 0.001099502 -0.0004984684 0.0010785196 0.0012186833 0.0017178376 -0.00056590466 0.00056815986 -0.0014939886 0.0014020143 -0.0016969889 0.00063429796 0.001318277 0.0010787828 -0.0003336198 -0.0014278748 -0.0011279008 0.0013114631 0.0011234834 0.0010889735 0.0018267327 0.0009823742 0.0012190812 0.0012891717 0.0016198833 0.00034676204 0.00011677657 0.00041260404 -0.0010789809 0.001134184 -0.00090083265 0.0013741821 0.000934228 -0.0012912668 0.0013028752 0.0010893027 0.0016570436 -0.00019788243 -0.0008514904 0.0004092813 -0.00025374035 0.00027007298 0.00016741411 0.0012236078 0.0013063141 -0.00067405915 -0.00027454057 0.00047821764 -0.00050059095 0.00076535373 -0.0013146987 0.00035105707 0.00029358608 -3.2344604e-05 0.0009001633 0.0006264029 0.0014662379 -0.0009263369 -0.0014353954 0.0017461748 -0.0010049406 -0.0014674716 0.0003057373 -0.00042994338 0.00040213214 0.0006711897 0.001093906 -0.0014983757 0.0008070293 0.0015295905 0.0018653728 -5.2110576e-05 -0.0010064025 0.0011882564 0.0014500878 -0.0015846728 -0.001542615 -0.0013302239 0.00032306847 -0.0008081007 -0.0005882347 0.001744541 0.00083647843 -0.00050430413 -0.0007106047 0.0006793717 0.0010951981 0.00045985705 -0.0004908963 -0.00091220497 -2.4246832e-05 0.0010112742 0.0009966855 0.0008563008 -0.0013188758 -0.00030826576 0.0010478706 -0.0010078467 -0.00023194308 -3.0113219e-05 -0.0014034642 -0.00035787607 -7.8333986e-05 0.000805932 -0.0011104086 -0.0005761335 -0.00063506933 -0.0005609708 -0.0009931665 -0.00074271776 0.0006010571 -0.001363874 -0.0014186989 0.0001095474 8.3217754e-05 0.0010576557 -0.0006664039 -0.0010814216 0.0016705076 0.0012978173 0.0011441241 0.000982951 0.00019622735 9.545619e-05 
need_bn:00091028v 0.0001119877 0.0014588799 -0.0014969169 0.0009776675 0.000337991 0.0012375776 0.00036801983 0.00028348863 0.0011093437 -0.0016664254 -0.0011270038 0.0011377492 0.00065439765 0.0009747526 0.00010181607 -0.0008856121 -0.0007065622 -0.00030285935 2.0874986e-05 -0.001040259 -0.0009518028 0.0012718443 0.0007789639 7.761076e-05 -0.0010709058 0.00044069727 -0.0008733603 -0.0004005898 -0.001570292 -0.0015506244 0.00023936873 0.0008142575 -0.0014505762 0.0013696437 -0.0015281428 -0.0010413956 -0.0006166127 5.255198e-06 -0.00029226934 -0.001352425 -0.0008241039 -0.0012750467 0.0016251489 -0.0005950996 6.5947e-05 0.0005974711 0.0014076103 0.0015078579 -0.0013207399 0.00094607455 -0.00071760424 -0.00042032814 -0.00022871842 0.00024701288 3.4946763e-05 0.0011485931 -0.0010547243 0.00041386983 -0.0013837235 -0.00015920309 -0.00028506262 -0.0014510229 -0.0003142651 0.0005888313 0.0010102105 0.0016218951 -0.0016941868 -0.00071209186 -0.00041051387 0.0013273422 -0.0002209424 0.0010086705 0.0009900392 0.0015819132 0.00056446635 0.0011075072 0.001190615 0.0014645524 0.0013582762 -0.0010363524 -0.00157309 -0.00012636432 0.0007457492 0.0011928087 0.001358529 0.0007623421 0.00016749722 -0.00029553077 0.00090331206 -0.0007550227 0.0006173623 0.0011641853 0.00010608096 -0.0015865596 -0.00012613417 -1.2256087e-05 -3.2750058e-06 0.0005271226 0.00031718155 0.0014504872 0.00080887176 6.155505e-05 -0.0016365247 0.0015176792 -0.0005009996 0.0011366993 0.0015978403 0.00035072851 1.3810608e-05 -0.00074867124 -0.0009336155 0.00079981465 0.00035357542 -0.00078191224 0.00017226656 0.0006443967 0.0014786614 0.0014954914 -0.0003227541 0.00014771213 0.0001246952 -0.00046096192 0.0005915429 0.0009025831 -0.0009834738 -0.0006467423 -0.00103794 0.001505414 -0.0011347161 5.308423e-05 0.0010766111 0.00043223254 3.651485e-05 -0.00060373143 0.00028084204 0.00076371763 0.0010170862 0.0015304729 -0.0011525328 -0.0007322516 0.0013314491 -0.00073810795 0.00011830876 0.0006349466 -0.0007956386 -0.00019919178 -0.00038011983 -0.0009577036 -0.0016079564 -0.0001704065 0.0012237474 -0.0009930438 -0.0009923812 -0.0005012347 0.00086575386 -0.0005808672 0.00019512877 -0.0010546304 -0.0014501886 -0.00049513445 -0.0015244944 -0.0008592672 -0.00160138 0.0014435243 0.0014928492 -0.0012857965 -0.00048390465 -0.00089067814 0.0014612135 2.1688571e-05 -0.00020324002 0.0011823055 -0.00089574244 0.00080664334 -0.0013209077 -0.00051051576 0.00021964795 -5.2962314e-05 -0.0013339662 -0.00073670864 -0.0010380925 -0.001087064 -0.00038992212 -0.0005552257 0.0014976753 0.0005693639 -0.0002963903 0.00011983494 0.00046629307 -0.0008837497 0.00028088246 -0.00064986147 -0.0010254827 0.0009460496 -0.00013364853 -0.00077312905 -0.0006914639 0.001036005 -0.00084487745 0.0013203218 -0.0015647871 -0.0013925717 -0.0015579886 -0.0016408176 0.00032574747 0.0017241765 0.00028369523 -0.0004464673 0.0011774293 0.00047098522 0.0014686539 0.00016116699 0.00022467236 5.037141e-05 -0.0012096792 -0.0002283361 0.00107385 1.1186667e-05 -0.0014726325 0.00035402307 0.0012836022 0.001364135 -0.00019543928 -0.0013343729 -0.0013129943 -0.00069710205 -0.0011356102 -0.00077745644 0.000672717 0.001077063 0.000693582 0.0010151421 -0.0006062768 0.0009765909 -0.0013173207 0.0002132478 -0.0014693548 -5.8985224e-06 -0.0005769683 -0.001615457 0.00067020603 -0.0009605153 0.0011004802 0.0014320281 -0.0005834557 6.013772e-05 0.0013760201 -0.0003920516 0.0012044929 -0.00064530544 0.00022346496 -0.0016302625 0.0012790909 -0.0009341771 0.0010753524 -0.0008199148 0.0014819085 -0.00017169502 -0.0010683169 -0.00083344325 -0.00068248477 4.9331516e-05 -0.00041711197 -0.0010189562 0.0012296664 0.00074061763 0.00025747318 -0.0003487028 0.0006584925 -0.00023019938 0.000732046 0.00034814278 0.0014806731 0.0007285366 0.0005636107 0.0016461374 0.0002754471 0.0012708748 -0.00090301846 -0.00097428035 -0.00078507693 -0.0015510366 0.0004284952 -0.0007063568 -0.0013073249 0.0016243046 0.00050671585 0.000596841 0.0010709494 0.0015702092 -0.0016099309 8.9881876e-05 0.00012363677 -0.0008872322 -0.00088459154 -0.0002896491 -0.0010121996 -0.0009126713 -0.0002342108 0.0013512734 
less 0.001231228 -0.0010751007 0.0013970544 0.00037194238 0.0009624329 -0.0007540286 0.0009988562 -0.00015526397 0.0002904006 -0.00081607304 0.00031466503 -0.0005566301 0.0013109057 0.0015009083 -0.00059301907 -0.0006716681 0.00048464548 0.00038347088 0.0013150569 -0.0010401313 -0.00036049687 -0.0007935051 0.0014048448 -0.0008098297 0.00092745316 0.0013498423 0.0008223992 -0.00018659093 -0.0015686734 0.0007202417 0.000812609 -0.0014345445 0.0005307592 0.0016636219 0.0010241473 0.0013465482 -0.00093587895 0.000350432 0.0011934789 0.0008879574 -0.0015492006 0.0011598446 0.00078979065 -0.0011231628 -0.0013323306 -9.318141e-05 -0.0010853563 -0.0012705835 0.0016225503 -0.0010992724 -5.797622e-05 -0.00015989081 0.0016422143 -0.0010810796 0.00080780196 0.0011113178 0.00015304411 -0.00048716945 -0.00046161874 0.001537376 0.0015433882 0.0016359803 -0.0010217495 0.0011377505 -0.0011461681 -0.0008478812 -0.001269714 0.0010431145 0.0011022764 -0.0008703199 0.001497288 0.0015952762 -0.00021973043 0.001692858 -0.0008987589 0.0005209 0.00019783432 0.0001776374 -0.0011919145 0.0015828271 -0.0016934135 0.000102331454 0.0012538626 0.0015491127 -4.90001e-05 0.00042892637 0.00049355644 -0.00057456474 -0.0003478732 0.001331906 0.00088324124 -0.0014344235 0.00074713933 -0.0012598864 -0.0016477575 -0.0010076615 0.0012436347 -0.00046709785 -0.0010990112 0.0014808339 0.0013055512 0.0012192117 -0.0006390716 -0.0005466372 0.00049443264 0.0015484826 -0.0015145361 -0.0004549901 0.0006715536 -0.00049478404 -0.0012965902 -0.0014056922 0.0006071201 0.000794729 -0.0014546331 -0.0012128603 -0.00067810866 0.0013773579 -0.0016402426 -0.0016044888 2.236893e-05 0.0006881926 -0.00052579783 0.0007407099 0.0013086129 0.00048566455 -0.0007040378 0.0011685503 -0.001488615 0.0009358106 0.0013694136 -0.00078464235 -0.00033626144 -0.0003305153 0.00027156682 -0.0010275805 0.0015738773 -0.00062364904 0.00082363345 0.0001719934 -0.00051018596 9.887945e-05 -0.0003038025 0.0010680906 -3.42473e-05 -0.0006761299 -7.890514e-05 0.0006302797 0.0013844048 0.0013978858 0.0012279148 0.00067730935 0.0011225479 -0.00088149187 0.0007586871 -0.0012509059 6.15044e-05 0.0010730609 0.00072916446 0.00062040356 -0.00080938474 -0.00017134316 -0.00045484627 -0.001180893 -0.0014950588 0.0010897681 -0.0010864575 0.00062682293 -0.0009841358 -0.00140674 -0.00040567166 0.0013780298 -0.0011925419 0.0016283757 0.0007880473 0.0014326816 0.0003609834 -0.0005485803 -0.0008793141 0.00018680545 0.0014942171 0.0014347822 -0.00018499047 -9.781415e-05 -0.000809546 -0.0014144495 0.00068812206 -0.00068067317 0.0012507532 0.001257732 0.000745457 -0.0009088934 -7.130139e-05 -0.0001806212 0.0010621573 -0.000607578 9.447911e-05 0.00053501717 -0.0015520502 0.0013055007 0.001646172 -0.0011133208 -0.0017147706 -0.0009915426 0.0015189768 0.0011903562 0.0011797919 -0.0001627834 0.0009741328 4.0384708e-05 0.00038271377 -0.00026409613 0.00079970807 -0.0007447214 0.00046990847 -0.0012568244 -0.00026899457 0.00022864158 -0.0004629063 -0.00019232853 -0.0014852853 0.0010228971 -0.0011913821 -0.0005849816 0.0012859205 0.0015652005 0.00058623543 0.0009128024 -0.0013658704 -0.0013572323 0.00038075045 0.0009972929 -0.00010071331 -0.001141032 0.00082055613 0.0014927066 0.0012721032 -0.00071181793 0.0001571467 0.00087856693 -0.0014046895 -0.0016769957 0.0002878397 -0.0002509469 -0.0014151157 -0.0016509076 0.0015357365 -0.0006533441 0.0012895564 5.444865e-05 0.00079659576 -0.0014548489 0.00065566396 -0.0011611338 0.0005759159 9.658216e-05 0.0002811954 -0.00011313908 -0.0013452761 -0.00022610958 -0.0008701109 -0.0015964579 0.00041511163 -5.383083e-05 -0.0011511415 6.987863e-05 0.0014725634 -0.00041859673 -0.0015510237 0.00040805104 -0.00071990595 -0.00031854617 -0.0012074811 -0.0016476371 0.0011550881 -0.0014464513 -0.0009143072 0.0014492242 -0.00072092604 -0.0009619853 -0.00023778259 0.0004838666 0.00082762266 -0.0014201121 9.626958e-05 0.0007316715 0.00037801484 0.0013029893 0.0007250858 6.520021e-05 -0.0005326459 -0.0007596429 -0.0010579292 0.0007163227 -0.0006189489 0.0013373218 0.00044950203 -0.0005422081 -9.8545015e-06 0.0015860484 
institutional 0.001644984 -3.2231193e-05 0.001685879 -0.0016068119 0.00015836423 0.0015626362 -0.00038329765 0.0013061959 -3.156395e-05 0.0008725957 0.0013636408 0.0014652822 -0.00010784979 -0.0009000118 -0.0013220409 -0.00017840942 -0.0007798171 -1.9541432e-05 -0.0015035976 -6.4573025e-05 -0.00038864027 -0.00055437005 -0.0008101914 -0.0011248087 -0.0003023122 0.0007123232 -0.00037390253 -0.00075120735 0.001092766 -0.001552351 -0.00064226275 0.00025190297 -0.00019466448 0.001298685 -0.00082001864 0.0005860932 8.60843e-05 -0.00028375044 -0.001020201 -0.0016624546 -0.001143697 0.0014731411 -0.0015688622 0.00058203674 -0.001536318 0.00015492941 -0.00068544404 0.00060708914 0.0008782738 -0.0006946794 -0.00063610706 -0.00029962053 -0.0015288374 -0.00074730546 0.0001594551 -0.00023875955 0.00034435556 0.00048511862 0.0002642062 0.00104125 -0.0004913209 0.00059316936 0.0013996429 -0.0014402671 -7.7226294e-05 6.435681e-05 0.001098231 -0.00038852255 0.0005969113 0.0003168772 0.0015270365 0.0011785278 0.0012324156 0.0006458451 -0.0010746846 -0.00074853963 0.00073122396 -0.0003238803 0.0012542243 -0.0015045931 -0.0013196351 0.0016210383 -0.00020421311 -0.00040325118 -0.001320535 0.0014627653 -0.0011654659 -0.0008449173 -0.001331526 0.0005602626 0.0006396346 9.465167e-05 0.0008280531 0.00146866 -0.00014661308 -0.0014711195 -0.0004450152 -0.0011148624 -0.0013486096 -0.0010917846 0.00014580747 -0.0011950738 -0.0013635026 -0.00012816211 -8.3105406e-05 0.00020441832 -0.0001263812 0.000368748 -0.0015135376 0.0002856704 0.0005046374 -0.0003068491 -0.0009110554 0.0010930585 -0.0009057352 -0.00097230705 0.00054231385 0.0009639339 0.0013377597 0.00038296537 -0.0013970209 0.001282746 -0.0013602613 0.00042139296 0.00067991455 0.001182359 0.00019001582 -0.00019472373 0.0006576262 0.001318635 -0.00086351146 0.00089303916 0.0008913801 0.00058375386 -3.2092157e-06 0.0014328075 0.0008677546 -0.00014713983 -0.0014759053 -0.0016790706 -0.0003340616 0.0014072972 -0.0011201935 -0.0014209215 0.0011812724 -0.001105081 0.0015519131 0.0010305011 0.00064951414 -0.0007145268 -0.00036472242 0.0003657599 0.0005991979 0.0011544243 0.00037668913 -0.0012257107 0.00022076692 0.0008958849 -0.00027390462 0.0012659555 -0.0003005657 -0.0006135601 0.00023321452 0.00012841975 -0.0014751643 -0.0010467753 0.0006744467 -0.0011869692 -0.0011204102 0.0009423735 -0.0010721097 -0.0009816673 0.00047124914 0.0009740783 0.0002882 -0.0007978368 -0.0007258065 0.0014453322 -0.0002149671 0.0011046799 0.00080292544 0.00029343323 0.00021367767 -0.0007210815 -0.0005445167 0.0010794281 0.0009744854 0.0013095265 -0.00020784474 0.00038807458 -0.0014449754 0.0012399527 -0.0010862272 -0.0015746013 -0.0014676091 0.0006084626 -0.0009000672 0.0007485882 -0.0013317025 0.001036563 -0.0015930551 0.001258469 -0.0006548475 -0.0013266831 0.0002462124 0.00077945204 -0.00019097503 -0.00015942244 -6.664746e-05 -0.001402986 4.058793e-05 0.00055411935 -1.6241775e-05 0.001099097 -0.00013790478 -0.0012450321 9.8357916e-05 0.0007752929 0.0011264255 -0.00019361846 -0.00085335394 -7.2405666e-05 0.0010111958 0.0011323595 -0.000114390605 -0.00016333489 -0.00028492734 0.00047569582 -0.00084371597 0.0013025625 -6.873357e-05 0.000456891 0.0002943893 2.4654517e-05 0.0015157374 0.0015407418 -0.001585138 -0.0013109408 0.0016360412 -6.924567e-05 0.00048594578 -0.0015053638 0.0006975609 -0.00016099663 0.00045911115 -0.0007740587 -0.00045587603 0.001498188 -0.0008282337 -0.0013728719 -0.0006029836 -0.00015291457 -0.00011426936 0.00028967712 0.00089255936 -0.0014164319 0.00028257933 0.0002574556 -9.344803e-05 -0.001368214 -0.0010740807 0.0013148095 0.0013560378 8.532665e-05 -0.0013826822 -0.00049030356 -0.000687308 -0.0010203173 0.0002072529 -0.0012072878 -0.00109612 -0.001541135 -0.0010518322 -0.0013489947 0.0008185552 -0.0016243499 0.00067064684 -8.2159415e-05 0.0006157592 -5.702834e-05 -0.0010697736 -0.0009238125 -0.0013453322 0.0015509991 0.0009333994 0.000980408 0.0016261115 0.0006772901 -0.0010068747 -0.0015670067 -0.0009667595 -0.0010884355 0.0010858031 0.0004058723 -0.0009566641 0.0005435471 0.0009768109 0.00032475963 0.0010167712 -0.0004779282 
power_bn:00063940n 0.001596493 -0.0014745987 0.0005282628 0.00042813018 0.0014775245 -0.00061882875 0.0013676529 0.0002653158 0.0005194852 -0.00097575184 0.0006465868 0.00038383805 -0.0016551508 0.00075279863 -0.0004977504 -0.00027399362 -0.00064521737 0.00057072146 -0.0003361706 -0.0016343263 -0.0007420587 -0.00032025902 -0.0015113998 0.0014866219 0.00035731448 -0.0016351586 -0.0013853537 -0.00048195603 -0.00011933025 0.0012017719 -0.0006786618 -0.0014099261 0.00022987863 0.0011376301 0.0003915416 -0.001191379 0.00089529215 8.054603e-05 8.302441e-05 0.00067625265 0.0009950742 -0.001064219 -0.0010138018 0.0003231891 -0.0015407817 -0.0003501249 0.00070337724 -0.0015208597 -0.0012826931 -3.8633367e-05 0.00026816863 -0.00029014118 -0.0014830853 -0.0013712968 -0.00091586146 -0.0012007505 -0.00042261754 0.00087017065 -0.0013044461 0.0015264135 0.0013260263 -0.000997611 -0.0006361646 0.000662622 0.00026798475 -0.0005458027 -0.0005586015 -0.0008214308 0.0013865485 0.0011082193 -0.0016679701 0.0003617881 -0.001562076 0.0011387799 -0.0017461134 0.0007376954 -0.0014155001 -0.0015289994 0.0010420223 0.00023002399 -0.0007913165 0.00092457986 -0.0014980811 4.0412942e-05 -0.00063771283 -0.00011181436 -0.00069817173 -0.0016163458 -0.00029233264 -0.0014968341 0.0016081091 -0.0016084304 0.00027326695 -0.0015218002 -0.0014273904 -0.0003467784 -0.00041627634 -9.412941e-05 0.0006739317 0.00014188599 -0.0011780703 -0.00029353765 -0.0016866311 0.00039419907 0.00011316641 0.0015712521 -0.00043329736 0.0009051213 -4.014984e-05 -0.00046278516 -0.0002235273 -0.00096430833 0.00067805336 -0.0011448208 0.00021254024 -0.000761881 -0.00029318075 0.0008690457 0.0012709274 0.00025448142 0.00026654825 0.0012304303 0.00021116529 9.652325e-05 0.0003519433 -0.00026010207 -0.001309434 -0.00034344004 0.0011749532 -0.0016640655 0.00065834826 -0.0002972068 -0.00086369057 0.0016477973 -0.00018239295 0.00063984573 0.0012881961 -0.00025417993 -0.000910865 0.00060324813 0.00031950214 0.00054347864 -0.0007246062 -0.00075515965 0.0005793829 -0.00018346704 -0.00025719634 0.0001410278 0.0014657866 9.13748e-05 -0.00024666052 -0.0008700638 0.00031262205 -0.00042090035 0.0003835519 5.495268e-05 0.0006627992 0.00058739685 0.0015111681 -0.0011769627 -0.0013390995 0.00062231626 -0.00015232834 0.00020906773 -0.00094156817 0.00037268427 -0.00092077587 -0.0014514297 -0.00054720725 0.00010803301 -0.00095925224 0.0010583468 -0.00093001896 -0.0007482051 -0.0006404873 -0.0007305748 0.0007897782 -0.0011137854 0.0012632826 2.8562168e-05 0.0006997962 0.0005508116 0.0007871032 -0.00091636996 0.00019982024 0.00032060037 -0.000573586 -0.0007022501 -0.0014946928 -0.0006581763 0.0015918791 0.0010524895 0.00094405183 0.0007002947 0.00025941536 0.0005498049 0.0011457703 0.0015205673 -0.0016371373 0.0009983212 0.0014607804 -0.0015652667 0.0005898284 -0.0013881124 -0.0010443372 0.0016229606 -0.0015721068 -7.6125725e-05 0.0011591357 -0.0003716857 -9.101345e-05 0.00078293466 0.0011123857 0.0011254151 0.00054219115 0.0014396005 0.0007319475 -0.00013131148 -0.00042881232 0.0010478735 0.00046936434 0.0011522438 -0.0009328623 -0.00045033777 0.00086663105 -0.0013501265 0.0013349773 -0.0006436781 -0.0007500046 -0.0011753307 -0.00016809201 0.00079371576 0.0003392933 0.00031557 -0.00073040416 0.0007085442 -0.00025873614 0.0014802765 -0.0006065691 -0.0008462632 -0.00034196777 -0.0007487412 -0.00086382247 8.338626e-05 0.001191798 -0.0011268016 0.001387354 -0.0010771033 -0.00054565794 0.000101164274 0.00021644731 -0.0012042407 -0.0005756794 0.0016290203 0.00035314012 -0.00067768875 0.0008505658 0.00025294448 0.0010612083 0.0014879105 -0.0010840391 -0.0010945203 -0.00068419473 0.0015618703 -0.00043614 -0.001650603 -2.2000946e-05 0.00033597034 -0.0014918819 0.00090713357 -0.0011809054 -0.0012332819 -0.00088068144 -0.0014501307 0.00015885537 -0.00022679348 0.0013347612 -9.262441e-05 2.2567505e-05 -0.0013631192 0.0016280436 0.0016218262 0.0015908622 0.0006746862 0.0014969978 0.0014598328 0.0009386715 0.0009689701 0.00055717 -0.0005002859 -0.00068609015 0.00044530135 0.00015886265 -0.0011452269 -0.0012376654 0.00068846793 0.00040665068 -0.00018887375 0.00090840686 -0.0015278842 
